{
  "model_type": "LSTM-CNN",
  "architecture": {
    "input_size": 6,
    "hidden_size": 50,
    "output_size": 1,
    "sequence_length": 60,
    "num_layers": 1
  },
  "weights": {
    "lstm_input_weights": [
      [
        0.03272117,
        0.026848443,
        0.013966009,
        0.011937141,
        -0.075138375,
        0.044001408
      ],
      [
        -0.09030161,
        -0.05762439,
        -0.050805163,
        -0.08229856,
        -0.09855127,
        0.07813492
      ],
      [
        -0.085068345,
        0.012177512,
        0.0032761842,
        0.055568434,
        -0.03626249,
        0.0030611753
      ],
      [
        -0.0071282387,
        -0.009288691,
        -0.034020998,
        0.03368003,
        -0.054181147,
        -0.034227088
      ],
      [
        -0.079472944,
        0.017837621,
        -0.07033493,
        -0.022653744,
        0.08640156,
        -0.07937336
      ],
      [
        0.072045974,
        0.07065608,
        0.009927511,
        -0.06445101,
        -0.08944764,
        0.077065535
      ],
      [
        -0.0036727414,
        0.07181006,
        -0.08863707,
        0.037370615,
        -0.0011743307,
        0.051305868
      ],
      [
        -0.03659439,
        0.05489295,
        -0.06314075,
        -0.049044967,
        -0.06287358,
        0.08596175
      ],
      [
        -0.04816146,
        -0.094771884,
        -0.075196624,
        -0.0108665,
        0.012984678,
        0.07408366
      ],
      [
        -0.08149175,
        -0.087808326,
        -0.07048385,
        -0.07087445,
        -0.0049149543,
        -0.060654234
      ],
      [
        -0.0108410865,
        -0.055094767,
        0.05421097,
        0.05766461,
        -0.06784377,
        0.032287426
      ],
      [
        0.03471387,
        0.014176294,
        -0.02565527,
        -0.085095815,
        -0.078450486,
        -0.057830956
      ],
      [
        0.07892754,
        0.001359418,
        -0.049045708,
        0.09204096,
        -0.00027630478,
        -0.088409804
      ],
      [
        0.0945014,
        0.060333394,
        -0.015951589,
        -0.03637576,
        0.07667642,
        0.04858852
      ],
      [
        0.07655475,
        0.042278074,
        -0.028743908,
        0.08053563,
        -0.09592402,
        0.09858649
      ],
      [
        -0.022997,
        0.072423674,
        0.0051713213,
        0.0011241212,
        0.093991585,
        -0.08029506
      ],
      [
        -0.030270502,
        0.089557834,
        -0.09680116,
        -0.05701208,
        0.09905002,
        -0.09943209
      ],
      [
        0.00029215962,
        -0.04938958,
        -0.07196369,
        0.07076221,
        -0.059950687,
        0.025251843
      ],
      [
        -0.066559985,
        0.07886217,
        0.07396627,
        0.09407287,
        -0.05113473,
        -0.075169206
      ],
      [
        0.011057995,
        0.041957088,
        0.06843724,
        0.06341279,
        -0.093731426,
        0.014239408
      ],
      [
        -0.013717413,
        0.05827532,
        0.09601941,
        0.06436732,
        -0.09891875,
        -0.088454224
      ],
      [
        -0.06974938,
        -0.07958863,
        0.006463863,
        0.081975706,
        0.086943634,
        -0.058631517
      ],
      [
        -0.022958733,
        0.05428923,
        0.097522564,
        0.09514172,
        0.011030242,
        -0.06845978
      ],
      [
        -0.01701925,
        -0.038165476,
        0.008053161,
        -0.042859364,
        -0.02834449,
        0.032780834
      ],
      [
        -0.019925617,
        -0.062164284,
        0.058561094,
        -0.09600635,
        0.078071095,
        -0.05969849
      ],
      [
        -0.077946424,
        -0.092022896,
        0.079307385,
        -0.011386082,
        -0.0867785,
        0.011161566
      ],
      [
        0.008078195,
        -0.08672154,
        -0.09385619,
        -0.05032015,
        0.007576585,
        -0.0018123388
      ],
      [
        0.007840849,
        -0.027865767,
        -0.010594681,
        0.07315221,
        -0.006043911,
        0.096096255
      ],
      [
        0.03376644,
        0.064225964,
        -0.072963975,
        0.079529546,
        -0.027281426,
        0.017880157
      ],
      [
        -0.03645201,
        0.05983887,
        0.002496697,
        0.043109305,
        0.027600773,
        0.072795875
      ],
      [
        -0.0047303885,
        0.076152064,
        -0.08446004,
        -0.03336153,
        -0.032970548,
        -0.050104287
      ],
      [
        0.00022342056,
        0.027330168,
        -0.065557696,
        0.09723229,
        0.09689515,
        -0.089191794
      ],
      [
        0.0740514,
        0.037636183,
        -0.01512742,
        0.014055803,
        0.02557712,
        0.066629715
      ],
      [
        -0.059524275,
        -0.035095453,
        0.0766084,
        -0.003899239,
        0.06401219,
        0.0034852996
      ],
      [
        -0.014016911,
        0.09716249,
        -0.051799204,
        0.08846141,
        -0.00083883107,
        -0.048312735
      ],
      [
        -0.029687569,
        0.07700441,
        0.00087668747,
        0.009200767,
        0.04671576,
        0.09790046
      ],
      [
        0.08554416,
        0.06941063,
        -0.06581092,
        -0.057496905,
        -0.09329031,
        0.04014676
      ],
      [
        -0.005684972,
        -0.01730223,
        0.015563011,
        0.0016827807,
        -0.08886559,
        -0.0651649
      ],
      [
        -0.06456378,
        0.06801682,
        -0.0895865,
        0.074308135,
        -0.07462971,
        0.029269107
      ],
      [
        0.0389776,
        -0.04151101,
        -0.012333274,
        0.020250991,
        -0.004584573,
        -0.008994654
      ],
      [
        0.024827123,
        0.051785164,
        -0.029700138,
        -0.067886904,
        -0.08707168,
        0.07446327
      ],
      [
        -0.055672742,
        0.08396394,
        -0.0017856583,
        0.0935489,
        0.06723017,
        -0.032894157
      ],
      [
        -0.09638696,
        -0.029025242,
        -0.046535682,
        -0.08667393,
        0.0053537115,
        -0.041577842
      ],
      [
        0.015717745,
        -0.06705287,
        -0.09695082,
        0.0756562,
        -0.03944988,
        -0.044662334
      ],
      [
        0.007222727,
        -0.08481715,
        -0.0513417,
        -0.089558385,
        0.08722127,
        -0.026230454
      ],
      [
        -0.09053712,
        -0.031691052,
        -0.06640139,
        0.06877663,
        -0.07132371,
        -0.0659724
      ],
      [
        -0.08717909,
        -0.039687444,
        0.011674002,
        0.09082923,
        -0.053707052,
        0.004121542
      ],
      [
        -0.09894853,
        -0.02476497,
        0.003509447,
        -0.018628336,
        -0.022203423,
        -0.08460772
      ],
      [
        -0.06211498,
        0.093155555,
        -0.036051586,
        -0.07783544,
        0.05609379,
        0.030268334
      ],
      [
        0.068098,
        -0.0011191145,
        -0.038167477,
        0.067849465,
        0.025354646,
        -0.021441057
      ]
    ],
    "lstm_hidden_weights": [
      [
        0.099494286,
        0.027631111,
        0.074808456,
        0.022205546,
        -0.03001301,
        -0.031207822,
        -0.015313074,
        -0.027488276,
        0.0469035,
        -0.07170715,
        0.074353226,
        0.0596276,
        0.07142515,
        0.022621058,
        0.056761406,
        0.039773725,
        0.08797365,
        0.09478789,
        0.034617476,
        0.07894724,
        0.05154877,
        -0.014477208,
        0.049837135,
        0.08271528,
        0.042965986,
        0.04938581,
        0.0429919,
        0.014409043,
        0.0656162,
        -0.0670834,
        0.07738907,
        0.035529263,
        -0.025566481,
        -0.09058759,
        0.09958101,
        -0.051296186,
        0.016294882,
        -0.030088708,
        0.067658834,
        0.005344704,
        -0.09434147,
        -0.09818716,
        0.056103684,
        -0.043231465,
        -0.094342425,
        -0.06565974,
        -0.042357683,
        0.07409754,
        0.086021475,
        -0.059096932
      ],
      [
        0.055432774,
        -0.08810256,
        -0.05011456,
        -0.091387965,
        0.05298478,
        -0.057118513,
        0.09716136,
        -0.041930653,
        0.0064533725,
        0.033494778,
        0.02506449,
        0.0034476072,
        0.06343009,
        0.044396065,
        0.08752292,
        0.047584243,
        0.025022842,
        -0.036381148,
        0.09294102,
        0.040188916,
        -0.03899243,
        0.07466409,
        -0.06923811,
        0.084999345,
        0.01352191,
        -0.013652161,
        -0.07521348,
        -0.09971433,
        0.06245496,
        0.090213366,
        -0.041639756,
        0.095134385,
        0.034762926,
        -0.07621272,
        -0.07415025,
        0.0073798895,
        0.02240131,
        0.0492009,
        -0.011634901,
        -0.032156065,
        -0.012842491,
        -0.08966122,
        0.041666515,
        -0.046905663,
        -0.0502908,
        -0.048657514,
        -0.062895104,
        0.03853982,
        0.055337764,
        0.0063417926
      ],
      [
        0.09207056,
        0.081978135,
        0.06200462,
        0.097290374,
        0.03676603,
        0.013462305,
        -0.08696802,
        -0.09854966,
        0.021739557,
        -0.03558509,
        0.0006378889,
        0.048709996,
        0.09504964,
        0.07838578,
        -0.0023059398,
        0.0110807195,
        0.023531653,
        -0.06582594,
        0.090047546,
        -0.08918822,
        0.022359945,
        0.029306345,
        0.076929875,
        0.015317537,
        0.094069965,
        0.071215846,
        0.016067244,
        -0.09219124,
        -0.0143025145,
        -0.0073606223,
        0.019306377,
        0.013665177,
        -0.052230883,
        0.07316627,
        0.028413601,
        0.011072993,
        -0.08821726,
        -0.05818963,
        -0.07255621,
        -0.038842466,
        0.028548546,
        -0.09525924,
        -0.07918475,
        0.034866504,
        -0.05503874,
        0.0065496713,
        -0.08639214,
        -0.07760036,
        0.026464634,
        -0.09607563
      ],
      [
        0.09260362,
        0.025119014,
        0.09487774,
        0.0799058,
        -0.050474238,
        0.04268875,
        -0.08372216,
        0.07724113,
        -0.008319519,
        0.07556189,
        -0.040346216,
        -0.09425004,
        0.059949167,
        0.025940992,
        0.068187185,
        0.05215154,
        0.095790796,
        0.031208687,
        -0.08378036,
        -0.067375824,
        0.009638928,
        0.062050946,
        0.06772091,
        0.032286547,
        -0.0019331947,
        0.09102049,
        0.009383962,
        0.009462282,
        0.06603671,
        -0.013125658,
        0.04621928,
        0.0035378933,
        0.074763246,
        -0.0727355,
        0.07071059,
        -0.041287113,
        0.057744913,
        0.038243182,
        0.01287365,
        0.06941853,
        0.080209546,
        0.03302806,
        -0.030644082,
        0.04250095,
        -0.0231051,
        -0.097197056,
        -0.016267613,
        -0.04780388,
        0.08657863,
        0.06969727
      ],
      [
        -0.034981534,
        -0.024892405,
        -0.064677835,
        -0.068918034,
        0.0037109107,
        0.035986803,
        -0.07695732,
        0.054064415,
        -0.010449961,
        -0.06506637,
        0.021046206,
        0.0039661676,
        0.0136769265,
        -0.03687282,
        0.0067702755,
        -0.08153763,
        0.09982159,
        -0.0013071299,
        -0.023116253,
        0.09143584,
        0.037196644,
        -0.01901953,
        -0.0020045042,
        0.07479999,
        -0.09990592,
        0.04571908,
        -0.09384628,
        -0.02131369,
        0.08933244,
        0.03347426,
        -0.024801873,
        0.0040355697,
        0.019388556,
        0.06816078,
        -0.06416233,
        -0.099431016,
        0.058336757,
        0.055135317,
        0.05548642,
        -0.024053022,
        0.049319036,
        -0.03975005,
        -0.004968621,
        -0.021954179,
        0.0017802715,
        0.050402455,
        -0.017646529,
        -0.0251806,
        0.08510547,
        -0.09409676
      ],
      [
        0.044440366,
        -0.07415068,
        0.045887,
        0.032053836,
        0.06872771,
        0.0020760745,
        -0.09308245,
        0.05510754,
        0.093524344,
        -0.09560871,
        0.09985376,
        -0.08526786,
        -0.09888814,
        0.081762694,
        0.037287854,
        0.06114591,
        0.0606407,
        -0.059460115,
        -0.021322347,
        0.086479254,
        -0.018268682,
        -0.07135756,
        -0.06979112,
        0.05663169,
        0.052110024,
        0.09687918,
        0.013002679,
        -0.05294323,
        0.043929435,
        0.025290422,
        0.028242968,
        0.06858454,
        -0.035999343,
        -0.082097486,
        0.06815737,
        -0.08973835,
        0.025248654,
        -0.047435142,
        0.0147183165,
        -0.047692563,
        -0.032745674,
        -0.045061566,
        -0.0058630705,
        0.0980253,
        -0.048019003,
        0.080239676,
        0.009624004,
        -0.09093001,
        0.048434563,
        -0.033954524
      ],
      [
        0.012280248,
        0.011277914,
        -0.008600853,
        0.043195657,
        -0.088257335,
        0.025929756,
        -0.08488911,
        0.0017108172,
        -0.08929198,
        -0.096783616,
        0.025038846,
        0.056439705,
        0.023233034,
        0.07841041,
        0.07415498,
        0.011502668,
        -0.09572399,
        0.02996204,
        0.034883924,
        0.049645804,
        -0.02927132,
        0.03790193,
        0.056547068,
        0.023292944,
        0.056960516,
        0.059355117,
        -0.010458037,
        -0.00052428246,
        0.05092635,
        -0.09113176,
        0.0075247735,
        0.093623586,
        0.015603855,
        -0.096704796,
        -0.07784529,
        -0.0312742,
        0.060605787,
        0.05272474,
        0.09402912,
        -0.08688157,
        0.049520276,
        -0.07526197,
        0.0029556528,
        -0.010420322,
        -0.08514126,
        0.08791835,
        -0.079175256,
        -0.05403013,
        -0.085401796,
        0.0065072775
      ],
      [
        -0.001543954,
        -0.095735624,
        -0.007191226,
        0.046461843,
        -0.04420767,
        0.0828666,
        -0.077903725,
        -0.057616163,
        0.04590609,
        -0.059625696,
        0.08815604,
        0.040787525,
        0.044022538,
        -0.07289324,
        -0.022898674,
        0.044129036,
        0.064739235,
        -0.0056106597,
        0.0965827,
        0.06120851,
        0.05322296,
        0.044855304,
        -0.03715861,
        -0.07929275,
        0.047965072,
        -0.06408279,
        0.09762586,
        0.012740634,
        0.03202253,
        -0.063145,
        0.008169889,
        0.09874461,
        0.0325839,
        -0.030365154,
        -0.0320708,
        0.08142815,
        0.08490921,
        0.03675141,
        0.04087875,
        0.098173045,
        0.09606118,
        0.0204169,
        0.043275245,
        0.0451274,
        0.078755625,
        0.09170502,
        -0.06262095,
        -0.059066843,
        -0.060746145,
        0.07541285
      ],
      [
        0.06247414,
        0.08827735,
        0.061140485,
        0.028989129,
        0.033726238,
        0.0031898022,
        -0.07423763,
        -0.0022957548,
        -0.06595281,
        -0.024618603,
        -0.014480211,
        0.090968914,
        -0.03694272,
        0.060280852,
        0.008046031,
        0.0070510656,
        -0.078588724,
        0.08371537,
        -0.026406884,
        -0.06417672,
        0.008771919,
        0.07586343,
        -0.009575486,
        0.011228442,
        -0.07308874,
        -0.012541197,
        -0.063958436,
        0.08819885,
        -0.06274126,
        -0.085632205,
        0.09750574,
        -0.030095384,
        0.07526641,
        -0.09774559,
        0.008122779,
        -0.07839737,
        0.07215517,
        0.015696742,
        -0.068313815,
        0.091919474,
        0.09129352,
        -0.06114788,
        0.065498166,
        -0.0117332935,
        -0.055085566,
        0.027585365,
        -0.019974135,
        -0.07554593,
        0.04351478,
        0.098733194
      ],
      [
        -0.03336613,
        -0.03020966,
        -0.039313603,
        0.070995755,
        -0.07056818,
        -0.075456955,
        -0.06443861,
        0.012952946,
        -0.03491769,
        -0.02195625,
        0.08107195,
        -0.027113274,
        0.033260636,
        -0.08023496,
        0.053941347,
        0.08894307,
        0.086774684,
        -0.058954407,
        0.00757923,
        -0.010528564,
        -0.09359854,
        0.04929907,
        0.02836562,
        -0.04957917,
        -0.059309363,
        -0.07528238,
        0.058985643,
        0.082626395,
        0.037814356,
        -0.058712244,
        -0.09257605,
        -0.062372353,
        0.011312224,
        -0.0028746128,
        0.07730342,
        -0.008518815,
        -0.08159111,
        0.066698976,
        0.0066004544,
        0.018399857,
        -0.017532945,
        -0.012883045,
        -0.024788573,
        -0.09828913,
        0.0013173372,
        0.009055354,
        -0.085079886,
        0.04925344,
        -0.088440776,
        -0.02182617
      ],
      [
        -0.07286997,
        0.032618903,
        0.05653701,
        0.012967035,
        -0.06430137,
        0.004517153,
        0.044845156,
        -0.021639325,
        0.08745394,
        -0.03906393,
        -0.0101995915,
        -0.009364583,
        -0.0062973276,
        -0.063103825,
        -0.0035656914,
        -0.09755814,
        -0.081215,
        -0.012488246,
        0.017577767,
        -0.072317526,
        0.08870468,
        0.003872633,
        -0.06952157,
        0.039831214,
        0.055200763,
        0.02517622,
        0.037790082,
        0.009101294,
        0.050680883,
        0.09818738,
        -0.0873312,
        -0.061063077,
        -0.034659266,
        -0.07063947,
        0.07357932,
        0.0319416,
        0.024103187,
        -0.015140936,
        0.071173795,
        -0.049161483,
        -0.054230094,
        -0.042323925,
        -0.04587853,
        0.006625317,
        -0.068290666,
        0.02873113,
        -0.050698042,
        0.04976239,
        -0.01588013,
        0.047597624
      ],
      [
        0.093204506,
        0.015250899,
        -0.09022148,
        -0.046487954,
        -0.07027445,
        -0.08321176,
        -0.09923809,
        0.026786454,
        0.022778727,
        -0.047347713,
        0.0076484904,
        0.09396107,
        -0.010788776,
        0.09546294,
        -0.035526276,
        0.09772576,
        0.06896148,
        0.021992967,
        -0.072597645,
        0.084066875,
        0.04986625,
        0.01340346,
        -0.06683555,
        -0.0082338825,
        -0.031742908,
        0.008481957,
        0.0037057176,
        0.006664537,
        0.091155894,
        -0.058524538,
        -0.06165233,
        0.0038592592,
        -0.06390653,
        0.07444698,
        -0.022338673,
        -0.03717506,
        -0.046952248,
        -0.05910678,
        0.011916563,
        -0.043447472,
        -0.020076536,
        -0.07478011,
        -0.024001263,
        0.09785619,
        -0.034374908,
        0.052355267,
        0.048147775,
        -0.034178257,
        0.056940205,
        0.035503723
      ],
      [
        0.009380557,
        -0.017233774,
        -0.041415572,
        -0.035148002,
        0.00922139,
        0.0058549196,
        0.011279963,
        -0.019447207,
        -0.057083894,
        -0.06422989,
        0.078362234,
        0.022742175,
        -0.00054745376,
        0.09173984,
        -0.003611207,
        -0.03283181,
        0.063169904,
        0.07782119,
        -0.07598519,
        -0.08471482,
        0.068290375,
        -0.034542844,
        -0.023553513,
        -0.04540787,
        0.07018142,
        -0.053646993,
        0.040348656,
        -0.08917189,
        -0.0034196824,
        -0.037175104,
        -0.09480555,
        -0.097461484,
        -0.05459244,
        0.097015046,
        -0.051020313,
        -0.05709262,
        -0.027763583,
        0.040359266,
        -0.08983159,
        0.030196123,
        -0.089866355,
        -0.057523943,
        0.034451656,
        0.07840491,
        0.044047482,
        -0.07317512,
        0.078868486,
        0.09331422,
        -0.06881299,
        0.06600163
      ],
      [
        0.001940988,
        -0.08546469,
        0.0343752,
        0.011430047,
        -0.013405465,
        -0.023442604,
        -0.07572587,
        0.02920983,
        0.042949654,
        -0.080741264,
        0.09910733,
        0.024306796,
        -0.083199784,
        0.03584326,
        0.025244601,
        0.0065947324,
        0.071161844,
        0.02096095,
        0.0032018647,
        -0.034946397,
        0.08225741,
        -0.092609815,
        -0.09683893,
        0.094128914,
        0.037847854,
        0.03644087,
        -0.05422285,
        0.029863961,
        0.039374806,
        0.063640244,
        -0.07973711,
        0.072499774,
        -0.03949442,
        -0.053022265,
        0.009218313,
        0.04757517,
        0.04980526,
        -0.07767904,
        0.0030945763,
        0.0664845,
        0.005544901,
        0.05794335,
        -0.0817317,
        0.05684019,
        0.02073393,
        -0.052121233,
        0.04231567,
        -0.028015137,
        0.033426143,
        -0.08393524
      ],
      [
        -0.05455623,
        -0.0017157793,
        0.005121991,
        -0.07812242,
        0.056169577,
        -0.075616576,
        0.0897528,
        -0.0029403418,
        -0.003602311,
        -0.067307025,
        -0.09212468,
        0.05898183,
        0.029139407,
        0.019469023,
        0.013403393,
        0.051439233,
        -0.004239872,
        -0.008447126,
        0.09195437,
        -0.08988011,
        -0.022466399,
        0.08120415,
        0.09557933,
        0.019248202,
        0.08184118,
        0.07859761,
        -0.08262698,
        -0.093469165,
        -0.008214571,
        0.04242239,
        0.0020162836,
        0.020240784,
        0.048350938,
        0.06030173,
        0.0853687,
        0.084894486,
        -0.012848854,
        0.04009349,
        0.034909464,
        0.068699904,
        -0.067582995,
        0.051272653,
        -0.09117546,
        0.03642232,
        -0.08249807,
        -0.02887521,
        0.042728476,
        -0.09564886,
        0.09436355,
        0.045084648
      ],
      [
        0.07638008,
        -0.00048360974,
        0.08969443,
        -0.05321324,
        -0.09669223,
        -0.05437696,
        -0.032135442,
        -0.047087956,
        0.01851251,
        0.052267678,
        -0.04017017,
        0.026358627,
        0.085712455,
        -0.04187992,
        0.089129396,
        0.0878805,
        -0.06592004,
        0.08097496,
        0.02908314,
        -0.06924741,
        -0.079596184,
        0.039146803,
        0.038719602,
        0.043048926,
        0.09914356,
        0.035516165,
        -0.07855084,
        -0.028214216,
        -0.04592538,
        0.09025294,
        0.028486155,
        0.09022147,
        0.09858341,
        -0.068635225,
        -0.031428598,
        -0.090825774,
        0.09766,
        -0.0345155,
        0.034655236,
        0.011332534,
        -0.0038323402,
        0.042960413,
        -0.091597795,
        0.038803943,
        0.01838436,
        -0.06690357,
        0.08945944,
        -0.0839957,
        0.035920165,
        0.077040814
      ],
      [
        0.049197324,
        0.009456202,
        -0.08153596,
        0.07882691,
        -0.02064965,
        -0.096640304,
        0.06688819,
        -0.09090402,
        -0.07715805,
        0.060233973,
        -0.0004601255,
        0.023985311,
        0.050510548,
        -0.06319384,
        -0.008519962,
        0.081319876,
        0.022568509,
        -0.083901905,
        -0.04099491,
        -0.019936465,
        -0.060048606,
        0.077418156,
        0.02127774,
        0.098246045,
        -0.078842685,
        -0.09205134,
        -0.044542003,
        -0.09361911,
        -0.010569736,
        0.050587602,
        -0.01758764,
        -0.00683479,
        -0.02978573,
        0.097717054,
        0.051301263,
        -0.006931521,
        -0.09134927,
        -0.019688442,
        0.076335676,
        0.01821518,
        -0.0135670155,
        -0.0076347142,
        0.085785635,
        -0.06757669,
        -0.09581905,
        0.03713017,
        0.09522622,
        -0.081235215,
        -0.00913658,
        0.07906673
      ],
      [
        -0.06788917,
        0.01706104,
        -0.03270085,
        0.038983874,
        -0.07943907,
        -0.0070285797,
        0.099061556,
        -0.09170003,
        0.073151045,
        0.089228846,
        -0.052843165,
        -0.025278255,
        0.037135743,
        -0.014088914,
        -0.050674893,
        -0.036096193,
        0.023899242,
        0.022052191,
        -0.02035153,
        0.08067948,
        -0.065560296,
        -0.0027552843,
        0.09004695,
        0.018813208,
        0.036625244,
        0.06574724,
        0.008277513,
        0.020047449,
        0.07915192,
        -0.077239536,
        0.09213214,
        -0.043300558,
        -0.018308401,
        0.02197814,
        -0.020215154,
        -0.094626956,
        -0.018025018,
        0.03734196,
        0.07717388,
        0.078904174,
        0.020939134,
        0.03955365,
        0.0474978,
        0.0556824,
        -0.09626453,
        0.046633624,
        0.038869195,
        -0.098251894,
        -0.07501042,
        -0.0063749105
      ],
      [
        0.028999992,
        0.05507482,
        -0.009507418,
        0.025599308,
        -0.08986473,
        0.0038905144,
        0.057108544,
        0.060715936,
        -0.06344793,
        -0.08687639,
        0.0031361803,
        0.04317885,
        -0.006833151,
        -0.049322702,
        -0.075944684,
        0.008506775,
        0.064562924,
        0.065554954,
        -0.0059716925,
        0.09541733,
        -0.06247897,
        0.011623621,
        0.0654918,
        0.035591938,
        -0.039949536,
        0.09488059,
        0.09053988,
        0.031840138,
        -0.03629086,
        0.0058968067,
        0.025490932,
        -0.06010139,
        -0.016604304,
        0.006355956,
        -0.058494475,
        -0.09660166,
        0.01785016,
        -0.08547514,
        0.028383203,
        0.084445186,
        0.0019943938,
        0.085482724,
        -0.06947322,
        -0.094584465,
        0.08492606,
        0.091975994,
        0.008065894,
        0.04395581,
        -0.091886,
        0.09502118
      ],
      [
        0.04538908,
        0.06178885,
        0.03461943,
        0.032272704,
        -0.094470285,
        0.049544953,
        -0.04970474,
        0.024951294,
        -0.01827421,
        0.0134680495,
        -0.031697057,
        0.07171387,
        0.029809378,
        -0.038406014,
        0.00003774464,
        -0.0036803707,
        -0.05768416,
        0.07813019,
        0.057365067,
        -0.05378771,
        -0.060660195,
        0.0642444,
        0.051352553,
        -0.08248732,
        0.038373016,
        -0.028692149,
        0.031450875,
        -0.055503275,
        -0.09323793,
        0.013137415,
        -0.015341207,
        -0.086440496,
        -0.058778714,
        -0.020916201,
        0.01649256,
        0.041909106,
        -0.091040924,
        -0.07893622,
        -0.013961986,
        0.020604655,
        -0.047974396,
        0.006963946,
        0.05696564,
        0.0509867,
        0.025657319,
        0.04506781,
        0.017139077,
        0.02652762,
        0.04486709,
        -0.036696598
      ],
      [
        -0.029346466,
        -0.0979188,
        0.098265626,
        -0.067268014,
        0.028506331,
        0.06073571,
        0.012674138,
        0.066700466,
        0.07860953,
        -0.034218386,
        0.04421041,
        -0.06229348,
        0.055009387,
        -0.048432805,
        0.09630097,
        -0.02972889,
        0.084165104,
        -0.041769218,
        -0.025312684,
        0.04593172,
        0.031249456,
        -0.025459073,
        0.02172859,
        0.043754987,
        0.022048593,
        0.0015983358,
        -0.064535975,
        -0.051787615,
        -0.06407277,
        0.056987934,
        0.07547393,
        0.004787162,
        -0.028727219,
        -0.08550604,
        0.020284079,
        0.052897073,
        0.07870083,
        0.07715946,
        -0.0011770725,
        0.0713451,
        0.030430011,
        0.0100020915,
        -0.012321256,
        -0.018457845,
        -0.02523043,
        0.098785765,
        0.049964197,
        -0.08805225,
        0.0028987676,
        0.08278347
      ],
      [
        0.05277545,
        0.06188894,
        -0.014353611,
        0.065744184,
        0.022330329,
        0.058972456,
        0.08249829,
        -0.01345358,
        0.0076519474,
        0.013173483,
        -0.043373037,
        0.003483221,
        0.08192935,
        0.019149303,
        0.06772969,
        -0.005149223,
        -0.09138646,
        0.0182966,
        -0.065865636,
        -0.035598658,
        0.07286876,
        0.04463797,
        -0.08363514,
        -0.09916289,
        -0.059511997,
        0.014907047,
        -0.039987423,
        -0.089245155,
        -0.010080814,
        -0.066870645,
        -0.099590115,
        -0.044605922,
        0.005299762,
        -0.055105235,
        -0.058187317,
        -0.05530267,
        0.07704487,
        0.007566452,
        -0.055942226,
        -0.090747856,
        -0.08857663,
        0.06796921,
        0.044431545,
        -0.038820267,
        0.096345134,
        0.0056922883,
        0.07548871,
        0.025048263,
        -0.03314431,
        -0.07264297
      ],
      [
        0.06796122,
        0.084963374,
        0.04253126,
        0.047581337,
        -0.08400893,
        -0.011168599,
        -0.06726606,
        0.0671005,
        0.09707198,
        -0.043442678,
        0.088318415,
        -0.08874612,
        0.095041536,
        0.0993027,
        0.05507929,
        -0.06893997,
        -0.048389267,
        0.026141174,
        -0.032699227,
        0.030868776,
        -0.09302554,
        0.0043199807,
        0.041599177,
        0.009849951,
        0.014738917,
        -0.07926111,
        -0.038257003,
        -0.0024713054,
        -0.05155733,
        0.098073415,
        -0.042841054,
        -0.07084205,
        0.075874396,
        0.008924559,
        -0.09091778,
        -0.09380825,
        0.024267651,
        0.043080263,
        0.027202986,
        0.04905472,
        0.048101015,
        0.05414615,
        -0.0923964,
        0.06545987,
        0.0077193975,
        -0.06885703,
        0.007851027,
        -0.053406358,
        0.049059756,
        0.04356756
      ],
      [
        -0.09570654,
        -0.09494426,
        -0.05414653,
        -0.036532782,
        0.058329277,
        -0.010033652,
        -0.03138268,
        0.050582193,
        0.013609409,
        -0.001058057,
        -0.049393345,
        0.057191633,
        0.056272916,
        0.018034294,
        -0.048585273,
        0.0838661,
        -0.089578055,
        -0.04348719,
        -0.01987128,
        0.018196963,
        0.032602437,
        -0.04349897,
        -0.0697401,
        0.09383721,
        -0.0993823,
        -0.010896847,
        0.028040938,
        0.005408384,
        -0.051488232,
        0.043793537,
        0.09930103,
        -0.038259387,
        0.070834525,
        0.086080484,
        0.07943309,
        0.08370603,
        -0.050416257,
        0.07212434,
        -0.0975193,
        0.06669856,
        0.096731804,
        -0.008688591,
        -0.01474192,
        -0.08304696,
        -0.08080737,
        -0.08460965,
        -0.03993044,
        -0.025426745,
        -0.0014248639,
        -0.08844306
      ],
      [
        -0.043795157,
        0.049309276,
        0.044560887,
        0.036881454,
        0.08956998,
        0.07398134,
        0.0028132424,
        -0.045631982,
        -0.001466319,
        -0.04585264,
        0.047157235,
        -0.010317758,
        -0.060908224,
        0.051414825,
        0.09215195,
        0.044610284,
        0.0052271113,
        0.086478405,
        0.007635139,
        0.08320225,
        0.040757842,
        0.09956267,
        0.045235775,
        0.04561136,
        -0.035915636,
        0.06618836,
        -0.0973207,
        -0.015387252,
        0.021899842,
        0.087765,
        0.009764217,
        -0.026025698,
        0.05630023,
        -0.0820534,
        0.098813154,
        0.02480805,
        0.08907694,
        -0.08592875,
        0.08321407,
        -0.018356845,
        0.06668801,
        0.071838476,
        -0.057137158,
        -0.031604216,
        0.06978593,
        0.0055995733,
        0.09499242,
        -0.04933684,
        0.059483938,
        -0.029659674
      ],
      [
        -0.0114316195,
        0.09552831,
        0.080907084,
        0.0148553625,
        0.017319418,
        0.016119644,
        -0.024096921,
        0.0067281723,
        -0.053165246,
        0.084400944,
        0.0020280853,
        -0.001800105,
        -0.008834265,
        -0.038675357,
        0.07886972,
        -0.09906645,
        0.0631722,
        -0.05229881,
        -0.07663534,
        0.086467154,
        -0.04067657,
        -0.05645597,
        0.09941626,
        0.054739498,
        -0.07833505,
        0.029243134,
        0.03559298,
        -0.07221844,
        -0.020284511,
        0.09294058,
        -0.00037784874,
        -0.015409969,
        -0.010251239,
        0.04491777,
        -0.039208412,
        -0.094712116,
        -0.07895453,
        -0.06459103,
        0.06233778,
        0.06883945,
        0.060132213,
        0.08905018,
        -0.024693802,
        -0.08951392,
        -0.0789453,
        -0.03995805,
        -0.08962224,
        0.025375895,
        0.09581206,
        0.08894349
      ],
      [
        -0.091568805,
        0.039536737,
        -0.0015439019,
        0.03267724,
        0.08696375,
        -0.013262652,
        0.079973124,
        0.08861596,
        -0.003293611,
        -0.0717577,
        0.06411529,
        0.09600306,
        0.030282952,
        0.07388883,
        0.005713843,
        0.004929349,
        0.09001174,
        0.012077138,
        0.004186794,
        -0.0542475,
        0.0833239,
        -0.07470071,
        -0.099804066,
        -0.026330516,
        -0.01898501,
        -0.00045707077,
        0.04853084,
        -0.009453252,
        0.09650994,
        0.021510914,
        -0.042804647,
        0.048182018,
        0.060793348,
        0.035913892,
        0.009007193,
        0.043669082,
        0.07588328,
        0.0076016933,
        0.013383247,
        -0.010844991,
        0.051097445,
        0.019249938,
        0.06176407,
        0.065868564,
        0.08212394,
        0.03453774,
        0.098957784,
        0.06078566,
        -0.02020564,
        0.04962442
      ],
      [
        -0.08295462,
        -0.04217997,
        -0.09166946,
        -0.02381716,
        -0.031272963,
        0.073129155,
        0.06643643,
        -0.093945935,
        -0.044498753,
        0.065148495,
        -0.02761326,
        -0.09561048,
        -0.07076051,
        -0.09966443,
        -0.07933722,
        -0.0033353567,
        -0.061428428,
        0.045763515,
        0.06763662,
        0.086008124,
        0.023801371,
        0.05711866,
        -0.0739759,
        -0.03936651,
        -0.04039476,
        -0.012592174,
        -0.07444809,
        0.09402142,
        0.05325312,
        -0.06829307,
        0.047648408,
        0.09553196,
        0.027420215,
        -0.020452477,
        -0.056618284,
        -0.02849736,
        0.014360763,
        0.00466232,
        -0.002886273,
        -0.0040929317,
        0.09140927,
        -0.009648539,
        0.062215813,
        0.024000168,
        0.086627655,
        -0.017265841,
        0.0076979846,
        -0.06268497,
        0.062945254,
        0.083492614
      ],
      [
        -0.090381816,
        -0.038830496,
        -0.08134701,
        -0.05670748,
        0.07443524,
        0.022285536,
        0.03593547,
        -0.08243871,
        -0.017563365,
        -0.0012783781,
        -0.00015068054,
        -0.055674173,
        0.027547367,
        -0.086472176,
        0.033653326,
        -0.09748977,
        -0.022669554,
        0.09070855,
        -0.061750937,
        -0.011700198,
        0.02745033,
        0.03602626,
        -0.027127266,
        0.022280075,
        0.07027488,
        0.03330972,
        -0.058312703,
        0.006661035,
        0.040140487,
        -0.010849401,
        -0.082671024,
        -0.061059546,
        -0.03934009,
        0.035471268,
        0.069654636,
        -0.013254501,
        -0.045502402,
        -0.026137851,
        0.022684023,
        0.054712795,
        -0.035464406,
        -0.07644842,
        -0.06158152,
        0.044356473,
        0.009453677,
        -0.06832667,
        0.085502125,
        0.078208946,
        0.013197735,
        -0.0026881695
      ],
      [
        -0.08451772,
        -0.06602478,
        -0.0305413,
        -0.008820392,
        -0.0019370317,
        0.06477191,
        0.028154112,
        -0.06615386,
        -0.036125585,
        -0.04289737,
        -0.03052795,
        -0.006920889,
        0.0046404377,
        -0.097422175,
        0.022487566,
        0.081626065,
        0.053805016,
        -0.03171675,
        -0.036972687,
        0.08614648,
        -0.09063454,
        -0.011996672,
        0.06821146,
        -0.011579394,
        -0.019464374,
        -0.044761993,
        -0.0036264434,
        -0.09598293,
        -0.016554758,
        -0.08713653,
        0.075703315,
        -0.060955763,
        0.022032,
        -0.0052583963,
        0.010360405,
        -0.009409808,
        -0.00743334,
        -0.034269094,
        -0.0146294385,
        0.08402405,
        -0.075911045,
        -0.09286344,
        -0.050314784,
        -0.08789203,
        0.07050712,
        -0.037889935,
        0.015763238,
        -0.095526576,
        0.08023348,
        -0.052780867
      ],
      [
        0.07160602,
        0.016061045,
        0.094997056,
        0.00046141446,
        0.09227119,
        -0.010123275,
        0.08308003,
        0.0029618293,
        -0.0852711,
        -0.02072914,
        -0.054466274,
        -0.07650962,
        -0.04004352,
        -0.058445524,
        0.058216996,
        -0.029265806,
        -0.01804652,
        0.06311605,
        -0.037988473,
        0.027375884,
        0.06518962,
        -0.014614269,
        -0.09335835,
        -0.05635109,
        -0.09750662,
        0.07575364,
        0.009335421,
        -0.09760449,
        -0.0061599985,
        -0.07293973,
        -0.04488678,
        -0.096181296,
        -0.053142335,
        -0.037654188,
        0.04228685,
        0.08711868,
        -0.03421791,
        -0.07649615,
        -0.055942513,
        -0.030526139,
        -0.054235365,
        0.043035515,
        0.063673384,
        0.06642573,
        -0.055281736,
        -0.0323442,
        0.020821735,
        0.069526024,
        -0.00941696,
        0.033904918
      ],
      [
        -0.0072589144,
        0.037416764,
        -0.09736555,
        -0.05050683,
        -0.09009564,
        -0.06895039,
        -0.08614411,
        0.098415755,
        0.020167448,
        -0.01783812,
        0.008490704,
        -0.083120346,
        0.038112782,
        -0.07479592,
        0.056256317,
        0.07614971,
        -0.04116888,
        0.047384195,
        0.07627716,
        0.063876845,
        -0.0040938854,
        0.060264654,
        -0.09976008,
        -0.07958098,
        -0.08487759,
        0.09957979,
        0.099870615,
        0.07932227,
        -0.037326053,
        -0.008195639,
        0.02366843,
        0.085762925,
        -0.03654559,
        -0.02217798,
        0.05579155,
        0.013620093,
        -0.043413877,
        -0.08089431,
        0.047401957,
        0.0404026,
        0.075773425,
        0.09193287,
        0.06442756,
        0.023807548,
        -0.080433056,
        0.089886,
        -0.030356862,
        0.0067811757,
        -0.06841341,
        -0.08234797
      ],
      [
        0.097123094,
        -0.09463394,
        0.021590516,
        -0.009702064,
        0.09082008,
        0.00030019134,
        0.016539976,
        -0.04950924,
        -0.0034132004,
        0.041957162,
        -0.036948062,
        -0.09226604,
        0.026746161,
        0.023188971,
        -0.03270276,
        -0.022650741,
        -0.020790435,
        0.021366522,
        -0.08834634,
        0.061004855,
        0.06404669,
        -0.051271677,
        0.00009991974,
        -0.057935026,
        0.049994998,
        0.010930873,
        0.022879556,
        -0.008645438,
        0.010025881,
        0.08108006,
        -0.036326505,
        0.006940745,
        0.0050628185,
        0.07814819,
        -0.030307129,
        -0.0114699155,
        -0.05835333,
        0.09990794,
        -0.07396755,
        -0.016679883,
        0.046407722,
        0.084615834,
        -0.077916935,
        -0.08558452,
        -0.03265281,
        -0.017579675,
        -0.04242778,
        -0.018103264,
        0.0019815415,
        0.028483443
      ],
      [
        0.05274286,
        -0.036717273,
        -0.064235166,
        0.07574687,
        0.06835804,
        0.07118163,
        -0.044311285,
        0.09907434,
        0.024326637,
        0.052572303,
        0.00068917125,
        0.012593031,
        -0.09284723,
        0.0147948265,
        0.021941327,
        0.06764879,
        0.04153102,
        -0.061704494,
        -0.09208486,
        -0.038763642,
        0.059719063,
        -0.09714544,
        0.008258246,
        -0.014549613,
        -0.025689743,
        -0.059014346,
        0.089204095,
        -0.00449951,
        0.042818733,
        -0.044185665,
        0.05390113,
        0.007172033,
        -0.055398226,
        0.098405905,
        -0.05639112,
        0.034511067,
        0.07746089,
        0.09926111,
        -0.04319668,
        0.096957035,
        0.03523851,
        -0.08523152,
        -0.0021496564,
        0.04847961,
        0.01822593,
        -0.075633004,
        -0.07624183,
        -0.049611785,
        -0.0052932054,
        -0.02495601
      ],
      [
        -0.06941736,
        0.02979923,
        0.092217945,
        0.099896334,
        0.01343815,
        -0.00825496,
        0.056602187,
        -0.033963464,
        -0.033901714,
        0.08669878,
        0.026182778,
        0.044306107,
        -0.07130935,
        0.08103535,
        0.054511674,
        -0.07790963,
        0.007967159,
        0.038057543,
        0.088304885,
        -0.09048238,
        -0.015915677,
        0.02426958,
        -0.03860822,
        -0.029583022,
        -0.01661177,
        -0.05023103,
        -0.07441349,
        -0.033266686,
        0.018041253,
        0.06804023,
        0.058360107,
        -0.03266366,
        -0.036021255,
        -0.07973547,
        -0.085215114,
        0.022236943,
        0.0655402,
        -0.034781933,
        -0.094084814,
        0.08652776,
        -0.04625056,
        -0.016576074,
        -0.09438958,
        -0.0774956,
        -0.013863109,
        0.005122423,
        0.0065761805,
        -0.0868639,
        -0.088740446,
        -0.047363784
      ],
      [
        -0.0063815117,
        0.0151783,
        0.07491364,
        0.082907565,
        -0.07175855,
        0.014266416,
        0.03289535,
        -0.07521458,
        0.037564404,
        0.08452406,
        -0.028322361,
        0.09434242,
        -0.034449123,
        -0.025862552,
        0.04036499,
        -0.07975197,
        0.028006248,
        -0.035495162,
        0.035555534,
        0.011702701,
        0.05316169,
        0.08515642,
        -0.092481256,
        -0.010203004,
        0.09561064,
        -0.043227937,
        -0.040899277,
        0.031835623,
        -0.036816,
        -0.034731843,
        -0.06984236,
        0.06266449,
        0.025919579,
        -0.099344514,
        0.0034759492,
        0.083290316,
        0.02070348,
        0.015610173,
        0.0941566,
        -0.097462155,
        -0.025476694,
        -0.0048603043,
        0.021188356,
        0.08370907,
        -0.095384456,
        -0.016171888,
        -0.053118136,
        0.056284554,
        -0.063202955,
        0.047156937
      ],
      [
        -0.0512846,
        -0.0879029,
        0.006021358,
        -0.045509744,
        0.030261464,
        -0.08672257,
        0.019446418,
        0.01219137,
        0.044832237,
        0.06263123,
        0.017753407,
        -0.0081877485,
        -0.015701607,
        0.054365776,
        0.035274126,
        0.07321601,
        -0.059307672,
        -0.043924857,
        0.0589576,
        0.085424446,
        0.060718797,
        -0.02255392,
        0.052108623,
        -0.09456775,
        -0.07465501,
        0.06643713,
        0.057595395,
        -0.02910719,
        -0.02998726,
        -0.05554085,
        -0.08815863,
        -0.03312576,
        0.06660605,
        -0.02641771,
        0.050160937,
        0.02003248,
        0.03145165,
        -0.095536016,
        -0.09653757,
        -0.00084926933,
        0.09086948,
        -0.0773263,
        0.00889878,
        -0.015431382,
        0.058738478,
        -0.07772048,
        -0.092021845,
        -0.064485386,
        -0.03396225,
        0.07799543
      ],
      [
        -0.029628515,
        -0.04311347,
        -0.028891325,
        -0.059364773,
        -0.03306611,
        0.034448273,
        0.051788427,
        0.0020634383,
        -0.076756336,
        -0.036499023,
        -0.08356617,
        -0.037749674,
        0.031723388,
        0.04547853,
        0.03673961,
        0.08921514,
        -0.07038975,
        0.020190358,
        -0.07842622,
        -0.027975656,
        0.013192274,
        0.04023368,
        0.07311664,
        0.05978673,
        0.051725842,
        -0.040151905,
        -0.020411327,
        0.032903694,
        0.029561289,
        -0.051391434,
        -0.06587429,
        -0.09322412,
        -0.06844266,
        0.061679296,
        -0.061685562,
        -0.09346058,
        0.032458372,
        -0.024210885,
        0.030293845,
        -0.0009956807,
        -0.08282204,
        0.094624184,
        -0.05768888,
        -0.0733104,
        -0.052459933,
        0.046636082,
        0.012392163,
        -0.087836765,
        0.08645118,
        -0.055923462
      ],
      [
        0.028853111,
        0.058254726,
        -0.040384438,
        -0.08323367,
        -0.00001373142,
        -0.04801617,
        -0.07678969,
        0.0953533,
        0.059008293,
        0.0517822,
        -0.09927151,
        -0.09995558,
        0.080438025,
        -0.095875025,
        -0.047586847,
        0.09457531,
        -0.03576167,
        -0.0668309,
        -0.07958601,
        0.025161482,
        -0.0043881387,
        -0.0146801695,
        0.014324211,
        0.054787092,
        0.07081757,
        0.018215463,
        0.05430796,
        0.0036972985,
        0.027284749,
        -0.0727853,
        0.043743677,
        0.06780601,
        -0.057737708,
        -0.04396062,
        -0.047617484,
        0.03728547,
        0.014328741,
        -0.080067255,
        0.06250448,
        0.05776065,
        -0.06433204,
        -0.022620775,
        0.073456176,
        -0.03413,
        -0.010808751,
        0.08306999,
        -0.05041938,
        -0.060448624,
        0.03477492,
        0.040889405
      ],
      [
        0.03198891,
        -0.090331435,
        0.043069772,
        -0.07213273,
        0.050801165,
        0.08394339,
        0.08929307,
        0.013400242,
        0.008963108,
        0.09616687,
        -0.07893071,
        -0.023401618,
        0.010045193,
        0.03281457,
        -0.011344172,
        0.08604469,
        -0.06986251,
        0.0032984763,
        -0.07946143,
        -0.07690053,
        -0.07549777,
        0.06352975,
        0.01397936,
        -0.03653097,
        -0.031062245,
        0.029436536,
        0.012461759,
        0.022576235,
        0.09176963,
        0.01263909,
        0.02346351,
        0.07644429,
        -0.0024426952,
        0.0944865,
        0.026223205,
        -0.021212742,
        -0.044372704,
        -0.008443452,
        -0.05743761,
        0.06049157,
        -0.041215826,
        0.098941945,
        -0.041517306,
        -0.07334342,
        -0.050051786,
        -0.052603032,
        0.06161452,
        0.008894801,
        -0.010801986,
        -0.0034365878
      ],
      [
        -0.03823247,
        -0.07299252,
        0.020391896,
        -0.083164886,
        0.033786125,
        0.039171986,
        0.01627276,
        0.012147903,
        -0.042299297,
        0.047638156,
        0.00046305358,
        0.044635467,
        0.022261813,
        0.0009377003,
        -0.011195585,
        0.039954193,
        0.048246033,
        0.08767719,
        -0.019310549,
        0.074700855,
        -0.003988579,
        0.013796687,
        -0.07536886,
        0.035927556,
        -0.04092021,
        -0.006543897,
        0.010704182,
        0.047159933,
        -0.008531734,
        0.082273535,
        0.014628291,
        -0.025691107,
        0.036332585,
        -0.0054336563,
        -0.04993966,
        -0.081101134,
        -0.08115065,
        0.05157385,
        -0.07486038,
        -0.027734801,
        0.005694486,
        0.09177198,
        -0.033836223,
        0.0012897253,
        0.053388856,
        0.0999748,
        0.088986926,
        -0.030350491,
        0.09452798,
        0.0004409328
      ],
      [
        0.039035343,
        -0.07347973,
        0.050726227,
        -0.041127946,
        0.064616375,
        0.036933757,
        0.026463889,
        -0.016327403,
        0.016553782,
        0.092823334,
        -0.013883397,
        -0.07023964,
        -0.091771774,
        -0.005450085,
        0.027739652,
        0.029645927,
        0.014334083,
        -0.03828862,
        -0.042375233,
        0.077526905,
        -0.09165504,
        -0.017790101,
        -0.0496264,
        0.062135242,
        -0.05438986,
        0.09553256,
        -0.09959934,
        -0.0000014528632,
        -0.09058666,
        -0.078067705,
        0.05288201,
        0.07642124,
        0.08204008,
        0.0634721,
        0.089747556,
        -0.018181302,
        -0.03229849,
        0.057938583,
        0.0366283,
        0.006814763,
        0.089414336,
        0.044978447,
        -0.043421842,
        -0.019640371,
        -0.037866186,
        -0.015644766,
        -0.032563493,
        0.06403575,
        0.08732491,
        -0.008192226
      ],
      [
        0.06359727,
        -0.021688081,
        -0.084447145,
        0.005860403,
        0.027837105,
        0.09062629,
        0.099893905,
        -0.07886486,
        -0.08658292,
        -0.09482143,
        -0.080817655,
        0.0062303543,
        -0.008372709,
        0.08659773,
        -0.07001772,
        0.09286787,
        0.01437559,
        0.045593716,
        -0.01947613,
        -0.019627169,
        -0.0017421246,
        0.006884478,
        -0.08943856,
        -0.01404576,
        0.024384066,
        0.03546328,
        0.035765223,
        0.08442233,
        0.018216446,
        0.042072542,
        -0.074642085,
        -0.034396008,
        -0.0062274933,
        -0.06274469,
        0.015334442,
        0.08999682,
        0.08529458,
        -0.02512052,
        -0.018615723,
        -0.025925852,
        0.022629097,
        -0.027951956,
        -0.096417546,
        -0.019465782,
        0.006026268,
        0.07629698,
        0.06295908,
        -0.08613715,
        -0.0032311901,
        0.07070912
      ],
      [
        0.030287154,
        0.017672017,
        0.07929153,
        -0.009310961,
        0.08076479,
        -0.029486202,
        0.09793875,
        0.048930235,
        -0.09884174,
        0.085344695,
        0.09197631,
        0.049729086,
        0.018292978,
        0.008015916,
        -0.08472472,
        -0.07886255,
        -0.06496525,
        0.019678906,
        -0.082880594,
        0.031136937,
        -0.053750087,
        -0.086874984,
        0.081539564,
        0.06435055,
        -0.09835601,
        0.049483724,
        0.07318812,
        0.070258714,
        -0.09118867,
        -0.07210465,
        0.0131041035,
        0.031651236,
        0.063243605,
        0.020742014,
        0.061971016,
        0.06086216,
        -0.005666591,
        0.0117490515,
        -0.045865204,
        0.05992546,
        -0.04405246,
        0.031027533,
        -0.057650067,
        0.009955503,
        -0.0532521,
        0.071267866,
        -0.06613004,
        -0.06576407,
        0.0139423385,
        0.07896233
      ],
      [
        -0.016696312,
        0.029925682,
        0.099858455,
        0.043656044,
        -0.013368607,
        -0.06552723,
        0.054606058,
        0.04117935,
        0.047084145,
        0.09218345,
        -0.024876975,
        -0.013715431,
        0.029771753,
        -0.021130487,
        -0.03913803,
        -0.044431876,
        -0.0037593096,
        0.056651406,
        0.07367463,
        0.053677462,
        0.075194664,
        0.05464936,
        -0.0061092377,
        0.039734297,
        -0.09265065,
        -0.034016684,
        -0.09810171,
        -0.005923651,
        -0.010140941,
        0.010609105,
        -0.016177371,
        -0.073980615,
        -0.0023044571,
        -0.03881328,
        -0.06489019,
        0.01565282,
        -0.04951973,
        -0.018812895,
        0.0079263,
        -0.014579609,
        0.031393237,
        -0.0047916397,
        0.07366278,
        -0.047519684,
        0.02142243,
        -0.055713918,
        0.0364976,
        -0.015030883,
        -0.020759538,
        -0.087410115
      ],
      [
        0.07908223,
        -0.010736302,
        0.011746928,
        0.049745895,
        0.05929523,
        0.076457925,
        0.073045425,
        -0.05569179,
        -0.019928887,
        -0.047078468,
        -0.0759172,
        0.051701434,
        -0.05085645,
        -0.013947129,
        0.035211824,
        0.0884806,
        0.074185155,
        -0.042802073,
        0.010552838,
        0.069354914,
        -0.06930268,
        -0.089537814,
        -0.035827115,
        -0.0042790174,
        0.045852356,
        0.09815059,
        0.030111842,
        0.04055705,
        0.0732959,
        -0.07618787,
        -0.08524807,
        0.05733473,
        0.041315578,
        0.020879962,
        -0.082585976,
        -0.021881416,
        -0.04413867,
        -0.025594376,
        0.066679336,
        -0.093579344,
        -0.064760186,
        -0.058063198,
        0.026909761,
        0.07019136,
        -0.05990801,
        -0.049797274,
        0.033819266,
        0.057171397,
        0.07645855,
        0.09697796
      ],
      [
        -0.06134813,
        0.046284728,
        0.083757944,
        0.0042844266,
        0.08058543,
        -0.033207774,
        0.083418496,
        -0.047487855,
        -0.06874874,
        0.083074115,
        0.050651617,
        -0.01642938,
        0.09544171,
        -0.06910656,
        -0.06877673,
        0.04264178,
        -0.08684569,
        0.044109724,
        -0.079660796,
        -0.026695803,
        0.09396749,
        -0.06958101,
        0.02338092,
        -0.018586777,
        -0.04189999,
        -0.0832407,
        -0.08036506,
        -0.07381954,
        0.08321486,
        -0.014475182,
        -0.061337423,
        0.076064415,
        -0.03285499,
        -0.042592358,
        0.020102665,
        0.03357885,
        -0.09489276,
        0.031946115,
        -0.080230854,
        -0.012568116,
        0.087280996,
        -0.040650535,
        -0.06280849,
        -0.052325726,
        -0.068249464,
        0.03437858,
        -0.07933541,
        -0.036348343,
        -0.031931564,
        0.04178212
      ],
      [
        -0.071366236,
        0.090633936,
        -0.09305346,
        -0.03959632,
        0.04219366,
        -0.0016506463,
        0.04665924,
        -0.065475084,
        0.021133587,
        -0.0016326681,
        0.06183023,
        -0.050750136,
        -0.069292165,
        -0.01390662,
        0.09763124,
        0.05199351,
        0.013752624,
        -0.004002452,
        -0.0645695,
        0.061132006,
        0.05678866,
        -0.0861598,
        0.088725515,
        -0.055579044,
        -0.037709046,
        -0.07120903,
        0.06945846,
        0.044079803,
        0.09050173,
        -0.060327005,
        0.023016617,
        0.05603371,
        0.055148907,
        0.00703945,
        0.072455786,
        -0.06228521,
        0.08431361,
        -0.035711072,
        -0.07123315,
        0.09406126,
        -0.029887177,
        0.050036736,
        0.032965906,
        -0.07912195,
        0.00043968856,
        -0.076846935,
        -0.03582356,
        -0.049179625,
        -0.017766759,
        0.09879074
      ],
      [
        0.07510831,
        -0.07084408,
        -0.013212964,
        -0.060823705,
        -0.0830194,
        0.0283278,
        0.057721592,
        0.029253058,
        0.060187124,
        0.030483536,
        0.0030655116,
        -0.051546264,
        0.008142516,
        0.007952236,
        0.021843694,
        0.028984241,
        -0.024881937,
        -0.017894104,
        -0.092567734,
        -0.039182093,
        -0.027532622,
        -0.034057476,
        -0.035757348,
        0.0012687668,
        -0.07333417,
        0.07657223,
        0.059433825,
        -0.07516599,
        -0.06674218,
        -0.05864966,
        0.090718515,
        -0.07962997,
        0.015116714,
        -0.021975972,
        -0.09005497,
        -0.08611331,
        -0.040790677,
        0.017085388,
        0.056762837,
        -0.04077966,
        -0.014629081,
        -0.03469968,
        0.07079341,
        0.05955281,
        -0.009301424,
        -0.08207665,
        0.093750335,
        -0.039849736,
        0.055039696,
        0.035108574
      ],
      [
        0.027110957,
        -0.013072088,
        -0.025941871,
        -0.09528377,
        -0.04897952,
        -0.077611305,
        -0.01588247,
        -0.03976033,
        -0.07063477,
        -0.06805709,
        -0.0033085123,
        -0.015617564,
        0.091276176,
        -0.010649703,
        0.08417154,
        0.009818338,
        0.09708846,
        -0.04801011,
        0.039170124,
        0.050325684,
        0.059447266,
        0.082541294,
        -0.010369822,
        0.01833985,
        0.065771036,
        0.06284154,
        0.02834437,
        0.058983035,
        0.08757319,
        0.014753148,
        0.00225766,
        -0.08995249,
        0.03538146,
        -0.027704932,
        -0.09967039,
        0.099407025,
        -0.091997676,
        0.010492489,
        -0.06736324,
        -0.088005185,
        -0.00046548992,
        -0.011315227,
        -0.0022210628,
        0.012023404,
        0.029130705,
        0.0558969,
        -0.08664145,
        -0.030163385,
        -0.0018326789,
        0.011607885
      ]
    ],
    "lstm_forget_weights": [
      [
        0.08690741,
        0.046409316,
        -0.03152261,
        -0.04507611,
        0.015871763,
        0.059534334,
        0.019772574,
        0.057982333,
        0.09234882,
        0.09654301,
        -0.039320376,
        -0.05014172,
        0.032937773,
        -0.0974345,
        -0.08036323,
        0.05030828,
        -0.024432346,
        0.066900946,
        -0.07961945,
        -0.081695676,
        0.056673072,
        -0.083543375,
        0.0027086958,
        0.09724749,
        0.059100337,
        -0.090793036,
        -0.063502714,
        -0.073200226,
        0.013606429,
        0.041099973,
        0.083735086,
        0.056080244,
        0.07883216,
        0.06879056,
        -0.041392732,
        -0.012320638,
        0.06327932,
        -0.07095806,
        0.033916734,
        -0.025088593,
        0.012712836,
        -0.0940619,
        0.0037415773,
        -0.086835556,
        -0.099757455,
        0.05489769,
        0.014979765,
        -0.051275253,
        0.09418351,
        0.08155418,
        -0.048619535,
        0.05901263,
        0.04101441,
        0.00015895069,
        -0.043220807,
        0.04319396
      ],
      [
        -0.006499216,
        0.0062402263,
        0.072169684,
        0.09001949,
        -0.020246767,
        0.0014456064,
        -0.010365225,
        -0.09083483,
        0.09436042,
        -0.07593417,
        -0.07363889,
        0.07421441,
        0.076212816,
        -0.06614025,
        0.057859518,
        0.0413991,
        0.08539321,
        0.011911437,
        0.091920234,
        -0.055220176,
        -0.05778265,
        -0.07468176,
        0.0741035,
        0.05232372,
        0.020521857,
        -0.036639832,
        0.0702913,
        -0.0733727,
        -0.003978111,
        -0.047365475,
        0.08077047,
        0.09183829,
        0.089554764,
        0.080508925,
        -0.054314733,
        -0.042059492,
        0.06402648,
        -0.0051918477,
        -0.05844147,
        0.08981467,
        0.05081346,
        0.019949816,
        0.012994215,
        0.064741515,
        -0.028735712,
        -0.06596212,
        -0.016767047,
        0.0034123436,
        0.07600982,
        -0.064401224,
        -0.065795735,
        -0.0033192635,
        -0.04661348,
        0.083743624,
        0.0066994876,
        0.03818644
      ],
      [
        -0.06737111,
        0.0016065612,
        0.07192249,
        0.024375364,
        0.0805795,
        0.03799715,
        0.09835749,
        -0.031398848,
        0.037309714,
        0.047973447,
        0.06910994,
        0.08879616,
        -0.07937741,
        -0.015684053,
        -0.013310336,
        0.040102966,
        -0.0111262575,
        0.064766936,
        -0.06427777,
        -0.08773861,
        0.07870782,
        0.035714872,
        -0.08623276,
        -0.06714876,
        0.032118745,
        -0.027287766,
        -0.033474565,
        -0.056895208,
        -0.05727885,
        0.024509192,
        -0.06295402,
        0.08976824,
        0.04543636,
        -0.05184212,
        -0.042332053,
        0.05250872,
        0.012469031,
        0.032862805,
        0.015622236,
        0.016978525,
        0.089659624,
        -0.06879735,
        -0.033602953,
        -0.00702703,
        0.0734869,
        0.068970256,
        -0.052055646,
        -0.09716775,
        -0.029950999,
        0.0995521,
        0.012780689,
        0.07545104,
        0.0018363222,
        0.054913454,
        -0.0690727,
        0.019401811
      ],
      [
        -0.07742634,
        -0.009124614,
        0.072495125,
        -0.089989714,
        0.032891966,
        0.0812623,
        -0.0749258,
        0.065146096,
        -0.05672226,
        -0.091619685,
        -0.0032862425,
        -0.055321146,
        0.0039109737,
        0.04551334,
        0.05672016,
        0.050414465,
        -0.050395083,
        -0.08934953,
        0.037620313,
        -0.08743556,
        -0.029418275,
        -0.05101204,
        0.07490923,
        0.09109325,
        0.040158577,
        -0.08014269,
        -0.012618706,
        -0.015539788,
        0.08068695,
        -0.07142429,
        -0.007479951,
        -0.01579082,
        -0.05943005,
        -0.02253306,
        -0.09613557,
        -0.052491784,
        0.075211056,
        0.08549971,
        0.027761944,
        -0.04444642,
        0.0704541,
        0.08165603,
        -0.031360313,
        0.06688327,
        -0.07123973,
        -0.086595654,
        -0.036497258,
        -0.040246297,
        0.022575043,
        -0.05715349,
        0.020697452,
        0.011357568,
        0.021588087,
        -0.0033447742,
        -0.004972242,
        0.01395724
      ],
      [
        0.07055444,
        0.048857354,
        0.0107323155,
        0.024922848,
        0.09477609,
        -0.060667943,
        0.0060523003,
        0.084801264,
        -0.00190337,
        0.048347063,
        0.044115968,
        0.09980374,
        0.07467037,
        -0.035903476,
        -0.047712423,
        0.018634483,
        0.009834409,
        -0.042657446,
        0.01933644,
        0.07064397,
        0.07209108,
        -0.04662707,
        -0.097322084,
        0.073563196,
        0.046878226,
        -0.07133152,
        0.04023414,
        -0.011894345,
        0.08586817,
        0.008091904,
        0.05996991,
        -0.09576931,
        0.050647862,
        -0.091925,
        0.04961712,
        -0.09702313,
        0.057662852,
        0.098408036,
        0.056560226,
        0.0005439073,
        0.08560977,
        -0.05909815,
        -0.07527964,
        0.008398294,
        0.043494917,
        0.0983999,
        -0.033238076,
        0.050699003,
        0.04058609,
        -0.095053315,
        0.06260281,
        0.010240436,
        -0.08446803,
        0.06278033,
        -0.03139651,
        -0.070040606
      ],
      [
        -0.045157075,
        0.053089403,
        -0.03274703,
        -0.07978809,
        -0.07522748,
        0.09112213,
        -0.0599731,
        0.01417847,
        -0.062872864,
        -0.005209163,
        0.060456492,
        -0.0011056215,
        0.05085843,
        -0.08440194,
        0.07289641,
        0.02799926,
        -0.08624108,
        0.037801437,
        -0.026516221,
        0.018426202,
        -0.010996744,
        0.056345917,
        0.09220474,
        0.010802768,
        0.017741203,
        0.033980392,
        0.077706076,
        0.022333547,
        -0.0121452585,
        0.06523269,
        -0.028111577,
        -0.034615114,
        0.06689001,
        -0.00819888,
        0.050368927,
        0.0833833,
        0.07569974,
        0.010664344,
        -0.018397354,
        0.08590155,
        -0.07824679,
        0.09993679,
        -0.011885956,
        0.07473224,
        0.008630373,
        0.014738917,
        0.034969263,
        0.04549866,
        0.011740014,
        -0.054853678,
        0.04710556,
        -0.051969744,
        0.09078326,
        0.020757653,
        -0.09071636,
        0.029132389
      ],
      [
        0.07482495,
        -0.001594685,
        0.07402665,
        -0.08896895,
        0.07804944,
        0.08810026,
        0.06145639,
        -0.07899501,
        -0.04016886,
        -0.065477654,
        -0.0077981725,
        0.0034384727,
        -0.054249763,
        0.028793715,
        0.039316006,
        -0.09076059,
        -0.08187275,
        -0.05079479,
        0.083390884,
        -0.07823243,
        -0.0049142838,
        -0.028837658,
        -0.03491187,
        0.0604518,
        -0.08763724,
        0.06983624,
        -0.0546407,
        -0.067977816,
        0.0027652532,
        -0.07000947,
        0.061964445,
        -0.06370537,
        0.07495392,
        -0.05703776,
        -0.06503947,
        0.009158686,
        0.09658346,
        -0.06829882,
        0.05107958,
        0.0974335,
        -0.006124735,
        0.01424215,
        0.077603705,
        0.063888334,
        0.0548717,
        0.07895949,
        0.0043500215,
        0.09921088,
        0.04055745,
        0.012511447,
        0.0636585,
        0.03986127,
        -0.017879821,
        -0.055422615,
        0.006773971,
        -0.026841328
      ],
      [
        -0.057054665,
        -0.061790753,
        0.0339747,
        -0.04779167,
        -0.025998786,
        -0.04994302,
        0.033319287,
        0.047816776,
        -0.009084985,
        -0.08814039,
        -0.0947778,
        0.063765936,
        -0.09927597,
        -0.02905564,
        0.0044009686,
        0.055155285,
        -0.017357685,
        -0.034118816,
        0.09976826,
        -0.031548977,
        -0.0834934,
        -0.046577074,
        0.06270588,
        -0.0031115264,
        -0.08913632,
        -0.028552316,
        -0.0028179437,
        -0.089426115,
        -0.08033707,
        -0.037387416,
        -0.09383173,
        -0.079426505,
        0.09656138,
        0.04811669,
        0.07035305,
        -0.009848356,
        0.09462965,
        -0.041695952,
        -0.025141813,
        -0.045780063,
        -0.002060458,
        0.057762094,
        0.008680508,
        -0.083771326,
        0.034448676,
        -0.06403871,
        -0.09250531,
        -0.07353406,
        -0.058964945,
        -0.06207757,
        0.045611836,
        0.081681035,
        -0.047042895,
        -0.011093423,
        0.099413134,
        0.0028277636
      ],
      [
        -0.058522798,
        -0.012366749,
        0.056333236,
        -0.024857804,
        -0.08537962,
        0.038306974,
        0.014797114,
        -0.07893364,
        -0.043492652,
        0.06473463,
        -0.008161828,
        -0.027728602,
        0.024835564,
        -0.051140096,
        -0.043685414,
        0.048207186,
        -0.045580816,
        -0.028734587,
        -0.071268275,
        -0.024774812,
        -0.025519513,
        -0.02524288,
        0.089358546,
        -0.079147935,
        -0.029574849,
        -0.023868226,
        -0.09720881,
        -0.0954484,
        0.05720029,
        0.076293476,
        -0.037207723,
        -0.06983833,
        -0.07015248,
        -0.008274481,
        -0.034053802,
        0.074928336,
        -0.055002,
        0.06841724,
        -0.016082838,
        0.09096656,
        0.025619246,
        0.093846224,
        0.038275607,
        -0.012505338,
        0.05615733,
        0.022584155,
        -0.042582203,
        -0.0948988,
        -0.0048564225,
        0.09598506,
        0.043704875,
        -0.075741746,
        0.07187014,
        0.036524422,
        -0.056758523,
        0.08550196
      ],
      [
        0.051106147,
        0.09134788,
        -0.014712572,
        0.0688749,
        -0.07896359,
        0.04558838,
        0.031721406,
        -0.04061344,
        0.037463926,
        -0.06948278,
        -0.04505215,
        0.06534388,
        0.0067543983,
        0.090251096,
        0.05611921,
        -0.051175117,
        -0.039279558,
        -0.064447194,
        -0.091555,
        0.06263781,
        -0.03294356,
        -0.04421854,
        0.08125181,
        0.06433477,
        0.03301526,
        -0.062432837,
        -0.038370132,
        -0.09404285,
        -0.017437316,
        -0.057759907,
        0.056318335,
        0.029337935,
        -0.015881635,
        0.09892004,
        -0.011696935,
        0.05243308,
        -0.09600227,
        0.061728336,
        -0.027109072,
        -0.0008161515,
        -0.08043592,
        0.07306493,
        -0.04938481,
        0.024359725,
        -0.0892658,
        0.007727787,
        -0.096750975,
        0.03652484,
        -0.039409567,
        0.08749268,
        0.05673244,
        -0.045654535,
        0.06615763,
        -0.028968975,
        0.066079386,
        -0.021326326
      ],
      [
        -0.09464927,
        0.092187665,
        -0.07635768,
        0.052092932,
        -0.08338702,
        -0.025988981,
        -0.073506,
        0.016251445,
        0.08250687,
        -0.029940322,
        -0.008993983,
        -0.0010998473,
        -0.083738305,
        -0.022476986,
        -0.03704083,
        -0.052124597,
        -0.015688732,
        -0.042270422,
        0.005824566,
        -0.07359843,
        0.022344448,
        0.07537963,
        -0.0840796,
        -0.09500773,
        -0.001995109,
        0.07508998,
        -0.0074669346,
        -0.07396553,
        -0.02652879,
        -0.043392826,
        0.05582715,
        -0.031830028,
        -0.06758635,
        0.0036129206,
        0.023995183,
        -0.017080568,
        -0.0503361,
        -0.05491543,
        -0.037750173,
        0.08727593,
        0.02277448,
        0.06746525,
        -0.022550777,
        -0.088035755,
        -0.036838554,
        0.061093025,
        -0.033796094,
        0.038852908,
        -0.097164296,
        0.032987647,
        -0.06294219,
        -0.0096601695,
        0.07032133,
        -0.014347531,
        -0.07995863,
        0.051777653
      ],
      [
        0.069861,
        -0.06550713,
        0.042637058,
        0.026063062,
        -0.02066543,
        -0.051033475,
        0.05706299,
        -0.04380827,
        0.09005106,
        -0.0019561797,
        0.055702068,
        0.09583352,
        -0.04692657,
        -0.05928409,
        0.044767626,
        0.00045690686,
        -0.017789125,
        -0.07296026,
        0.059695967,
        0.0850293,
        0.018991902,
        -0.01834993,
        -0.01375594,
        -0.059643008,
        0.08443565,
        -0.036273286,
        -0.0024511367,
        -0.05934546,
        -0.054405477,
        -0.08169637,
        0.049732454,
        0.006334588,
        -0.08988805,
        0.02301924,
        0.012826443,
        0.013228849,
        -0.016688704,
        0.030814506,
        -0.099493675,
        -0.012813047,
        0.0626669,
        -0.025205329,
        0.09217746,
        -0.08058798,
        0.046031334,
        -0.044449355,
        0.039064072,
        -0.0661519,
        -0.037259743,
        -0.08161767,
        0.06623954,
        0.057437234,
        -0.05350337,
        0.018418148,
        -0.06257656,
        0.06674912
      ],
      [
        0.088810705,
        -0.08083715,
        -0.04047084,
        0.0643445,
        -0.08196173,
        -0.09723337,
        -0.032292582,
        -0.03884807,
        -0.019181274,
        -0.070095226,
        -0.044463135,
        -0.07005999,
        0.0017995611,
        -0.026237532,
        0.05406206,
        0.05933655,
        -0.062293317,
        -0.00081596524,
        -0.094907045,
        -0.051164176,
        0.06644457,
        -0.008859061,
        -0.061686706,
        0.04340639,
        -0.033209756,
        0.0028461441,
        0.006877467,
        -0.005542442,
        -0.05488782,
        -0.02002909,
        0.022355892,
        0.04067976,
        0.015516736,
        0.0622387,
        -0.081099056,
        -0.018325284,
        -0.046330858,
        -0.07434209,
        -0.021443985,
        0.011741117,
        -0.06400195,
        -0.04823034,
        -0.080019616,
        -0.027890801,
        -0.08878143,
        -0.086513855,
        0.041383006,
        0.09661486,
        0.08521209,
        -0.056403972,
        0.039428093,
        0.04168003,
        -0.008286312,
        -0.074010536,
        -0.054565977,
        -0.0734088
      ],
      [
        0.06677308,
        0.05029633,
        -0.02727823,
        0.06819949,
        -0.040293574,
        -0.01614122,
        -0.01942756,
        0.081262715,
        -0.023750737,
        0.04745505,
        0.08760994,
        0.066970475,
        -0.0973974,
        -0.005901359,
        0.007931806,
        -0.0137175545,
        0.02317264,
        -0.055423286,
        -0.078698084,
        0.076007344,
        -0.04257765,
        -0.043006804,
        -0.06795259,
        -0.09034472,
        0.091985606,
        0.058796905,
        0.010404825,
        0.054696538,
        -0.04097147,
        -0.014061168,
        0.052277736,
        -0.021714285,
        -0.03634336,
        0.075316496,
        -0.05688989,
        -0.055697512,
        -0.031470634,
        0.068926476,
        0.026796483,
        -0.067060806,
        0.07468862,
        0.08086378,
        0.08989113,
        -0.011707209,
        0.095593505,
        -0.08377893,
        -0.050412204,
        0.01611302,
        -0.06320069,
        -0.049549367,
        -0.08138859,
        -0.008708119,
        0.015061691,
        -0.04395261,
        0.015526436,
        -0.07238741
      ],
      [
        -0.009999491,
        -0.05531435,
        -0.036709525,
        0.025398023,
        -0.06936014,
        0.0843487,
        -0.0021979362,
        0.05343642,
        0.042815022,
        0.047070153,
        -0.09821158,
        -0.086713076,
        0.049471803,
        0.08318124,
        0.024645403,
        -0.021347262,
        0.0144266635,
        -0.049910214,
        0.027917571,
        0.043451555,
        0.020203039,
        -0.018260576,
        0.06351576,
        -0.066996574,
        0.045183487,
        0.080550246,
        0.006258704,
        -0.032194853,
        -0.023133352,
        0.066991754,
        0.004570104,
        0.078454144,
        0.005476095,
        -0.07906179,
        -0.0622586,
        -0.056934025,
        0.060144998,
        0.0788588,
        -0.09990609,
        0.068774514,
        -0.004695654,
        -0.07096026,
        0.08366353,
        0.005895041,
        0.055788897,
        -0.075045705,
        -0.039699625,
        -0.05821519,
        -0.037064433,
        0.028466962,
        0.065144844,
        0.09585012,
        -0.061749507,
        0.062006734,
        -0.07572021,
        0.041616537
      ],
      [
        0.08147635,
        -0.06585093,
        0.06245389,
        0.01341746,
        -0.05936451,
        -0.026676342,
        -0.066621706,
        -0.01126001,
        0.06332185,
        -0.029188037,
        0.018087842,
        0.03721588,
        0.07348532,
        0.02608604,
        0.022508405,
        -0.09588259,
        -0.031692147,
        -0.06400905,
        -0.024622992,
        0.07892706,
        -0.015184835,
        0.09173339,
        -0.09113329,
        -0.059303164,
        0.08320544,
        -0.08975122,
        0.019819833,
        0.062807135,
        0.006667897,
        0.0015947074,
        0.02710507,
        0.08049021,
        0.012417272,
        -0.02547703,
        -0.017116472,
        -0.08411765,
        -0.012044594,
        0.056279473,
        0.07972648,
        0.08920164,
        -0.079665706,
        -0.024906874,
        -0.08485692,
        -0.0020679235,
        0.09534044,
        0.07761078,
        -0.019574568,
        0.07000949,
        -0.073946334,
        -0.0964319,
        0.07261718,
        0.062386416,
        0.032086916,
        0.092811175,
        0.008837298,
        0.021856472
      ],
      [
        0.0191627,
        0.06601859,
        0.07092442,
        -0.037841585,
        -0.034598447,
        -0.05787635,
        0.080902554,
        -0.03624463,
        -0.029798292,
        -0.01141236,
        0.0045958012,
        -0.044729568,
        -0.0363528,
        -0.0985096,
        -0.036697075,
        -0.028052308,
        0.0013652295,
        0.041948803,
        0.014179304,
        0.07504589,
        0.034697913,
        0.016475298,
        -0.047239114,
        0.0750669,
        -0.07796121,
        -0.08095026,
        -0.0077393055,
        0.058464415,
        -0.056933213,
        0.09581771,
        -0.070694946,
        -0.081593014,
        -0.032476664,
        0.076414056,
        -0.075579405,
        0.036782958,
        0.019718193,
        -0.027019098,
        -0.029996537,
        -0.005266048,
        0.06254334,
        -0.05435307,
        0.034139775,
        0.05505169,
        0.0062321424,
        -0.08217557,
        -0.06250039,
        0.031253435,
        -0.013022184,
        0.00044970214,
        -0.028561234,
        0.053907417,
        0.011334561,
        -0.0027833953,
        0.08599455,
        0.040184595
      ],
      [
        0.05282133,
        0.06207519,
        0.006870486,
        -0.09438222,
        0.09332869,
        -0.01301761,
        -0.037012003,
        0.06632576,
        -0.083619475,
        0.032168053,
        0.0021151304,
        -0.021985963,
        0.039353468,
        0.086499475,
        -0.06623821,
        0.07521195,
        0.0032294765,
        0.06298893,
        0.029943652,
        0.057414584,
        0.08309946,
        0.05333472,
        0.024105385,
        -0.012385055,
        -0.03384743,
        0.09081953,
        0.046100996,
        -0.051927973,
        0.056733795,
        -0.043005016,
        -0.08852937,
        -0.0682739,
        0.0069997534,
        -0.000079229474,
        -0.058016326,
        0.048771955,
        0.008690521,
        0.06923332,
        0.032810427,
        -0.03355,
        -0.082458355,
        -0.022678755,
        0.05853162,
        -0.066106156,
        0.065934904,
        -0.06113992,
        -0.00974457,
        0.088115074,
        -0.00067772716,
        -0.09594589,
        0.07648628,
        0.07714548,
        0.06291976,
        -0.0051893964,
        0.09646035,
        0.063641496
      ],
      [
        -0.07137139,
        0.013731167,
        0.052105807,
        -0.07414238,
        0.032450177,
        0.076748036,
        0.028435446,
        -0.08817794,
        -0.020500824,
        -0.07692146,
        -0.064576745,
        -0.07993822,
        0.022433378,
        -0.0091306195,
        0.05777233,
        0.06476993,
        -0.00044758618,
        0.07067702,
        0.0949272,
        -0.02398803,
        0.03765572,
        -0.06769732,
        0.02752877,
        0.048378892,
        -0.05395334,
        0.051482446,
        -0.076118946,
        -0.0075635687,
        0.028233103,
        0.025180988,
        -0.054344296,
        0.06835038,
        -0.09051669,
        -0.054275442,
        0.007369682,
        0.08270354,
        0.030689888,
        -0.047588017,
        -0.06526182,
        0.008342072,
        -0.07164042,
        -0.097314455,
        0.09776253,
        0.05310578,
        -0.043632604,
        0.042680673,
        -0.005679682,
        0.07634606,
        -0.09369645,
        -0.08564019,
        -0.03828883,
        -0.05168717,
        0.0629734,
        0.0045930147,
        0.07410889,
        -0.025028132
      ],
      [
        0.09769172,
        0.077653624,
        0.09529271,
        0.00056865066,
        -0.05434184,
        0.003228642,
        0.013572358,
        -0.03781576,
        0.06371821,
        -0.0101588,
        0.0019836426,
        0.024163507,
        -0.030607246,
        -0.093912914,
        -0.09909041,
        -0.04460285,
        -0.037721824,
        0.06018401,
        -0.038704634,
        0.052718543,
        0.06081965,
        0.07039728,
        -0.004240848,
        -0.056219053,
        -0.019089937,
        -0.032662153,
        0.033444174,
        0.08321033,
        -0.04401305,
        0.08971252,
        -0.07319663,
        -0.013791539,
        -0.02929809,
        0.04252527,
        -0.074426316,
        -0.08208978,
        0.06475467,
        0.08712662,
        -0.02422364,
        -0.066276595,
        -0.09360693,
        0.027672745,
        -0.023198321,
        0.06276777,
        0.07885864,
        -0.09698224,
        0.013633467,
        0.080211855,
        0.009680793,
        -0.090182185,
        0.07568004,
        0.094908975,
        0.07757983,
        -0.026993707,
        0.006999612,
        -0.015556671
      ],
      [
        -0.023017146,
        -0.08079829,
        -0.08289237,
        -0.031385705,
        0.05311344,
        -0.083104655,
        0.017941259,
        0.08251748,
        0.0822309,
        0.05560977,
        -0.033191726,
        -0.058211066,
        -0.09049783,
        0.012442112,
        0.005222179,
        0.0050213337,
        -0.059136987,
        0.0057379976,
        -0.069530725,
        0.009310387,
        -0.08743601,
        0.054649644,
        -0.062225796,
        -0.03399606,
        -0.021987535,
        -0.036330126,
        -0.015898779,
        -0.00925646,
        -0.024079703,
        -0.06763835,
        -0.044918444,
        -0.018949226,
        -0.07610476,
        -0.0978322,
        -0.037639406,
        0.02324126,
        -0.024583437,
        0.07612679,
        0.016558766,
        -0.011927746,
        -0.042192675,
        0.08445669,
        -0.0054830536,
        0.041683055,
        -0.044094708,
        -0.018545844,
        -0.076119564,
        -0.0991983,
        -0.09286218,
        -0.04097407,
        0.02276139,
        -0.018429376,
        0.0075320005,
        -0.090164565,
        -0.0765589,
        -0.068084165
      ],
      [
        -0.0692626,
        0.084683396,
        0.0032170266,
        0.07294204,
        0.09097586,
        -0.08708894,
        0.023898505,
        -0.005425215,
        0.093069054,
        0.096002154,
        0.09414718,
        -0.045658946,
        -0.087812044,
        -0.029838964,
        -0.08099711,
        0.030333348,
        0.050824173,
        0.013848737,
        0.06365972,
        0.02320683,
        -0.09666665,
        0.017627858,
        0.024913788,
        0.07746584,
        0.049067788,
        -0.065404035,
        -0.027455375,
        -0.08454688,
        0.089133285,
        -0.010798171,
        -0.029785275,
        -0.009559706,
        0.08538609,
        0.07644289,
        -0.053995013,
        -0.03649445,
        -0.07755987,
        0.005278349,
        0.031232052,
        -0.08558102,
        -0.053485226,
        -0.045561552,
        0.0897162,
        -0.03992286,
        0.073120005,
        -0.05635035,
        0.06254802,
        -0.09040721,
        -0.034521863,
        -0.055596422,
        -0.090204075,
        0.047873832,
        -0.08020439,
        -0.09023211,
        -0.08050148,
        0.01129365
      ],
      [
        -0.0073704273,
        -0.025875114,
        0.036140464,
        -0.058516096,
        0.09947739,
        0.0086064115,
        -0.04063766,
        -0.006373547,
        0.0016097799,
        0.039292477,
        0.0896642,
        0.009010218,
        0.026767023,
        0.04374113,
        -0.0045879334,
        -0.0998188,
        0.03961099,
        -0.06881835,
        -0.009964801,
        0.034563996,
        0.09943957,
        -0.031071112,
        0.0049550086,
        -0.0011822432,
        -0.0050765723,
        0.025655605,
        -0.030318543,
        0.05719433,
        -0.0593853,
        0.043870576,
        0.040314056,
        0.085030384,
        0.034374602,
        -0.043787863,
        -0.04216006,
        -0.08541148,
        0.08761876,
        -0.038201164,
        -0.045055367,
        -0.06372146,
        -0.080184385,
        0.09168651,
        -0.04915419,
        -0.026638672,
        -0.06408298,
        0.07586899,
        0.06341345,
        -0.087083295,
        -0.0038051382,
        0.011006191,
        0.012252547,
        0.02644027,
        -0.08607838,
        0.09353254,
        0.026184611,
        0.09028893
      ],
      [
        0.013072252,
        0.028387167,
        0.04498758,
        -0.013550758,
        0.05171428,
        0.087554984,
        -0.071719244,
        -0.08066873,
        0.02208738,
        0.083785705,
        0.036587216,
        -0.0457907,
        -0.044858076,
        0.0018752366,
        -0.07700665,
        0.006195903,
        0.045365877,
        0.08448642,
        -0.07156036,
        -0.025297478,
        -0.08477225,
        0.020948052,
        0.029604219,
        -0.061661076,
        0.08076125,
        -0.08851452,
        0.05176308,
        -0.0055721775,
        0.045191698,
        -0.06291683,
        0.05451379,
        0.06941456,
        0.025537305,
        0.0010128021,
        -0.080969594,
        0.021087267,
        -0.04477079,
        0.04622794,
        -0.0390903,
        -0.008074142,
        0.012013458,
        -0.018870398,
        -0.02489648,
        0.016830727,
        0.03588038,
        0.08833618,
        -0.0065740123,
        0.044106416,
        0.078436024,
        0.03533397,
        -0.0024661273,
        0.056451805,
        0.026822336,
        0.086076565,
        0.006156847,
        -0.066102535
      ],
      [
        -0.022064209,
        -0.09396207,
        -0.054464318,
        -0.0046387166,
        -0.089534216,
        0.08890266,
        -0.044022202,
        -0.051498868,
        0.08588257,
        0.029751591,
        -0.09855342,
        -0.092350796,
        0.094812535,
        0.0091750175,
        -0.012065008,
        0.09931526,
        -0.06845145,
        -0.008446336,
        0.021146156,
        0.015875623,
        -0.064773366,
        -0.058480572,
        0.07904451,
        -0.030159757,
        0.059643604,
        -0.050268557,
        -0.09551289,
        0.09300635,
        0.01581321,
        0.0076404586,
        0.07263789,
        -0.054757357,
        0.05037702,
        -0.03218124,
        0.08823214,
        0.04208947,
        0.097663544,
        -0.02861116,
        -0.009718135,
        0.019595958,
        0.094128944,
        -0.00086581707,
        -0.095671944,
        -0.08412006,
        0.08071632,
        -0.033219576,
        -0.073447965,
        -0.09061056,
        -0.029408887,
        -0.09379246,
        -0.08923202,
        -0.07625353,
        0.08816523,
        0.045028217,
        -0.024410509,
        -0.03555868
      ],
      [
        -0.013879418,
        -0.059485342,
        0.06994956,
        -0.08102453,
        0.030600764,
        -0.0036979914,
        -0.085932426,
        -0.07144992,
        -0.0708092,
        0.089102216,
        0.025053479,
        -0.06314261,
        0.0037641078,
        -0.052805614,
        0.08306422,
        0.030581959,
        0.029838376,
        0.06687861,
        0.02141507,
        0.09953461,
        0.055703424,
        -0.05164769,
        0.06860652,
        -0.049256563,
        -0.015216902,
        -0.0337698,
        -0.013734557,
        -0.094684914,
        0.02905441,
        0.036243923,
        -0.013417676,
        -0.08432703,
        0.0146167055,
        -0.034912683,
        -0.08257709,
        0.041238375,
        0.09792865,
        -0.026765183,
        -0.02015321,
        -0.0741411,
        0.008058071,
        0.09661401,
        -0.0035708696,
        -0.006821297,
        0.006586075,
        0.06966665,
        -0.044607043,
        0.04122532,
        -0.069810346,
        -0.04908037,
        0.029033355,
        -0.008288883,
        -0.018945716,
        0.019187167,
        -0.06869078,
        0.039130263
      ],
      [
        -0.02432134,
        0.09338034,
        -0.09947288,
        0.07170267,
        0.075441785,
        -0.091218784,
        -0.014502689,
        -0.041467335,
        0.0114055425,
        -0.023967288,
        -0.021725848,
        -0.0479316,
        0.07194962,
        -0.07958212,
        -0.0054809824,
        -0.06638603,
        0.06904604,
        0.076734014,
        -0.02924893,
        -0.016449906,
        -0.06944249,
        -0.09502371,
        0.045147352,
        -0.014975786,
        0.01422403,
        0.024265125,
        0.010749742,
        0.010126092,
        -0.06269041,
        0.01357422,
        -0.0037080795,
        -0.053787686,
        -0.07914104,
        0.035160072,
        -0.043244123,
        -0.082692124,
        -0.045430925,
        0.045926787,
        0.06750057,
        -0.050140765,
        0.0821595,
        -0.035710476,
        -0.028403305,
        -0.07699442,
        0.061263703,
        0.07555451,
        -0.0800761,
        0.047874458,
        0.05558493,
        -0.02813442,
        -0.09857333,
        -0.00465779,
        -0.008572482,
        -0.055563357,
        -0.061342906,
        0.09869542
      ],
      [
        -0.006871268,
        -0.06999536,
        -0.020827696,
        0.059983797,
        -0.07938383,
        -0.09461265,
        -0.07044642,
        -0.011849999,
        -0.07796018,
        0.07969651,
        -0.049730968,
        0.048969574,
        0.0119675845,
        0.0033627003,
        0.008138776,
        -0.058114838,
        -0.06785634,
        0.056884266,
        -0.04647472,
        -0.051415753,
        -0.0659467,
        0.06783714,
        -0.043745186,
        -0.049922086,
        0.09632578,
        -0.08772788,
        0.077709846,
        -0.061704304,
        0.08514572,
        0.0906704,
        0.002785489,
        -0.019604683,
        -0.08313904,
        0.013624191,
        0.095077045,
        0.0932141,
        0.008118674,
        -0.07277405,
        -0.037746098,
        0.03588379,
        0.013611957,
        -0.003809169,
        0.09296002,
        -0.08571525,
        -0.09880634,
        -0.014784649,
        0.027011774,
        -0.011025265,
        0.049498446,
        0.049078293,
        0.08358497,
        -0.09692309,
        -0.05162647,
        -0.025760695,
        0.007923365,
        -0.0045426637
      ],
      [
        0.09098134,
        0.06893998,
        0.00096390396,
        -0.09452706,
        0.07778304,
        -0.026229098,
        0.016077712,
        -0.077436164,
        -0.03027229,
        -0.026592612,
        0.0038263053,
        0.08751354,
        -0.014634632,
        0.074512266,
        -0.025419854,
        -0.0228251,
        0.050804026,
        0.009112142,
        -0.060665753,
        -0.092836164,
        0.0028912053,
        -0.08148222,
        -0.086898066,
        0.0530817,
        -0.045901276,
        -0.07328465,
        0.08144457,
        0.084880285,
        -0.04747193,
        0.051405914,
        0.023521498,
        0.051057704,
        -0.034756638,
        0.09372539,
        -0.09775915,
        -0.0005578771,
        -0.055651736,
        0.017536595,
        0.00086414814,
        0.08842302,
        0.08112455,
        -0.01572819,
        0.040296935,
        -0.09801715,
        -0.05915456,
        -0.0682607,
        -0.06943257,
        -0.053450394,
        -0.009991191,
        0.0809182,
        0.019958213,
        0.008152269,
        0.09141422,
        -0.02812247,
        -0.045199465,
        -0.08779018
      ],
      [
        0.04744067,
        0.059718437,
        0.06143398,
        0.034782387,
        0.04676292,
        -0.040961552,
        0.0426035,
        0.012593508,
        -0.06506157,
        0.017765023,
        -0.08605154,
        0.030186035,
        -0.05660398,
        0.046325587,
        -0.058994558,
        0.00859566,
        -0.031962253,
        -0.02349355,
        0.07929351,
        0.09258903,
        -0.046985935,
        0.023589417,
        -0.062027812,
        0.050695248,
        0.0894121,
        0.05731552,
        -0.09064334,
        -0.048789907,
        -0.05348885,
        0.038439162,
        0.01348386,
        -0.04231551,
        -0.0042002425,
        -0.043608356,
        0.0016410798,
        -0.062753126,
        0.01678069,
        0.09592236,
        -0.07963598,
        0.055838116,
        0.09549508,
        -0.000599578,
        -0.054977465,
        -0.064618394,
        0.030121394,
        -0.06014836,
        -0.007980347,
        -0.08974352,
        0.0874551,
        -0.02987416,
        -0.06830004,
        0.084024735,
        -0.053542208,
        0.037154846,
        0.07719577,
        -0.009493709
      ],
      [
        -0.096930884,
        0.065900944,
        -0.02348461,
        0.060615204,
        -0.026905559,
        -0.05327914,
        0.05748727,
        -0.08936479,
        -0.03518045,
        -0.0908726,
        -0.07036438,
        0.010201499,
        -0.040307548,
        -0.09457572,
        0.09079809,
        0.06168566,
        0.018653296,
        0.041075133,
        -0.09280171,
        0.09916749,
        -0.09902849,
        0.037375577,
        0.07094271,
        -0.070769385,
        -0.081366204,
        -0.061698675,
        -0.08786609,
        -0.047342803,
        -0.027914502,
        0.03006392,
        -0.064297654,
        -0.09731143,
        0.07624457,
        0.026320957,
        0.050301217,
        0.013072491,
        -0.02680695,
        -0.0150101185,
        -0.015176296,
        -0.09224372,
        0.04820121,
        -0.077513315,
        0.029392295,
        -0.072555706,
        -0.01898186,
        -0.08241844,
        0.07272091,
        0.07070089,
        0.08289648,
        -0.0031167716,
        -0.012939766,
        0.09514976,
        -0.0027428418,
        0.09497609,
        -0.058825757,
        -0.03320851
      ],
      [
        -0.066380665,
        0.011851765,
        -0.0457747,
        0.023315266,
        0.037530802,
        0.07332855,
        0.000051930547,
        -0.07429397,
        0.061178066,
        -0.053269815,
        0.015955254,
        -0.09627302,
        -0.09290309,
        -0.05626085,
        0.06524075,
        0.06868679,
        -0.0041993633,
        -0.02915404,
        -0.08895786,
        -0.045582987,
        -0.014142774,
        0.035829924,
        0.04485715,
        0.028634332,
        -0.009400465,
        -0.08192756,
        -0.01633127,
        -0.07828357,
        -0.009559132,
        -0.098049305,
        0.016933277,
        0.027438335,
        0.05069066,
        0.06444178,
        -0.018964007,
        -0.019281052,
        0.07529063,
        -0.08239949,
        -0.014030792,
        0.0021672025,
        0.07541599,
        0.0044639558,
        0.0037899464,
        -0.098311715,
        0.08838082,
        0.07726092,
        -0.022494122,
        0.080982275,
        0.017171338,
        -0.06747131,
        -0.005985573,
        -0.013916351,
        0.045864843,
        0.054380007,
        0.08263991,
        -0.025970533
      ],
      [
        -0.04600048,
        -0.07732566,
        0.064185,
        0.056245454,
        0.0013409853,
        -0.098982885,
        0.06787682,
        0.099961214,
        -0.022409774,
        0.009742454,
        -0.08281086,
        -0.06651704,
        -0.04216194,
        0.09718209,
        -0.045794655,
        -0.030505821,
        0.045032717,
        -0.02823262,
        -0.042278767,
        0.014657162,
        -0.010521986,
        0.04016202,
        -0.008827969,
        0.05751138,
        -0.040682673,
        -0.042269614,
        -0.015579961,
        -0.03719332,
        0.035661288,
        0.020966552,
        0.03685201,
        -0.09610891,
        0.036112793,
        0.0052897707,
