{"cnn":{"conv_filters":16,"filter_size":5,"output_size":51,"conv_weights":{"v":1,"dim":[16,5,5],"data":[0.01963718075096412,0.03760057901610025,0.07426780915135399,-0.06372471156702232,-0.18787115708915805,-0.06092154987189813,0.05484973933114416,0.4175938618165086,-0.3705352456354427,-0.6819019456072234,0.516708162000043,0.010207502401323908,-0.11567917908010324,-0.17930378191641363,0.0048889193753175065,-0.2272019452663649,-0.2810312364833028,0.006365732350419712,-0.1991000960965618,0.19974062095292566,0.21586229008328742,-0.0027862147387254987,0.003630182492947037,-0.5805030830637412,-0.15898278734290108,-0.0554754065826822,0.15449092582512644,-0.17876593001580493,-0.03342100798631684,0.08265040714791522,-0.035014866925995966,0.15114399291480007,0.3006481857475248,0.570883932572023,0.07959830443616728,-0.34052241080388274,0.050936103404185744,-0.06084426645686665,-0.4190820234533122,-0.07523797153197603,0.3198206077390965,0.159969034058974,-0.037371027242857305,-0.5012330119670775,-0.4175387476782648,-0.11649150909915766,-0.007098524195700549,0.22901872420816718,0.4592266916636816,0.03350317596346926,0.17885125611967034,0.21175045023168015,0.11159370619444212,-0.2343537983133568,-0.04872613935706742,-0.1005940883032951,-0.26321060267309376,-0.3490562752616471,0.11523631842909965,-0.023082781295566297,0.3106824759489659,-0.37457527382078004,-0.04524975988502792,0.021247377678792014,-0.26815905285280794,-0.24338498840218267,-0.32118898281672387,0.03188128059640165,0.16209105090390002,-0.269493048695693,-0.01936927223179635,0.04871245101345761,0.4631056142562483,0.07703565387928794,-0.01342813854563447,-0.03252300819021899,0.3934221504633188,-0.3092338455738334,-0.007176705479897408,0.23592651566885015,-0.15000162288088822,-0.17797443615685457,-0.18277955792832642,0.2611072812191781,0.3063569138537994,0.045956665555985654,-0.38808671527950167,-0.10114230112179386,0.11405757906754674,0.1297769822271479,-0.10810554406832583,0.5340175846752232,0.09752569731403989,0.15111549465651172,0.26518464349059134,-0.17165109046187252,-0.3075434638377403,0.47883340799542295,0.2789405431509549,-0.1307214735055143,-0.11433365089794825,-0.29438670600372474,0.4299391851608059,0.29815050927477194,-0.04938014873419788,-0.42167582695109435,0.5882596625554486,-0.35296361000934445,-0.07201349961259955,-0.04470527615088689,0.1521001969254706,0.08843927297271273,-0.2784872113247827,0.09925640642746503,-0.05181276797130806,0.3286205390542218,0.025672159770866166,0.2211491271690197,-0.46007315347093924,0.5748430908843724,-0.3006668523087292,0.5289687838979407,0.4267675088448189,-0.32814606005934094,0.6374002133598735,0.29819927697600923,-0.08237507231781012,-0.014118963574593335,-0.3175961833012628,0.13536223010362586,0.0521877681451261,-0.22077419788748257,-0.11783995735762826,-0.022302109747605516,0.5499840599823774,-0.4129754066359444,-0.16133628487127324,-0.6129325158278234,0.011165199380043555,-0.49871075199624443,-0.21658157310135667,0.18625252812336549,-0.16910306866230862,-0.20415489498551417,-0.34338015582536763,0.16261228098585578,-0.04497316401351366,-0.10919132097789311,0.07216934612427486,0.08746271326426615,-0.0674170721967597,0.17497116578107183,-0.007345786896028755,-0.1389935302185124,-0.5010628067954415,0.08485389593509565,-0.31398812315561947,0.024019112602542893,0.197138683538875,0.6175084958050823,-0.027687632099119105,-0.05288961042335665,-0.43810314710541476,0.1975572087153201,-0.19421865349748857,-0.7239269395741453,0.2808977237648534,-0.13408028777887704,-0.32768917214524057,-0.2605494273668878,0.3601360102752098,0.3656700063961967,-0.028782297089279516,-0.08378994014123929,0.3849982268846349,0.09149387838490008,0.00007828751160030413,-0.27675944685846526,-0.002920835026633984,0.2420696279436465,0.19581797392437883,0.02710893760578552,0.28310865984597594,-0.34030002903831125,-0.4288067860020412,-0.6366157187644118,0.14976428205797757,-0.17030807850145827,0.211871183796692,-0.11070861173029055,0.1360979294828159,0.2483555128840401,0.3419519475242816,0.11246973967767533,0.2815264316425215,0.10203050745140778,-0.255103609359457,-0.4524441755782154,0.1318868841958623,0.331230247401836,-0.2970395086243565,-0.02669221448792657,-0.029101429878184152,0.21761405123913868,0.13326693528517655,-0.15018101002800846,-0.1352779827595388,-0.6190680806040053,0.054159588297040234,0.2442542309011318,0.060983409242578654,-0.1617172423121922,0.5059076980611016,0.2759870015801608,0.1679885028433251,-0.10096995476295502,-0.3966489994883746,-0.4213749848426209,0.3681666141057718,0.2649590476955813,0.08869961415592431,0.229910861724539,0.4990224639817462,-0.23816031896960407,0.03483771525222025,0.269084689738629,-0.18163669602732474,-0.08156911734283331,-0.12740648283739575,0.05968673672866398,-0.06726863564121893,-0.18300766840556204,0.018079594874791164,-0.43230419214391075,0.025984140407857348,0.0486200936246115,-0.10626293145905832,0.3783657637459401,0.028462853728021032,0.1679145881223245,-0.03257747479642023,0.16579834026042836,0.35609964049059684,-0.052603177236755456,0.055274361661449556,0.15928804868916877,0.5946679423774714,-0.3740187609428324,-0.31532312802635337,-0.29126763629909175,-0.16099961066336696,0.11314660553675061,0.2886223296228129,0.4156460954788082,-0.17523058527444071,-0.16955472123335247,-0.011114437683916189,0.08551394006832559,-0.18850590794901845,0.2882916174679038,-0.5714686696596861,0.2384656751709441,-0.03256854952189554,-0.16051206289246184,0.5322194392188142,0.386432357814217,-0.2656118525231371,0.3926888628468939,-0.3212540331724766,-0.18322153230973107,0.19540733032042437,0.32913273625662276,-0.44899882460054164,-0.22940757001430792,-0.011820509884249795,0.16478404778887257,0.13137899147592824,-0.22542889963313917,0.0306097806734972,0.27763278336615793,0.29476327308240796,0.211518702732446,0.38186707491062993,-0.14705702182075334,0.22774102270041743,-0.5731481337367624,-0.21375030646930263,-0.10374395449612507,-0.26865316315770954,0.17430157105334992,0.4331973553806326,-0.8097105701688936,0.13193634526862738,0.1888837852467736,-0.05623649490114241,0.5625881486007425,-0.21986385691811322,0.03463945693839664,0.16861478668333432,0.19550233238846654,0.034292494676040855,-0.12563470545313724,-0.03236413595336636,0.08444116603823083,0.26591654598237263,0.0030022537493626386,0.2973581661812949,-0.22442047611155347,0.6255190395725213,0.027663636451282454,-0.04098758978187647,-0.0887942667330947,0.2846101739495593,0.09953376822335429,-0.7152138920409378,0.04987277036697282,-0.178013615903197,-0.05783542710243006,-0.4036909309285841,-0.652894035910355,-0.19098354602119388,-0.08240655272722028,-0.0413055791029557,0.027958746214926767,0.0031042864635895395,0.053699795791075866,0.4792298229911962,0.1709127807890609,0.4161362059388503,0.3525285621715253,0.29665725667285864,0.3756283470334655,-0.5113450370413636,-0.249315073786748,0.4937902298388071,-0.0054721698628397,-0.4950169615608045,-0.04099898279479484,0.09022518025573555,-0.685563321992592,-0.16398196188380113,-0.11572743572067375,-0.3105118681101523,-0.07800544838098575,0.3606794855020363,-0.08626412094473274,-0.4236568398790591,0.07955271135663032,-0.04319963999622776,-0.26650453497093896,-0.30272008918760607,-0.09252520265168168,0.5586823845959792,-0.1447882239726137,0.3213214539791087,-0.2069889067389304,-0.20671642870827978,0.13147987925935745,-0.43728427331839675,0.7371032249271756,-0.2943477104394101,-0.0003934862584364049,-0.20044819990335724,-0.06229042009154357,0.6261040099157886,-0.3888453628861226,-0.34006053990117985,-0.27991133455700135,0.36257856927448323,-0.40324229153743374,0.18485462284936444,-0.06918171251802092,0.44269444467752533,0.12058409505122446,-0.10994450237825877,0.009864320815896995,-0.2708144453754107,-0.07249938986349955,-0.6299587840165168,-0.6024426576469035,0.021801755755471733,0.2759784915056252,0.3196277558107179,0.026923296289921763,0.5149913243623058,-0.1386473542736355,-0.2869954244441492,0.49072307252582575,-0.4982988996382205,0.11935690311789278,-0.04100758756164606,0.3944114408152982,-0.29612549212841804,0.06000289016665461,-0.10840754340605321,-0.08843059804159613,-0.010023902928619089,-0.5066434595172571,0.38032146044185106,0.09290440376348533]},"conv_bias":{"v":1,"dim":[16],"data":[-0.8261728971507277,-1.5829022701933577,-0.7597153976565072,-2.0073303849430073,-2.158889683076026,-0.6442198845421955,-1.121001575860354,-1.2344776365360042,-1.851535253962901,-1.3652554045172067,-1.3742636141794091,-2.045188154765782,-1.0803651372753733,-1.8154824360285506,-1.8843639000665702,-1.0454700380461084]},"fc_weights":{"v":1,"dim":[51,2304],"data":[0.059898446552254285,-0.03583031816873577,0.01704688289436472,0.0028855733914300145,0.0060367524009217015,-0.017375265353652254,0.0533016475251739,-0.013113096071588266,0.0062836104009921685,-0.002172038858380202,0.0018704515346576853,-0.048441724643700765,-0.009695325371380377,0.0525926937680555,0.03727885383699848,0.01436181665416126,0.07031417384671892,-0.07337988069205854,-0.014419212244718083,-0.02529943688251515,0.033239825199719415,0.0021734739238621348,-0.007042819320791616,-0.07627186446083364,0.03539563104456133,0.000651823512213073,-0.01883602785137685,0.0051911029715935916,-0.021901295795916934,0.006653416869100004,0.003710000746916473,-0.015035295761879248,0.01743147273465411,0.04282135670457017,0.0066124309075654315,-0.005055556793050283,-0.023987627927117512,-0.0313419056521761,-0.006567976078218029,-0.008384153447711828,-0.02535143915648463,-0.04413102389343406,0.012998102225305081,-0.04385962160022374,-0.028352242428330846,0.01573397803408259,-0.021510569822986145,0.06813944141605227,0.020813361129171506,-0.049510773046741625,-0.013450544502038074,0.0022672274357645197,-0.0033507129157201903,-0.040087133116258944,-0.03267301652719742,0.0017988218200936025,0.00044855658408887207,-0.044712788934030086,-0.05320935632513604,0.0048144620004868625,-0.007434769140578678,-0.0077008294128943335,0.053832823313203416,-0.042116560430870614,-0.03036570500576328,-0.011610713364211243,0.006302808137124495,0.00854638775116175,-0.05980984983308356,-0.03161332036210953,0.0041623760487458535,-0.023638881011541255,0.019858043006633325,-0.006794442462533077,0.05415748444441754,0.06439660302390433,0.06612056151232262,-0.053192292809339355,-0.043314099399289235,-0.011673481659253176,-0.024006991279772207,0.0015008849978644277,0.012023047281809451,0.0549191798002344,0.02543533102424488,-0.00218474213905641,-0.0009023873166479268,-0.009532811034111119,0.03495873309004299,-0.04033365425151643,-0.06746750244778188,0.003604275822167725,-0.042592308132887724,-0.05691101241651507,-0.006508680521240972,0.000541791100820722,-0.00480439751198024,0.04906678738294835,-0.0026222834364253936,-0.039378382002654345,-0.009712009645510382,-0.0063092726750895185,0.01541900227779352,0.008844681500989115,0.03542757466937766,-0.009937643152215247,-0.04449296255740326,0.03926939562841392,0.029015364236595932,-0.007217104565732952,-0.009590302099492985,0.03613777193709975,-0.014920310900092066,0.025871653538653464,0.16110011301268198,0.00478032561256811,-0.014374705640627991,-0.00011074460308874551,-0.03573564010862119,0.003393880462133289,-0.027824098883471524,0.029306473083955814,-0.005753759635991318,0.04998835118125224,-0.042199045988113144,-0.014944939712588761,1.0426097036832582,0.2258638379562873,-0.007101939600355575,0.03373306622926926,0.0028399915784136144,-0.046845978989303864,-0.013439979392480601,-0.009876880298068429,0.000910181602073615,-0.0261291852123593,-0.030729896354519542,0.00009576189598411703,-0.02617674772727652,-0.015815108918750872,0.028672107631009202,0.04417657980136805,-0.005021813814249605,0.0017381907238223292,0.0033129080865965184,0.012024519468447945,-0.035958958791646414,0.015769642075930585,-0.08828967188540417,-0.005827710995479693,0.034059099037873686,0.001957668800022428,-0.002606182912794633,0.0054179477523875474,0.04022026212146032,0.015483851635449321,0.0034533344225249054,0.030072226858462482,-0.007379842455960097,-0.010501722426534077,0.007410184682849012,0.03848896746126047,-0.006436110484951929,0.0034601318194379064,0.03379126846847784,0.009213266673532804,0.003055307584075382,0.05527938581965803,-0.012026291582276997,-0.024166876101987134,-0.02293318383854804,-0.001940123727807161,-0.04185056350564482,-0.009914845362586553,-0.03636024802296388,0.030341498186219517,0.053176107575763305,0.00011604819469990412,0.010747954880655816,0.003997462248795881,-0.020576038300423437,-0.013145453008855095,0.05299608820912639,0.03307140940497824,-0.025928403080127636,-0.015076931905051659,-0.05771131083301323,0.008780215464172937,0.015161241590169364,0.01956039373659447,0.0030480957275389295,0.0370209170836949,0.03835681525245676,0.035749772328666926,0.016052898418780645,-0.020909526037149424,0.01157974271904753,-0.05118106076645923,-0.011615881789479681,-0.04716092818917991,0.04355911750468827,0.014787548906418094,0.01616459470618622,0.020090860464961797,0.05571363590832065,-0.0026422084694501503,-0.017547752405465442,0.006160747692064579,-0.1000848766878968,-0.14437442158034677,-0.045867113066848555,-0.00248135739585412,0.021579760137855147,0.012976741144540907,-0.037191034287867936,0.025418384162887726,0.00021806529816462586,-0.008085815255745775,-0.017702493893213878,0.00707306448306885,-0.0737734642141782,-0.08748404288539156,-0.07629306497137239,-0.046788487601733104,0.01543243538582424,-0.019026877014416452,0.01305510133870376,0.04035883986979354,-0.013664971492770342,0.0036400224909335747,-0.017076681761145393,-0.03563170925039606,-0.07196609998269038,-0.0698382714618439,-0.02037267826587001,-0.049199968444704555,-0.0174567524615368,-0.010031610687468185,0.026447909831778783,0.03332352811122574,-0.021017603820635302,0.012073714130672259,0.028322421748277364,0.03652372634473026,-0.1546283182873772,-0.0689548486212079,-0.003526926672407962,-0.018920484295336132,0.008376758833856811,-0.017867808326341862,-0.014716730245343684,-0.004181589124296549,-0.012808629833913612,0.008805812009782739,0.002787624179437759,0.012958033073285047,0.03172814777656108,0.03814803008631914,-0.04722093607337648,-0.011801052159853576,0.04989001044803997,-0.014352766202789986,0.002371843581829547,-0.05007982957828796,0.019862956583761485,0.009632087175839398,-0.08040736730945981,-0.003771099653667998,-0.00792835205432362,-0.02880760082093831,-0.008642757964592577,-0.033395625746927136,-0.024281115541168147,0.01588002746253537,-0.07159378272083049,-0.06261181700679708,0.03540369020227958,0.0450747036186799,0.020828034281228893,0.0070998538277107694,0.021077878231978493,-0.0496701411058414,0.07672735966003412,0.024003175578357832,-0.014318609817743425,-0.014753706040687603,0.007405918296256619,-0.04358584216005333,0.0019702030771244854,0.011761652941134891,0.01904794349962201,-0.00039830004324531144,0.04697838234936349,0.024231705473015574,-0.019856723918995255,0.01155355266232717,-0.022156783359297785,0.04339876701021194,0.0034338523120787602,0.0014925243146745068,-0.028885977289604292,0.01653526752342367,-0.03050627007753461,0.035705412107710215,0.025984078857960412,0.012418421416081269,0.02379262236920372,0.017996132654264804,-0.011778894739828127,-0.06366663006859771,-0.004046992045474921,-0.012067957281894977,0.027475179503473897,-0.0004860602937383855,-0.02461047262360058,0.028827754392901358,0.027621571940010102,0.02839136690264726,-0.022449478500002232,0.019391125707081604,-0.010462130768675883,0.03981409302782696,0.03302744974066581,0.02155864765493687,0.011742536816490439,-0.012694986362300873,0.00022202064488894874,-0.003272813041338814,-0.030835990205446532,-0.03253231359462546,-0.04572065066333618,-0.03958030753881185,0.005865159063756321,-0.017713969407066547,-0.022998283176011942,0.034427105505613564,0.01826899482677288,0.032900020485880886,-0.011482376983687618,0.03067638184539195,0.016306660304389764,-0.018569480572990224,0.011882791234159426,-0.004465922577686776,-0.0008117915098337599,-0.011528406791913496,0.008439983973994543,-0.0289911848858432,0.02943402057268548,-0.013448044609596482,0.036823783610079715,0.07445280785415145,0.018598680613469674,-0.09660218077783196,-0.07329439233364073,0.044319529912182624,0.03970268483006592,0.030532063923710932,0.010274334710990748,0.03340543797992734,-0.04691773331840481,-0.018504737175961437,0.01958584262285404,0.021001082961969283,-0.0021891891259501676,-0.086726928436616,0.035224991834060325,0.012131503247760066,-0.046436219817081216,-0.016441283572707684,-0.04663013939153816,-0.018538589134485767,-0.001541642256575316,-0.027232850352504206,0.035216247100609534,-0.001088122279608865,-0.03486573102328652,0.010808449951787865,-0.042662336376565545,0.019077500639945247,0.006827324863591186,-0.0161537227187055,-0.022697624752240412,-0.003985565408008165,-0.02675148656116449,-0.005995428650688371,-0.042321658778745164,-0.0074774857686889145,-0.01809760080348824,-0.021921345655711858,-0.11972370388636738,-0.043820382558549996,-0.024187181292525027,0.001856255332069771,-0.006832286569340035,0.010574584343321293,-0.047250766143208445,0.0045206171282739524,0.014700007162102412,-0.02915071852665427,-0.042973044799087964,0.05297038808264195,0.01625457895943539,0.022621856019249247,0.020632582869457284,-0.027938341036940352,-0.0944567013090692,0.02238300684804207,0.007268014866808355,-0.027750541868992035,-0.002683740766562956,0.009411955633981386,-0.0064634081419703,0.016741961090689518,-0.0191886393749438,0.011838737640429376,0.0043854061024555906,-0.06008377724244241,-0.01588339040970432,0.014392012376842457,-0.0018924765897705188,-0.01575872186254768,-0.03211068983956449,-0.0325315743755079,-0.03306965812203793,0.041843116458469935,-0.019772924745047236,-0.020236154261271955,0.008975992139265957,0.020966786213193152,-0.05126819459305525,0.0431199590934194,0.022554233307133048,0.01147804323363915,-0.012231523630905896,-0.020163216291069357,0.009768335026163128,0.003693076397523362,-0.014460942650860143,0.03614646119896965,-0.005528771862045641,-0.01564245538980075,0.006756401638426445,0.007571482157393354,0.019796838366647137,-0.04041132414063423,0.02551282813954546,-0.0053886552967406486,-0.01822043670138439,-0.026138115949091326,0.01909026070715707,-0.01955484271485978,0.05934262717736746,0.01371774713378968,-0.05854310962665168,-0.08069739714559027,0.0009611213528765498,-0.0006620813279579477,0.02086349621494225,0.060132181148528606,-0.005279260709178802,0.04249669559401807,-0.040680126937891206,-0.034471842965640015,-0.01152161479687432,-0.05430530911875339,-0.0012039881779567084,0.06518103858203471,0.029301178987127793,0.004731968322142623,-0.0008079412315965699,0.003570785649954659,0.04183911876641776,0.043656706926536545,0.04642988946222114,-0.016327011601087175,-0.014637696229954408,0.01299105821398633,0.02224704816482042,-0.03686359910228264,0.02029258995105168,-0.00896883930144595,-0.03032261277025464,-0.022883539942707552,0.05370203992869842,-0.005593439828112849,0.01029434712464999,-0.08675365817470594,0.002094891236113861,0.028763808738870526,0.0527370951971856,-0.03280768395631529,-0.05330314124184028,0.030658035593761943,0.040527313927038684,0.27800895031136447,0.014985227117732348,-0.06595992001865297,-0.02649101891180314,-0.030232009228326487,-0.02061499705836539,-0.029583597113596895,0.006295853241872267,0.017337595576581735,-0.01803704557474878,0.01846128449552879,0.060299163758097754,0.7762356089181759,-0.08090469580491631,-0.08787263765681495,0.029851110535093282,-0.04385403817934842,-0.0120776975591204,0.007404666415386995,0.009723330965220182,-0.011320968992724296,-0.057927920110047215,0.04617710161120538,0.09423026582619369,0.2910440286116419,-0.15126001904419753,0.04652202625192783,0.2654113789965818,0.003617049631829359,-0.0269908336143201,-0.015441696403221232,0.0281697377883013,-0.027764166275688524,0.013244318433000524,-0.016433928073945208,0.03726769529078176,-0.17733966600913853,-0.11201756178633882,0.6944833384488643,0.12276865335716003,-0.01855152875239756,0.05620108106714658,-0.0604487264877166,0.02694439966432582,0.019652840833841848,-0.028255664389922563,-0.0032185108008652903,0.011160577817118345,-0.09592298083887336,-0.02395808888084831,0.27237999061717844,0.033501746109772204,-0.022675751230817956,-0.006411221491663084,0.009859555927084544,0.00592570547092785,-0.006504049117387381,0.0010272099915315449,-0.04230675884437647,-0.04428928054860824,0.0010383862621898086,-0.004512917952878667,0.023657800615527635,0.06220048850371352,-0.028012889725882735,-0.0508723269611858,0.043251936003614565,0.01555787951788144,-0.03793392670103463,0.016156990696223093,-0.000046476132961159586,-0.01863398530193725,-0.0033375485147975835,0.014887101706143007,-0.00769990148331368,-0.02852078247682972,-0.01584403767587923,-0.01206040615805766,0.0058747375217306184,0.0169996082941488,-0.028480012379102512,0.07286188510597992,0.015043132022293045,-0.033369229938754706,0.011279108257480856,0.035475615133107416,-0.031145339565356117,0.0019168336903279811,-0.013564294345835073,-0.017082032410197255,-0.006017349038131152,-0.01242527997546719,0.005677487981760535,-0.05335430383296948,-0.02500566201888399,-0.013829982197066156,-0.022086941155965285,-0.012764562692069555,0.0003767903515535844,-0.01911695487768303,-0.01597404834167168,0.022265223617107296,-0.012119633880493088,-0.017160431193419878,0.02017316612019282,-0.02165808648704865,0.029859892541757613,-0.0035633833875627387,0.04546309688261477,0.027243981430711578,-0.01230538315631733,0.028193404958062183,0.013236532899328123,-0.06108430296715304,0.06677595716597289,0.011523961827139021,0.03565694587648367,-0.046721546557589276,0.018370322904012092,-0.01816765030038515,0.04118337621233904,-0.04956269904041773,-0.010749730166496078,-0.03194015170371559,0.011295876471002343,-0.028831697412214505,-0.01234490953540946,-0.00257319401711642,0.020376643334941064,-0.03140063658317899,-0.00701470308972593,-0.02317042441548123,-0.044364611799233795,-0.018473634861292772,-0.019799593879765306,0.0066382887620903604,-0.07429953976159762,-0.03356263745235393,-0.016372021013943923,0.025898251106070986,-0.006712021953192326,-0.0173434334842524,-0.011939149370713824,0.017978377984551878,-0.07329194094285972,-0.14947977466779236,-0.06625754657923177,0.008069521144813466,0.041643851468169506,-0.0034434755229742807,-0.03820383838986274,0.02938597419540195,0.026156425219079675,0.0024760520911108904,-0.0014753614940564309,0.04091792515086564,-0.04231667807496432,-0.11450600462757139,-0.1891340765721628,-0.015505872884907818,-0.03899518238437686,-0.04185026309435084,0.005561013273344422,0.022209650556410866,0.01136537009819827,0.004045525480640496,-0.017839376392696858,-0.02242388413654239,-0.02343134403755188,-0.1094454719449272,-0.11945853937400966,-0.059054420650847816,-0.01823877008323213,-0.0026680039337929028,0.048901840991925474,-0.001914861280248633,-0.029985662755294486,-0.0221267358965929,-0.04278882359646304,-0.023791388540938166,0.008932399617807524,-0.020076013266652874,-0.09994611225781047,0.0060691108579745325,-0.041737896481942816,-0.006240857524153041,-0.011320962147689509,-0.027634752992422053,0.018808297978764727,-0.0022008263895349897,-0.0315334263289687,-0.007284463089651045,-0.03706867882279804,-0.08067743375942384,-0.049485208345249505,-0.029085666328579046,-0.016327996625921774,-0.0006439062700742021,0.012200765801437185,0.0024184315213251523,-0.051259622493347076,-0.04455822534442589,0.03510663449659457,-0.04861256085557243,-0.004914803150427307,0.011484824885817077,0.043471213541247465,-0.027249773570692516,-0.019869901789495947,-0.026883428278652335,0.010891702930279175,-0.02637525761982336,0.046938238417686746,0.002296578324448132,0.0037995433713321537,0.011143686582815495,-0.012857523652050437,-0.007529036458092192,0.0013684370318601511,0.0322854457352517,0.030243983267439604,0.01684213255069157,-0.02048533588991981,-0.013341176292135213,0.03536272015789914,-0.04653247182076382,-0.004672743058642954,-0.04255793224786694,0.0012613518286600247,0.04324624930564997,-0.04719541436208619,0.04985926731763166,0.0002382601042511531,-0.015733439962613602,-0.014743110982430517,0.005958920312724148,0.05149912070631374,0.04676559006964766,0.020144021207885107,-0.044603965583143064,0.023222785332327182,0.0006777005988051335,0.027722841204554417,0.04716817639545682,-0.0419684075979815,0.07057373903046045,-0.033025357914641375,0.009090061154790793,-0.015245637728763787,-0.010072835484997189,-0.027911683287176484,-0.012794895731063415,0.042021544377352366,-0.0015557402368018343,0.07476528263400985,0.0011743931946715108,0.006801937116514259,-0.03940848853243896,0.0009310913406130535,-0.009041351452933728,-0.047821642612966855,-0.014448254227687434,-0.03594072697637736,-0.00804702559945138,-0.05741546164881763,-0.031006711932018288,0.027292672064693928,-0.06192804988780049,0.0730909154705512,-0.020638747109934567,-0.015827885720878853,0.005542245208360648,0.07073743553991053,-0.012661726635880041,0.08105051706114585,0.0148277401663554,0.0013830189471545648,-0.025832740649028477,0.0309284788164663,-0.039247709611423404,0.0010722882975635181,-0.04268358499693552,-0.0030071744491301836,-0.04672972797303054,-0.020918750957367945,0.006482960286103353,0.022353219916170407,-0.019805968199436294,-0.03661943188067739,0.07029623509151281,0.02326019303631614,-0.005247508086141335,0.0003061163769631089,0.0050067539219579345,-0.058846325910349724,-0.037486964132529464,0.038505004706401794,-0.024785523471110637,-0.025816436027776203,-0.08052730070932737,-0.026698989480406488,0.06230442710136641,0.018424856759871586,0.008646830691326624,-0.03415963873406622,0.026483937030777522,-0.030896845172079527,-0.01950931406803876,-0.03213923914589364,-0.03579703081450758,0.02873414588275976,-0.05779953111504219,-0.052010090020606685,0.024199161022262595,-0.04775954192348665,0.0403063545400452,0.012340184290897768,0.026182010717949702,0.006916993228447474,-0.034351543990480266,-0.01450397689318575,0.010862031943814873,0.04512883180466493,-0.02914734579448534,-0.0017698674069202397,-0.02936440817434004,-0.03658218806141523,0.04522311442295551,0.007810502893419186,0.020469308523996494,-0.025720273723862087,0.00446317522757118,-0.005856695580378684,0.029132547477318242,0.007401607449490877,0.0422975504326889,0.02220711415236606,-0.04025988721312367,-0.04266424640624986,-0.009783886307764776,-0.00656054013958941,0.018572508710223246,-0.007816480569460745,-0.02930150454157352,-0.0009093528794890586,0.04429531235042148,-0.006182668939747522,-0.06260217485375964,-0.003803111945827558,-0.1093510718732277,0.00023250754277099334,0.012555408297556948,0.006356300920567545,0.02672842342786137,-0.017569499964358432,0.004223577448791856,-0.050193941276087166,-0.02191023745273224,0.03378676088858074,-0.05274889844466536,0.029000080231011718,0.007372234096468822,0.004639693735991501,-0.02477214494832855,-0.01422738099177639,0.018203414481759488,-0.024383354253819826,-0.039332075838714335,0.028516975989899766,-0.010532240120819655,-0.002094068439804089,-0.0046995913769148166,-0.005571034784370923,0.0197547051969358,0.04419638833478914,-0.03805389777807567,0.005667725484247035,0.012298823052667905,0.01709105665752463,-0.016491761009237074,0.02945653996729675,-0.05161788445146359,0.02768483342586686,-0.0541771900002842,-0.0037217685379759245,0.00406796345535808,0.019591955390044925,0.00555126449095689,0.04819887352237355,-0.0026441810339398334,0.005197962631963572,0.005921715806130922,0.00014547571697658032,0.06855526356388345,-0.020173927023680482,0.03818984295036781,-0.004821945440482085,-0.04554327510683721,0.0013810729825022513,-0.034156879869677755,-0.03201106825990774,-0.03508460279816029,-0.042755114177629984,0.04457271384512333,-0.0008094041829298635,0.029783118210088288,0.02372514491016584,0.013501195032137975,0.012330639430900877,-0.044921403477569594,-0.05264640704374485,-0.021082037236952983,-0.023602242114122353,0.040707459671832674,0.010756353490224704,-0.033097692187307036,0.005642513590765893,0.015195741654964396,0.003938234579502289,-0.049855251652875625,0.008748923862552183,0.005906622063715965,0.03523253495848248,0.05119000969052696,0.01569246360775858,0.028435106329480386,0.021128969103976002,0.07644306678788498,0.10853721786786437,0.012080770268801406,0.026190413603644304,-0.02174050669178989,-0.03850605693514025,0.036910214261163456,-0.06994528910890065,-0.07818991345397834,-0.0009317341416194982,-0.06338911902841844,0.03481792713375559,-0.017046152680609345,0.0347325524098357,-0.02575782510665603,-0.006584732617939884,-0.054686266973465486,0.015321329164744418,-0.012367265502713155,-0.017342974752836044,-0.030483464836123686,0.003639377821418359,-0.08002428120049826,0.02219368498476763,0.0022455896421844242,-0.014997172834209945,0.031749481061795204,-0.04045202140710127,0.013363055781078296,0.018756450128749658,-0.1167239962142823,0.03758198936943306,0.0013835657889116856,-0.0160637799682119,-0.025630146652198798,0.019681305457615095,-0.033845939567469785,-0.019149382271835144,0.03930054933309953,0.006728023425630437,0.001936348821585156,-0.024289132323338524,-0.0354973321350906,-0.0399471416896617,-0.0057011736323685095,0.05697852644119039,-0.003915034527783289,0.005292025054334996,0.01143633837156208,-0.0006591861011684847,0.062333379482994396,0.011299578951920141,-0.031296708650845925,-0.012213566415121623,0.02970638414502856,0.03289882634385849,-0.019745838565750136,-0.005660022239541324,-0.04186536824429844,-0.037413142544884176,0.03283181335300293,0.01475691218740178,-0.005153665837194443,0.03653194834440733,0.02408159592542695,-0.03849191049962318,-0.08477201408027045,-0.0026838469351240677,-0.006339759851355716,-0.022931046938356563,0.020526233864906797,0.026697262658646952,0.003201729232836346,0.017818097597869172,-0.007682884739462529,-0.004811369222451307,-0.027928955543990077,0.04928161113353976,-0.0039369748502125915,-0.013230648178585888,-0.054821447874506865,0.043420350416759665,-0.018151017406161266,0.0066411389156605894,0.00555290079787639,-0.03715933627998775,-0.05185043119075663,-0.0027585568900901367,-0.006274285218300547,-0.03547907509564858,0.04943779495976483,0.006178148895466909,0.02857075265070121,-0.001002511796473875,-0.05632266310876867,0.02225506576146928,0.0012244675439878857,-0.003508274581296,0.05144248107797719,-0.02059909799369997,0.012413548682725721,0.027950637251556432,-0.014151373039197989,-0.05634042613850897,-0.0012992966052940657,0.025697932216262178,-0.005725468339509168,0.016962497024335717,-0.04013653413267004,0.003398426215262337,0.027730783288030057,-0.0029348197359742854,-0.03707359259475634,-0.03321516822005974,-0.021826236496943933,0.01485226897569392,-0.06910655460047843,0.03700542406805277,0.04156453432847647,-0.003201485312850867,-0.0552952365126486,0.010900193544203289,0.013292560623259736,0.018896422708547193,-0.0054520155298001345,-0.005332619093032875,-0.00363298830740179,-0.02995340953547644,0.022844470367172565,0.012067025838540704,-0.028270164719548577,0.025759382707927426,-0.027464223085974963,-0.015303852024975383,-0.003957794091625879,-0.034988244292840365,0.01653622710432904,0.03605438687523218,0.17458342933471335,0.8744430561917652,1.364384589678166,0.012555573112781677,-0.049186780847156476,-0.05075134513914338,0.038209332330639334,0.03497910044295937,0.012864073562361774,0.02210968661229447,0.028418195526751257,-0.007483023200621643,-0.028468729886555102,0.04183349333153741,-0.029010733335351375,0.03674450698955948,-0.027749080624320303,-0.0015437317558029196,0.0016253795120772176,0.027421844988837613,0.02599042896435498,-0.032582440560770885,-0.010622603335852602,-0.01789817513155009,-0.0600965164885996,-0.1344827283716807,-0.029438500974970347,0.010604607603907858,0.032198552837504925,-0.014170214474248934,0.019909551409297656,0.03267341080912734,0.003913184034317717,0.03266790018616805,-0.08342299509863024,-0.019083387690360526,0.00745091194239839,-0.08029419078179638,-0.06661037258568692,-0.017874464390376835,0.02374109707845795,0.03257182198714363,0.02436246809461776,-0.03970390155272684,0.026338712614406408,-0.005411483092246063,-0.016068530230460017,-0.046725859401421835,0.053422613113986314,-0.006863727386685208,-0.08865306996536423,0.006864659052354576,0.02042055519404241,0.026838191577280394,-0.03433056059123857,0.021359321803416837,0.023287603144787603,-0.010702339539595795,-0.030450135514457986,-0.056107758353573185,-0.07213723223623017,-0.0061103611252683815,-0.048223917381134095,-0.05056904445619761,-0.024515116457695448,-0.09300582849184778,0.032833574345372235,-0.009042037220772178,-0.0006381739852426626,0.017265807942789837,-0.03416713397467609,-0.0012783204721870773,0.02433647202802086,-0.0189017928386495,0.004159412478947344,-0.03189073936764155,0.006966077236438333,0.04489967964259358,-0.0419622151486675,-0.04786590896802676,-0.01964556601907437,-0.005275800953062678,-0.03308532230820824,-0.006097810183270691,-0.016904564032151334,0.036037585896659015,-0.02887770240274405,-0.008517530292908347,0.025903566353636713,0.022924295823625485,0.013589924302422911,0.010962793947556473,0.0096372696567776,0.023801858918880533,-0.052088981404341685,0.005490657006602327,0.02818502725099366,-0.05930143516369958,0.04448056160856099,-0.008364198998396414,0.001209174010526398,-0.016535490465089404,0.007718337185288647,-0.03259249101296445,0.07055692915036718,-0.038386971234591005,0.02260789401139955,0.020065527587667872,-0.05411914679639189,-0.028055650266037974,-0.05352573508735632,0.010354703912401468,0.014483686867909169,0.04731899226594189,-0.005918072906204591,0.00860151453492691,0.017950589037183537,-0.07026145618807769,0.04778224473083753,-0.05723125376889886,0.01507353468577808,-0.048617471614602524,0.018015560843808995,0.01841821345643049,-0.03191798820903859,-0.03689816897279661,-0.019562619243105463,-0.0014561261370591055,0.015698082116805873,-0.034413801944468886,-0.02018192522315305,-0.044839155331508736,-0.03310168422080664,0.018297946916173514,0.05223698165031179,0.007117898501188191,-0.016824911938023303,-0.012216594820030426,0.020798016740230303,0.03154712310308371,0.02527477466632972,0.016028109899375777,0.02055208693847832,-0.022400836233987788,-0.03295047293040204,-0.027056710749422352,-0.005977495605730838,0.012911909476589375,0.02759632369001956,-0.03575134021923182,-0.000711256732003019,0.03350044693180978,0.013523248845779726,0.032467223984750986,0.050832485412353676,0.06040996886105582,-0.03514856139023938,-0.009522581478773523,-0.054748174731008,-0.07566023948478609,0.03139643413752872,0.011501546793512932,-0.032637517656094774,-0.04987468097580874,-0.021443657395117624,-0.04144103676956036,0.04891726022380509,0.21107169662565015,-0.14146142590784375,-0.1194739561767856,0.007187711345148194,-0.022111023067508118,-0.01706659290336925,0.0007115808211146251,0.02386617648729351,-0.06610750356183008,-0.03091876790666109,-0.024716821790373093,0.12550366353859638,0.2492357910359534,-0.08451352004722669,0.07687014414605871,0.3691127845835219,0.013911925679997416,-0.035876491801364055,-0.07228858163920955,0.033387500104856006,-0.00673408315700828,-0.007897826133973175,0.013119058923814202,0.043924595547526014,-0.11798790662355797,-0.13592151027625093,1.6323697507818502,0.9402410240519723,-0.07007519604038855,-0.00427951518370675,0.008586117567485015,0.006584288057611974,-0.003495619526504465,-0.026258498113117708,-0.023509747223811307,0.007140785623701223,-0.013067681495685006,-0.07104734514253917,0.020917756712000784,0.04071927456641139,0.007480950873391025,0.025448802837127613,-0.023024725935577913,0.050214515394911126,0.010515040674370407,0.02553539987837234,-0.027152948235882476,-0.039725733236889604,-0.010746690105825851,0.016151186655863743,0.0009666069583957534,-0.002355895930359009,0.024860440841651916,0.014741441968809579,-0.025211766464604532,0.029938107973380267,0.01920914474273659,0.010090279871488507,-0.014205633211135833,-0.011687411497986001,0.028124140642967414,-0.003463004843253811,0.013308705025275326,0.06469822767271707,-0.017267389862779762,0.005303516507749445,-0.06052434770995147,0.05383984569020052,-0.005384995447386652,-0.014056115898095849,-0.010352328663182041,-0.008239551919614055,0.04514003989418727,0.027400678609615512,-0.0015482872968025359,0.006928108403916422,0.019922014922500453,-0.005085969183940034,0.011285331084646584,-0.028908711700089025,-0.08169123483200086,-0.045676624240342564,-0.0020173794571758286,-0.02334714350187331,0.06152644113556577,0.006470680865587469,0.0488946274251415,-0.0021252447675188715,-0.011833345894503841,0.011507942823464056,0.00287833483348168,-0.0034731522632261832,0.0185867875726401,-0.013154998791519969,-0.008410635945563074,-0.0018308136801540933,0.03814049683463684,0.0595346034204475,0.05689884616770831,-0.04552242147348819,-0.054325661004646815,0.016941781991728754,0.009672168438374934,0.016633609989929143,-0.026150924386348282,0.003622954563698503,-0.03984272720020522,-0.01117942031323792,0.026527239249257418,0.007481521929488535,-0.05329857582015181,-0.014441293920743182,-0.02869297787647879,0.021186755768469352,0.03436435654457643,-0.001307292889006279,-0.0027998436750106613,0.024189982817567453,0.027608504139625203,-0.038761657311689984,0.021207410259069952,0.398736458176717,0.15248015777349871,-0.017321245823988276,-0.1109014015799157,-0.06322058365957643,0.004504670437519778,0.0001955746568839595,0.016733447857437554,0.01567614588589455,-0.0384167743079698,-0.027113256982196243,-0.016056273957522977,0.144396970132318,0.11280243701579303,-0.034864110137033597,0.043361764003338604,-0.009750023244682677,0.013898711798376588,-0.014115922213358794,0.03020987414539626,0.04750943212662901,-0.03159820173584789,-0.042957424926476244,0.0002234268123238708,-0.0007358865746956383,-0.04359112695508826,-0.027411206727625356,-0.009003086672361186,-0.03664405843303417,0.009807325680760658,0.02403554234387637,-0.032405084391536526,-0.042107835491607036,0.029686143858974504,0.015083964500834752,-0.0065580531536987875,0.028228023573698538,-0.020108377587683218,-0.030978698205166813,-0.05461920803608102,-0.034215091023719585,0.022331280741212604,-0.062128360745016806,0.00039199956699918407,0.026810550831816958,0.04338725165766294,-0.007284113595808188,-0.039382082177609856,-0.02037213820093568,-0.01442842970459753,-0.013928389247430437,-0.01635128464945199,0.009767487395403712,0.019152401655128184,-0.042808815116970884,-0.05723648504125736,0.0332983153900937,0.025999464745273697,0.006850412913993595,0.015824964905980454,-0.038145292795972056,0.009519308622320434,-0.0203797908143044,-0.06941967864769878,-0.04155662702935398,0.0017643665820703959,0.026833874560848157,0.019667452356389607,-0.0019231717115425176,0.02671024504089657,-0.02163070674486261,0.01765457334929137,-0.029653721782942597,0.01094586206183426,-0.009893470648625356,-0.04359499134868836,-0.019963897778279116,-0.006030787993184976,0.01226587400102677,-0.015340943707144544,-0.02844271983281347,0.021903172027116752,0.002223620203900108,0.03467046926952185,-0.0390819452950119,-0.02659343132213368,0.021193828100401317,-0.023432392712119457,-0.048227964415677164,-0.017970677486494772,-0.012985952809921042,0.03999284432307951,0.0233824356998945,-0.03473783948415652,-0.016724061065214815,0.08355293141541455,-0.002882958030658252,-0.0058776375456963525,-0.020504449795318774,0.016248681427449032,0.002615094918467826,-0.007141196292381314,0.002611564217898971,-0.030705348681360965,-0.027314142704856437,-0.025346078336285802,0.0049681027949513065,0.016471595130274932,0.002978973544753963,-0.0010638359716943716,0.059762376683584445,-0.01363503221402511,-0.04803723888526162,-0.05691081862063615,-0.06938001979853377,0.03972819198873198,-0.006217985646723414,-0.041042913062927434,-0.04158235553611726,-0.008903088002188057,-0.02524525523770641,-0.0023254102998921597,-0.008561000239462735,-0.019508708138390198,0.03879157068640381,0.03916457700975508,-0.0010688980717091234,-0.02567832833295122,0.037949091345901874,0.019474126167481592,-0.025086326476066085,-0.007249708657347426,0.004514904941075572,-0.019548241151103072,0.0308668402395546,-0.012506652977300779,0.006549724946122227,0.01442238528845996,0.030639614763123907,0.021706407918903107,0.016665735526927468,-0.01136301288188457,0.015532787246225581,-0.012660335816459289,-0.05255255161939971,-0.008397769392756884,-0.037331204768801196,-0.028280263424910662,0.014731938314797334,-0.0029530428543895525,0.01388477265485227,-0.001541984300746811,0.001996845477212716,0.010503041394913936,0.05529894455672868,-0.00879930833080437,0.06142717730647224,0.011694423686814562,0.007268821659824024,0.012262711066095791,-0.01824888724539506,-0.04438017894334122,-0.019344129030332936,-0.017817855040869843,-0.012966418541065242,0.00975703039029427,0.0202165687719567,-0.050768779391988046,0.015545803255215453,-0.03499345596968971,-0.24507168795679168,-0.07819821919163193,0.019681007191944714,0.002418908827042516,0.013911122349686096,-0.01648809377188125,0.005109415831059134,-0.02157178410393043,-0.0796397455070505,-0.010278477765598528,-0.24695082534659143,-0.1137728178780636,-0.025686754497441747,-0.03338036839337072,0.00199982876847979,-0.028794937775078258,-0.01827044936450891,0.027942101319456705,0.05304430301086311,-0.03282803332153702,-0.00937255252238466,-0.04599784821751325,-0.2212992055784436,-0.05486609868448451,0.28961101438356296,-0.06362908393788658,0.02035294162270252,0.018802200731350912,0.04213375555873758,0.01852386700787067,-0.022365727967148117,0.017024731138807665,0.006764883903185488,-0.005925232114819138,-0.03209230458933807,-0.02755599523747461,0.3633184611294127,-0.035590250649803964,0.0029237842010256597,-0.02006585611788978,-0.0325889945958276,-0.05283558996197325,0.046064788943758955,-0.01755030661857433,0.01623161380081457,0.10232744228881245,0.002072556177644393,0.0001593852823942097,0.029615999933780605,0.0011283613573784786,-0.02429419476698588,0.05239894504687861,0.012532805139184776,0.0635268368945128,-0.031934929066663204,-0.018285600052435094,-0.03194202380578475,-0.025310726967638985,-0.02292798903777278,-0.001060940761364228,0.02900456645708224,0.004654026100356565,0.006483819866631901,-0.032479926394377634,-0.046303159090419634,0.05670130023769657,-0.00379914894976058,-0.00769429130670488,0.019174403772195654,0.04475810147377652,-0.03465052694131102,-0.034730356920252975,-0.02180480310984686,0.009273380838670964,0.0058489005237469275,0.0491986736574835,0.01853894333147543,-0.0005311761639201409,-0.022526208525670877,0.019320740434677984,0.03932384342050971,-0.0386716635627412,0.03803398789274041,0.04406362042432463,0.021646945465224388,0.02063187476496729,-0.01593511469627516,0.019649671531112106,0.030128014705779887,0.00802218604574889,-0.008084176347972018,-0.028034575631793675,-0.02153763471285141,-0.016213762625381878,-0.016691849554197,-0.01459719403054407,-0.011215004986227028,-0.05260306447987753,-0.04750116600799505,0.017372134404837595,0.020872600368680598,-0.02936387529641986,0.04825987200118731,-0.0031205316182895864,-0.042869525107491625,0.004441642437380892,0.01155045732061124,-0.013981453915310806,0.001431161323783492,-0.0504074766444042,-0.0029354331384185426,-0.013085881070667603,0.04584948500619968,-0.03326819462486974,0.011585975496223913,-0.01635455049157605,-0.0059770610255288435,0.01614925925226489,0.008138948833763359,0.011798608903260432,-0.04317863131661923,-0.026868419155549262,-0.00081207774633402,-0.01739854819510808,-0.015075308654968901,0.03911759749305223,0.06224695007216998,-0.028951868538643642,0.057707152974420424,-0.0007991996934347338,0.02504442646837322,-0.11920672787303055,-0.008836765204900073,-0.043584641233359686,-0.029369807749668145,-0.03883599120987869,0.05291891001193727,-0.023431872734654097,0.011561491696823844,-0.004454710163392388,0.008533852484752176,-0.02821755376653628,-0.013076853882557972,0.06967377255477855,-0.08413555211542224,-0.053452479625106616,-0.019596249445169567,0.01334692899460209,0.026317613879756258,0.020600602564887674,-0.0094582564003528,-0.008004741294644745,0.023107040087613752,0.00033599644573444607,-0.08026737779959041,-0.00622682359444271,-0.10535019638581647,-0.07644829913905897,-0.052001004539632086,0.02023104910257703,0.05342116007164519,0.019395048403169222,0.007951266446581397,-0.005615276172791204,-0.00990445379833686,-0.01638158902251257,-0.09077006335407359,-0.05160937416978704,-0.10516748565596498,-0.02239760585904862,-0.04548393218133673,-0.01322798477340037,-0.041196876950515916,-0.012830974513286849,-0.016084545531286295,0.008869633116209056,0.025677245093795355,-0.061528010274671134,-0.0731704180471535,0.042844423862809275,-0.03851066658417447,0.03462064633269043,-0.04201437868204937,-0.02179834351159189,-0.011907589661822465,0.020511526454262935,-0.015915877656972475,-0.008994916682260936,-0.01964013285290824,-0.03089257827783145,-0.047442137338840465,-0.0008457061218060965,0.015582439503677235,-0.0406210038776116,-0.0398373617851691,0.024155322648578115,0.017240327659814605,0.004301628665983702,-0.009400068494651833,-0.021247178210755623,-0.005202584309773638,-0.010768665336354837,-0.02390306539006079,0.007936434108598383,0.009813954744740866,-0.028438417621126585,0.0022297917975163638,-0.015038627991662005,0.007333463056872344,-0.024708451297673944,-0.0031834058344256495,0.053868127833337935,-0.040927723967076536,-0.018085650433945475,-0.004464717270093621,-0.05598914735669799,-0.0253512753282475,0.0005124793525513827,0.012027870291757089,0.005658112036313226,0.027483944802340062,0.016776953329003287,0.014484141031841945,0.011718056333985448,-0.003475765017738645,0.07537084083736581,-0.01549002459574531,-0.0065202400407269505,-0.02905622824881273,-0.03509997867046722,0.02588723839994302,0.027766458477835328,0.03628750026241737,-0.004463800222065213,-0.005888187060413724,-0.03248780324623205,0.011985913753334264,0.005555046236285077,-0.03257864134240956,0.06445412150353001,0.03648848523286049,-0.046989544625526465,0.03654686365799448,0.02289425930808205,0.026430871031833354,0.008743956308646446,0.040179573060148896,0.03187364501140454,-0.03652570471415996,-0.005978939458466813,0.05728865894409233,0.01729429209707354,0.04227417677190679,0.008691031334409344,0.04495792403185715,0.001179825458273427,0.02940612132191872,-0.016767752065321006,-0.025670197085986845,0.03359433990826957,0.01113666871826509,0.04238855222603453,0.026689322285633088,-0.001827409049745318,0.009460378800657174,-0.0187200462297255,0.025501268021599816,0.0003303549120093525,0.049962454407302674,-0.032380062749389246,-0.031078860643184835,-0.03141521437061362,-0.06016614486387925,0.04207416909325498,-0.040794551228581256,-0.025201440586747156,-0.016334182496615956,0.0005682710159274636,-0.010757097201400572,0.02799446099607574,-0.01456291384316278,0.029136072081664067,0.026278381459580436,-0.017153939687451457,-0.014331557615359484,-0.005114698337289988,0.026003959658342148,-0.024716164070648743,0.0897154579664202,0.006494324910950883,-0.02223435202771034,0.047867612982891654,-0.013412716121885469,0.019748576517225287,0.030135950466444263,0.03742529673467128,-0.005901364088362399,-0.06061197310718623,-0.04312107843792992,-0.014166912479835583,-0.06379963486996798,-0.005482915501080228,-0.002740068468751894,0.044093110652534066,-0.02065645761563861,-0.06092849956011133,-0.009088923106423855,0.007218014249613757,0.05341675499175173,0.03003924067193856,-0.0176935845850559,0.01294528951783386,-0.059261664742657795,0.03404422046059362,-0.004970861063467962,0.009174464852901715,-0.0390149940990601,0.02142521994606139,0.02637846713512567,0.053225998332603525,0.009456050807959436,-0.016832176656614187,-0.04279821287808824,0.6227557189846984,-0.03635706463687464,0.0013054133326237498,0.013259568157065978,0.0374529206724931,0.027235480521095066,-0.012805076715349275,0.0038403833416351236,0.026155765574398318,-0.0017861001731231678,-0.08903809811818125,0.3193263469588142,1.1575402619174715,0.2640362580751385,-0.04204935554020411,-0.0015381349678329952,-0.025381103595263084,-0.047785093541780815,0.04015607029231978,0.045063955697068614,-0.011130513419043855,-0.03440819503302543,-0.015064754817659223,-0.05241599087707383,0.011091818084870827,-0.02760825233164105,0.026710463776197582,0.024652024781391158,-0.019254856953718587,-0.0001036112249192604,-0.018474481689896443,-0.005336503809038326,-0.009304707186653011,0.05202922486277395,0.014004764311043475,0.014705039179272638,0.03278635688543463,0.023355775059732947,0.02561528772353223,-0.018319814163082992,-0.014838818813156292,-0.09651184913197068,-0.01948656496004907,-0.007452460577894632,0.0337032194766552,0.021146967784414238,0.01371041728693623,0.028391962357133992,0.01793630628803907,-0.033135342679527405,0.0854274782380125,0.03761242363361016,-0.00913941285040263,0.014512473315744871,-0.030778390644287664,0.062322193208596756,-0.042106915162592864,-0.007128363562656994,0.007008730624800036,-0.011211653941476144,-0.01120676290903059,-0.013781330020328563,0.007586215055312862,0.0329138763735623,0.06197885522678402,0.013756688394609223,-0.00485858946494228,0.02018998942624945,-0.03702183885272608,-0.0015341478765009359,-0.034640497933450747,0.003001510339667997,0.035235338420053094,-0.024918971435322256,-0.052700346813851565,-0.0012226738993517132,-0.04353772151136437,0.0011395589395312292,0.012879358672197735,-0.05772702455737615,0.030907441641721642,-0.025371094152726877,-0.0017126848828208177,-0.008700047710672688,0.040908339235673545,-0.01669905153958098,-0.030108864563316993,-0.041145833451185845,0.005230098013889269,0.002267415336658738,-0.06355684598792766,-0.03539577186524807,0.023786392275689905,-0.009362276532565975,0.02871988642738385,0.1936153962829605,0.33158001729271996,-0.10144336730935896,-0.0585811178301509,-0.06589971529985696,-0.01220454349464386,-0.0015345602005343152,-0.04024171491983492,-0.02886051722089301,0.012850018568320116,-0.040908941777341376,-0.021982476706471386,-0.0786412757152759,0.008986478404881077,-0.05114044908496882,-0.006964038766839107,0.028919441128010683,0.015469054136381133,0.01687591682360226,-0.0499791762417251,0.025737890048364135,0.07298970617499617,-0.0034974086951752863,-0.0499271663347726,-0.10024180389088462,0.009065942217814975,-0.07966445008639593,0.07299007672345731,0.006033992504133472,0.00482970781014437,-0.03486861760471888,0.03612105082691293,-0.07174146607382502,-0.03561079998551459,0.0015518539636251612,0.001601874085790388,-0.07843719666407184,-0.11001526630442883,0.01628902617627684,0.022772813777843494,-0.004331226262215224,-0.047028141972491506,0.006788944010730832,0.013516438081333714,-0.0033348661815805476,0.002506873043229103,0.07276343501037054,-0.009546730978730685,-0.03596347051562434,-0.08337554261149113,-0.009452744079447338,-0.011963249654122094,0.03462878214833492,-0.019077784011293158,0.018510019098069524,0.00020798025050939402,-0.040558766444224056,0.025580042344932052,-0.03253976970648674,0.012771446551436501,-0.13036959854194619,-0.07118188348580844,-0.07635053283254402,-0.01603233805963425,0.001998959000128793,0.009949767242803161,0.02572837735760422,-0.04644230735483685,-0.00105407037462054,-0.03756404527687366,-0.035947705777696216,-0.02164457446758516,0.030226232629886655,-0.021169057383479222,0.04079120317486008,0.0319878957026451,0.03405260149862456,-0.034673530449422015,0.01799944957456028,0.021546524171910747,0.02237164501922439,-0.022578295561619492,0.007265276082172304,0.024488966962203904,0.04257547371185632,-0.005320894124066326,0.01612060585148385,-0.00015613690085012225,0.03737160005907519,0.020889859823664498,0.020371544190613607,0.007185587669142778,-0.017546574461305257,0.030548718653794014,0.0313015249851688,-0.04780232515497748,0.01640317584575181,0.004555178767502594,-0.019375776216860516,-0.0010206823868339828,-0.07510949350405538,0.03873953493540657,-0.020382135129993293,-0.004709024216231424,-0.05793010516542194,-0.028058048311455402,0.04976234993188325,0.014929019688280486,0.033854609403517796,-0.010433978065018544,-0.01189455606561156,-0.0262946331403563,0.02195494828076101,0.027212816152825593,0.019632540620452398,-0.057638024342025584,-0.08739381125120461,0.00016386341505034277,0.004602763620316522,0.005474465238857524,-0.012579421941603728,-0.05279961199728995,0.005994982901753607,0.020421503085464962,-0.029521783999849165,-0.04315211337669067,-0.020509701843485998,0.012994053450063646,0.018255648152140758,-0.037598132804770125,0.02684237188941642,-0.0014660660312243992,-0.03885060780721333,-0.000882276268241623,0.0031974907734079075,0.005646606396453927,-0.031542259312365775,0.020841884003646866,0.016061177498250433,0.07958537870924935,0.016091689057053018,-0.002173611679702434,0.04383763960025748,0.0942224906530392,0.007754189310963935,-0.058618063228349,-0.04549316243219546,0.002479776325347272,-0.017088066809023236,-0.0006602928604660128,0.0028303667443229145,-0.05023882941876865,0.004530020189133719,0.00969607702942134,0.020825754785671783,0.003020773701452749,-0.11269550969535465,-0.10812993255532367,-0.03068298658465055,0.024672842134684514,-0.012746783256935618,-0.0027781300458370093,-0.0327723875985724,0.007682746563932869,-0.005658744085226028,-0.012152300311162437,0.05676868077072995,-0.0833719514759639,-0.10249573169976864,0.061683100585448784,0.09692541470774552,0.013864593690597381,-0.05950636275542531,-0.0419781428804244,-0.009421534563481958,0.04087574239557384,-0.019344306363699493,0.024651303178470356,0.01910008622511267,-0.12627858688300678,-0.10588508360018507,0.2952401675638941,-0.14607284086384398,-0.03336087780485951,0.0043197277622730144,-0.009619756994321323,-0.006270331490641817,-0.03985803158229098,-0.027041850653139396,-0.060957944772315475,-0.02191786603690273,-0.04933834469776708,-0.06838111184668882,-0.016771995705359678,-0.04011313940186871,0.026612107078293003,0.013937289271887617,0.015052651951512385,0.013059391949492514,-0.017882979836170296,-0.016029212300257223,-0.006880614923530351,-0.06303122305885986,-0.04193607278630643,-0.01987458904108845,0.01520912116329916,0.0436267278737902,-0.013336762573159999,0.028573490085021573,0.052361061595328745,0.0042632769340986395,0.024746057717918036,0.0002870550367853131,0.028753732060240747,-0.01743328637827099,0.01464114343278666,0.008325831497907084,0.002923850630115443,-0.039197663520529044,-0.021130117759732385,-0.0021429602986234838,-0.017738388359101537,-0.024967399108095693,0.047480898979224306,0.042817821234841486,0.032875073139561395,0.000523799796598122,0.007606292731721816,0.02397510229497501,0.014327484429322577,0.007093617489691392,-0.01806506290648,-0.006768208097355782,0.009385095216086147,-0.0027226637337371845,0.003026348679875735,-0.00652841491915268,0.03813474348892975,0.03528382816732189,-0.014113017227728149,-0.01764165597808224,-0.025060822956522982,0.028305870210171787,0.06508762419311322,0.017626523409429763,-0.0056417532381338896,0.012592352238499551,-0.053479542400431575,0.043839035848680846,-0.025567599112658823,0.003031211593439068,-0.03607394078271335,0.01695868409708624,0.038181917420912634,-0.028718392955128003,-0.02169993601453838,0.022881450926618196,-0.01463697148604864,-0.008606998807192026,0.05835080858726085,0.02261643621902041,-0.015165331913383467,0.0035434849275017355,0.0055869513212702775,-0.04999413677542045,-0.0049183573523286705,0.008079404890799642,0.04969392084591201,0.06762711182613294,0.009318841846915034,-0.015797284654280177,-0.03305634623646784,0.02682489265373237,-0.01599925803889583,-0.015479135052224853,-0.022179395974744602,-0.013532903035377337,-0.008446892263286985,0.015756658070332746,0.04310192798619941,0.027798942539674156,-0.01588376895170341,-0.012248748718487554,0.005445834525222814,-0.00605202062695379,-0.01111952060671155,0.048124371080492154,-0.0329543876241036,0.0901115462860772,-0.23889699758233562,-0.10709761509459866,0.06460186475726916,0.00042381656864833364,0.04527192744328702,-0.06369288447530529,0.019445173757677747,0.020749551051212293,-0.0064370656150851075,-0.01445344951730292,-0.08449937464746657,-0.004890415493872247,-0.06049605023330209,0.041211789406666366,0.06394612248787104,0.0265019443256659,0.01890877073886148,0.011311177450954654,0.03311304819644761,-0.013394139510244514,0.00932776920204968,0.023212623108346837,0.0001487552719143056,0.0104193501935785,0.011694859716315417,-0.015786349831112146,-0.011196294642614676,-0.001592039203525896,0.035737168041087855,-0.0316936217721921,0.015323922905410946,0.01616683394499427,0.0016739108254255266,-0.035526283473734745,-0.0032491617957913894,-0.04735946823468097,0.020140030277791855,0.015134995623228977,-0.05086572922593399,-0.04420250209311797,-0.010850916244829305,0.06298917890195314,0.011537976632056532,0.04629334031167257,0.02111871304309163,-0.008979895813921366,0.029864815321531565,-0.016327103087999922,-0.003329877807479757,0.04587445045857687,-0.06544718197824491,-0.021120999352345307,0.011203938648281566,0.020037136351147348,-0.0037726083078701437,0.0059565856497985434,-0.013271120184439291,0.008476862022526437,-0.013314700813009358,0.040849637849354435,-0.003451937860110735,0.05784704830486773,-0.02657863986769084,-0.002495433274212761,-0.009306492658451859,0.007336232807638665,0.012981568427639189,-0.0012544891609768392,-0.033526637663999166,0.02777268762775843,0.004301987070249273,-0.013803179888298576,-0.01484380462650796,-0.01890870523091075,-0.014803186978457313,-0.012831424756820831,0.03647948859378351,0.08027651774812418,-0.017224468026172658,0.0209726065015054,-0.04582390272349101,0.004561853767326665,-0.007813730976280334,-0.053522226311438645,-0.014170472397803715,-0.004281101710379106,0.0007852411170964478,0.034706701094834216,-0.023470657372716305,0.027453761872056795,-0.009776250686257057,-0.020116935261193777,0.023030307811810678,0.055773835807067206,-0.02031873883003421,0.0019283159355294995,-0.029389774953642922,-0.007466447834390489,0.014240026200751325,-0.04698603492044382,-0.023437226615632235,0.03663129725283192,-0.005680899436696844,0.01712515439812089,-0.04984859232913296,0.0030040999028876953,0.019078920272478043,-0.05317657519151735,0.046161015333673554,-0.03254257783316505,0.03487238174856297,0.06056372143630576,-0.05422854040830629,-0.024266882008453106,0.03431230104797072,0.0019407730749395004,0.011562391686134004,-0.006537995454632326,0.015834770663735336,0.03477960080389545,0.013240875287900883,0.05885920228975833,0.07094484713703984,0.0329415289299904,-0.027724055944124935,-0.02100046384522666,0.021089012471075547,0.006004355636122659,0.0002884803635156166,0.03956734860520355,-0.03754458039833853,0.01252931161220344,0.0006967745295320261,0.0344582832572717,0.014701131678371062,0.00905849159650444,-0.005780296567363281,0.055399127678169686,0.031224698206968195,0.013528365544357823,0.03692920956552075,0.05037694055111271,0.00881289082959231,-0.03692146709783291,0.06692810290030123,0.048654297381122785,0.0017144431326570355,-0.027791236398032697,0.0027444010808130672,-0.016545434322732783,0.0020571663227293467,-0.007658218125894187,0.04094619111127791,0.014604055383098268,0.0018513195431774934,0.0162461268785288,-0.0266121941771274,-0.00047327702536510555,-0.022037865528462368,-0.029721739106268533,-0.02912932472606204,-0.007550012436381967,-0.004073196232427368,0.009419445131055634,0.02759355471861975,-0.059445986352887094,0.005026922365533028,0.001927123461991169,0.0022314763423432406,-0.03377150799280779,-0.08570684761036915,-0.01934710223287216,0.04078767739618618,0.03654382133105562,-0.03689571962423676,0.021880793754305863,0.052768462293304695,-0.10449326298660443,-0.01268445793090858,-0.03766214751173989,-0.003867372679378525,0.06034898484716777,-0.030584079062893316,-0.07087116782053654,0.0007345781184886711,-0.0160846575285635,-0.023542212884660157,0.006856290280964105,-0.04652188472383715,0.0654239333305296,0.0395240570016691,-0.07192310839569806,0.01304699859169815,-0.03227639424283427,-0.07225619315300617,-0.012333853715765501,0.024794221669431887,0.0012775677019687991,0.007294031865365727,-0.03331885226800254,-0.0010189918320493022,0.017113368730536413,0.02015988085450361,-0.038018169285382285,0.0059148436925021905,-0.07093363040510124,-0.11214778524412033,0.030713146606591822,-0.04034013614776641,-0.01473385068985863,0.04983356459731602,0.022190579009043348,0.014689632364833503,-0.026235634327129137,-0.04024476507995015,0.000575120998229893,0.03644110464687481,-0.000620315211859189,0.00851001109587249,-0.00006416664579589373,-0.05366476717578975,-0.029643964666272154,0.005153557662032256,-0.005924102968716304,0.0033616256514738415,-0.002770749715560164,0.01601539508305027,0.06478875315125146,-0.008296478367881535,0.001748685918797497,-0.03542476556644469,0.007482485313723427,0.005830050335067291,-0.013682745929710478,-0.004216848843398601,-0.015523295579399634,0.038155825360706226,0.001426188053694501,0.04226757130139291,-0.024682508888807273,-0.03225497651607432,-0.021766696791105756,0.008394129397478889,-0.01621639971825552,0.043916508498900914,0.012979524538868883,0.02518934559183231,-0.0284160126166912,0.013715860828866257,0.011661437553179296,-0.0027447159530432914,-0.0030895953246512925,0.02665858655977513,-0.003411935268000366,-0.025098095441715356,0.0223993463150265,-0.015903877638090293,-0.0025947054597734998,0.0071030069155004665,-0.033195938073582676,-0.018089204811469268,-0.04346757679223761,-0.02203677365335371,-0.03422501257041569,-0.008804628211360922,-0.020366659595019803,0.01799451097676628,-0.021109357123613476,0.027572312932322107,0.02724382382061948,0.004406372712849622,-0.004243336078156188,-0.014621441972097428,-0.02163980481360086,0.03683434460588899,0.029799561395523137,0.022502403987293813,0.007496647056071345,-0.00045653788052673597,-0.03889612260333033,-0.0010305410476073435,-0.028215120865741253,-0.039694927169034236,-0.0075069673923031845,0.007113624013711087,0.02682806926506932,0.011466012305094211,-0.16833277622873835,-0.03578093572730639,0.04727082985730183,-0.03887094313607574,-0.017349758035012548,0.02274121697853311,0.04968566167000743,-0.028124860967115976,0.01569271114187876,0.014138166677824027,0.044355078811878126,0.040617530947396306,-0.10009626508622771,-0.061148415866809074,-0.04099946218157818,0.013865405269869081,-0.03858101848956033,-0.01849523432645679,0.039769776315206645,0.07080647148666276,-0.0026405499501814932,-0.05336284075763464,0.0566760485446834,-0.02405723193416411,-0.12204971811267,-0.008178881605978516,-0.08635395026843183,0.007176708551615021,-0.009340636792963451,-0.01210288778948318,0.01807084376699245,-0.014613952737790198,0.0016730552881317085,0.010993625055049626,-0.036416410563535104,-0.014565544237994419,-0.16714875184151548,-0.05088753434472449,0.00746008876726099,0.0035376354986561935,-0.010692817258091899,-0.02473578454063759,0.01479859812558401,0.03778540546203219,-0.014688993364125227,-0.035656654044965666,0.034931678886184016,-0.019350537781579875,-0.019638529741276448,0.0544275492339145,-0.0003106267368019361,0.023105716158565458,0.03402574130036255,-0.059759327912834434,-0.01208051362919981,-0.03754957716886481,0.01018402219247008,-0.04163823756597802,-0.009956008775565232,0.009806068114336217,-0.029868163801191908,0.0023380057371214734,0.012776814052030258,-0.027058998223543674,0.009802788729237344,-0.05227411536706006,0.011193719593890422,-0.0070131885352087,0.01793603813026162,0.01658487576682364,0.016538262750865805,-0.008541780344097138,0.019861351839026955,-0.01268607186363534,-0.013749256018546836,-0.08688718163699258,-0.021564902097131498,-0.04617930007084255,-0.002112262716363634,0.001571335949628523,0.0021572504768205777,-0.020942975000694163,-0.04065076332747663,-0.0032898755212750225,-0.014206326482382741,0.011771399450624912,-0.007231070563382581,0.02922777480382043,-0.005508930404989125,-0.014860656564778628,0.012140991788239663,-0.012438237674746663,0.012303851505285745,0.05508637809075647,-0.022514169073119865,-0.04942036344777315,-0.009428345241486127,-0.0258688588424601,0.012062017761055059,0.0020991054654517795,0.01850942379225861,-0.07005050122610552,-0.03511633725478625,-0.037084201568567544,0.012158971741156363,0.024546154779129466,0.052640870259658024,0.023654235739934956,-0.009211022515419515,0.00863747098883627,0.019010300111172516,-0.008397329238805845,-0.023029249798492153,0.012036819118885588,0.02210277607668601,-0.03567741507004492,-0.00004391612861741671,0.03421994533432378,0.01208293439538424,-0.0035537665645185242,-0.06766282984521121,0.06149928132045504,0.021903183760209784,-0.03157335375405356,0.01897867807927564,0.018099202557018988,0.02291093116997161,-0.03463877596112305,0.002821852287545088,0.01087976970778449,0.008143473985896378,-0.005620866626048994,0.029396546794249582,0.016429483058849087,-0.019799564330362434,0.02739677382023939,-0.007636427293344669,0.022727365748363437,-0.036918447121357056,-0.015965175743146178,0.05889824492404889,0.03630273173592123,-0.06869923441918974,-0.052163612995861044,0.008025057028947754,-0.06894821227617676,-0.10021622687015656,-0.029497995873275458,0.03973155458159695,0.014547248439397607,0.015287020251110811,0.027872662772981605,-0.07268408002404347,0.03474710874812724,0.006128393428037816,0.010876133149907269,0.04895293714932414,0.04636919981127093,-0.0673081890196943,-0.007723385822311493,-0.06011934436639342,0.019919915056001707,-0.042859601248880004,0.041002633029832494,-0.0017798433934325157,0.01739166376231362,-0.046439840333155104,0.04616680521299842,0.0190803432103041,0.0064898586058739285,-0.04738866078728004,-0.006397742386284084,-0.018246014324738897,-0.023990981407424058,0.08920177818023686,-0.01775441050298036,0.023696907792636033,0.01780941861115762,0.0034154348528696895,0.0283524448094013,-0.031478669720566135,-0.08127951900010162,-0.08454393917801073,-0.05064591296957259,-0.0058687508158768555,-0.04293502565393902,-0.01880701936734139,0.03479691712554831,0.021740863167631713,0.02769363638363656,0.03763211778388723,0.0006945720412767131,0.013416389050344186,0.014863545942056588,-0.034236646502792414,0.009056664327703594,-0.03594430900829612,-0.03739575071923618,-0.0024537693992023,0.031772668675665215,0.01038613171928402,-0.03607108522715127,-0.003073987273584642,-0.020038221034666456,-0.017859257676450087,0.03027566944868543,0.012661081448071916,-0.0028522605591907186,0.00825719610472482,0.011513146465759136,0.005540581717508858,0.038690349183429035,-0.005199194300325977,-0.008347305064501815,-0.0032505797516118773,-0.015464725238519616,0.019795397967178895,-0.019908852729732446,0.014305531549542746,-0.003299852531822316,0.0321893763257439,0.020198306545723337,0.046143597868251125,-0.0075437488328642605,0.016568298347398668,-0.027806541879784187,0.02392940705680512,0.01757699158836194,-0.00003764636918739148,-0.0007323323686234961,0.04706421696626689,0.011664218369479982,-0.02128697012914946,0.018664794174437453,0.05265681752832789,-0.014277323449217746,0.04038755821542783,0.04043914545444649,0.03941075813874562,0.01712968646592288,-0.010741587763378677,0.026889524240762415,0.02143002222003294,-0.012280012288054346,0.016479530737165727,-0.0035942472796216952,-0.013230063470188382,-0.008477240475836232,0.01119358539582868,-0.013685622894356115,-0.04583115719697017,-0.004962493449281434,0.0318577539424979,0.09324282355558641,0.03965832667178673,0.02582902919651968,0.00968199693505593,0.07257387252248709,-0.027999572177026567,-0.019598245641626013,0.018892730461339012,0.005843481582745909,-0.02351219495330892,-0.007284558303052759,0.03165797728448845,-0.012114329576733265,-0.0464753551239139,0.031021597338039258,-0.021557330014916304,-0.011671914236306181,0.03388484655383641,-0.03857874661609442,0.00008994813360211871,0.0036676748522438394,-0.05363267329036312,-0.10613720194003548,-0.00609824707822341,0.043053736447571586,-0.046359452922176185,-0.0375761944767643,-0.02031196181986327,-0.020010784994186556,0.015810974633428197,0.030504903513307535,0.012067170825815984,0.04375985429673538,0.01020010267783299,-0.14475438471795274,0.10129236145839594,0.03979230200052051,-0.030898590014623792,-0.002537229353549456,0.0010069060004543552,-0.0009480460272226844,-0.021262452780481556,-0.010328011834494416,0.004960142084008696,0.02132303015930757,-0.01216090881595526,-0.18150714751890093,0.022625756648330865,-0.07238756319380271,-0.0770340148354702,-0.007302747816215981,0.020865494357825504,0.04398504187750976,0.05611676751648723,-0.0006472514390069691,0.006256872677437031,0.003696197744170027,0.038101254481360265,-0.18438917746848454,0.1798237496281699,0.15041402836107068,-0.03835531856314619,-0.020642480624732694,0.03098879367557328,0.045787131395772576,0.020935159287552723,0.0026812266665400407,0.019415237502339085,0.03378599042865937,-0.03120629135506605,-0.14415669588507268,0.5170386762598582,-0.024664936629294643,0.00445719421693391,0.06195946713910777,0.0362377369958293,0.023097634257750563,0.04013870942935083,-0.0053660617609228205,-0.013603596017119812,0.013916909347687018,-0.03127607362317471,-0.11941892035447252,0.7303046575343789,-0.08173580953684931,-0.03054992317357277,-0.029489738173168613,-0.007534131066673473,-0.016544045403823492,0.028081629955987137,-0.03920632769062285,-0.004157768462317681,0.013160296172302466,-0.06893984727013713,-0.005860079644180551,-0.04465643097609569,-0.03190345893471524,-0.0725316815941581,0.0053205942494432504,-0.034895319239288104,0.00787164623255247,0.00592599921859912,-0.010736597695936264,0.024490996759162838,0.017214871971759263,0.007176498332508117,-0.024212584376934118,0.06051867937159518,0.01662788230550969,-0.05668073169378688,0.007115840729392514,-0.01989271930196541,0.020364708198083663,0.06778918193058338,-0.02581383916482417,-0.05156335403258737,-0.04002051360747335,0.0130205655001932,0.017198188653859896,-0.009821284700571618,-0.028023851767395486,-0.001966839515296743,-0.015816231442383248,-0.05706567069966392,0.024303312523522004,0.0078461068825646,0.023441015935925052,0.01138854233071415,-0.013109346371543644,-0.0006123256911524861,-0.024972495497236853,0.0045576652096120576,0.01287719414112181,0.05414273515192398,-0.014193923865838225,-0.0048390657293311615,-0.04829521530015164,0.0078078891007345675,-0.05072657924925411,-0.028296366308475963,-0.0204403908504382,0.05719969432917891,-0.02738412043720009,-0.0007774929030758783,0.05014167583350894,0.01220173309857719,-0.03326833895568287,0.03919360082027681,0.0011876327013931208,-0.00781461070845951,0.003338055743513741,-0.03958462090408345,0.01190328241257076,-0.007217809966537898,0.01628153547516708,0.0062579741153134015,-0.029737798099073745,0.00085573861433764,0.01741087552962955,0.014190568058977842,-0.02101686465274218,-0.011399891598760746,0.009419223534866763,-0.02225953913981259,0.00756950635866147,0.023086109433591913,-0.020108325565983038,0.056839774795330075,-0.026328634764740618,-0.06240480142020784,-0.04342333137566663,0.0024429906919987802,0.003327385011395469,-0.03289490203015559,-0.0111916839830709,-0.051315018559086746,0.005078368363868398,-0.003236576361311078,-0.02651894914239315,-0.10232820683226103,-0.05372985616721312,0.0746183635958945,0.018132131868735375,0.0017777221766731718,-0.03226342420956385,0.013628718767140863,0.024362240215573757,0.02746540735455196,0.020784792133404492,-0.018376743037370476,-0.05374776795733655,0.031138559852018445,-0.17540614141922162,-0.08481228940899284,-0.010059389190407922,-0.00452821406278774,-0.03748927747771032,-0.05861966515189677,-0.03353779059701344,-0.014972687494708495,0.059895903146172734,-0.034999144849548657,0.0054390638763645366,-0.039400628717016356,-0.07694234748514693,-0.08278030205226186,-0.01477769243593637,-0.02444135961843908,0.08894275143833467,-0.06482755266763839,0.009747096882375572,0.03081549185495995,0.03513009656520541,-0.04732402697687331,0.021430652270080692,-0.1959143347335438,0.007637709568627304,-0.09507566901490538,0.017313277798095716,0.03368793174519444,0.017035502596371842,0.014469067033505284,-0.030774831922622644,-0.05809817220279091,0.01651874676100026,0.011177018298115854,0.055882969617643045,-0.15445024117836068,0.04075683900765083,-0.04222484226677244,-0.017060673269170292,0.07232613948247477,-0.01792464788922871,-0.02765750375314825,0.05966115961307439,-0.004203050326023761,-0.008348504293216163,0.053252990154981784,-0.005060578935783548,0.00005636347841953624,-0.0010233412039376624,-0.0017502368789551386,-0.01082311400554498,0.021335403967180214,-0.02778815433148214,-0.01608899406316689,0.0046948981364648,-0.016821826484140535,-0.0007657068907569009,0.0037563479945704197,0.04261856598644042,0.05985452735013236,-0.047324208882446074,0.004697077880783886,-0.02030158788725309,-0.021614177857552076,-0.03995302856714574,-0.0014982091215816104,0.029934606438893212,-0.001966322132196205,-0.01452024129451971,-0.03790617405810037,0.05639258102930488,0.012792387744490286,-0.0016804641147902513,0.027184846759239618,0.029307440875643978,-0.014647840587194216,-0.02204192642926876,-0.015640049395685474,0.011645875483599577,0.0011249011772112073,-0.025121126797549735,-0.02098768902803662,0.02664907471709933,-0.0030458714692852802,-0.043407216489082794,-0.024130048808246665,-0.0248465734681383,0.004472643369860859,0.01562892472840681,0.00982776751783451,-0.0387454662921787,-0.027482792332581007,0.02142751086698058,-0.030139115017539585,-0.00834905271429899,0.00055029950092522,0.011259809638040635,-0.0336868182821866,0.01793229300768033,0.013874303911167776,-0.021648610690636703,0.043425987490939004,0.04155094911251358,-0.01159138475530106,0.013457342913847235,0.024644374236662416,-0.017996731038168755,0.054338962212569945,0.006931217344535353,-0.01679007143581217,-0.03090639047931307,-0.03662219257719244,0.010732780710214955,-0.09231823330737843,-0.026578734932509864,0.007289484838457746,0.05013421868105261,0.014902927638420936,0.0298595448272219,0.0034634377223987977,0.036356212757482846,0.01809765695737038,0.013094871045558539,0.0019782909741077677,0.08465415827173935,0.0005334758259364127,-0.019463910445727955,0.013980112710352703,0.00873942430366684,-0.01956002361548539,0.04839964022879036,0.02680994272277797,0.038700334573192496,0.001274480848936608,0.043143797515114206,0.005395350207826186,-0.02266713242946449,0.005188437647509969,-0.09223053354055787,-0.007726032357187975,-0.00474844545163867,0.1628096420068913,0.14689730094229222,0.05858132440376425,-0.033425803125445915,0.02058536652542723,0.028826479643016496,-0.009421145263694196,-0.0305425861623748,-0.005539120565734614,-0.005141935135866555,0.01607653762825925,0.060552363835431756,-0.07981426241903523,-0.03285740790978911,-0.07392253729834507,0.013646196216421698,0.061738282621800596,-0.02755372730134226,-0.08196587342560543,-0.04796659489546139,-0.011707325114077924,0.06304870936887119,-0.0031447741132488516,-0.015973790826858212,-0.08714462024037976,-0.037015143398021186,-0.034477820150267714,-0.00615945983782896,-0.0026919839923979084,-0.015827565355154515,0.051315122911470626,0.021870193367293424,-0.02429389908336571,-0.0010130965486620743,-0.021825166527874616,-0.04441843515792998,0.020397316445894077,-0.027696849030389093,0.03272709184352263,0.038879755183967066,0.06810642611322662,-0.016858278989559435,-0.018235009355595095,0.011533222925659878,-0.026977192213739714,-0.023854643198083655,0.002250418720547945,0.0000992566265068551,-0.0397489217628529,0.16728364058058912,0.13460451966345346,-0.03884247835473624,-0.08574536390949722,-0.050127798371451496,-0.02909998967457326,-0.0014730218445704573,-0.0337790346419018,0.06448316099921747,0.048846511193024224,-0.02390045022776023,0.03590860176351236,-0.01767496609225255,-0.0567015264151714,-0.009336702838508078,0.023923183393411426,0.014821474171577493,-0.007037592314887831,-0.06772914050386192,0.016666643746506567,0.03479446575977794,0.023075800693367732,-0.04194873174930638,-0.0012384394576067605,0.007618275667003697,-0.040221337238419086,-0.02359029191790015,-0.03017399379046474,0.025817537681040694,0.022723780410817847,0.008514326286646183,0.04529733913188771,-0.012521139992213316,0.026191016173852725,0.011318596282451604,-0.016784504434073807,0.01117964163194193,-0.005153006086176541,-0.02024021772469828,-0.0032459466257189207,0.02790578123581654,0.005208775581654239,-0.02340019872483146,0.0022898373555904307,-0.022678282420369296,-0.03710924638613818,0.003551734831859661,-0.019822973863475424,0.023444331608059147,0.04256608599644431,0.04960546620287005,-0.0012782798873128079,-0.007887672579711109,-0.007124212653080323,0.017411119662990946,0.00034604641659824584,0.03641184269078812,0.031738862392483164,-0.031369236001097305,-0.04674057540217118,-0.0046026197285629995,0.034837357607205854,-0.07070547739604421,-0.027628965116386916,-0.013032084001670389,0.06596006901804446,-0.029124591630219753,-0.03840630174796529,-0.03847893555173972,-0.012495292049594979,0.019509469566696715,0.044175701446336445,0.026603628618234787,-0.00036798315787116656,0.005700876734874581,0.06392555832925355,-0.05500742881271807,-0.021707016303176792,-0.016819102422637573,-0.0407354164663628,-0.0012365097891961516,-0.01907735112796688,-0.0003605031638705817,0.029948961952943574,-0.011674396017352102,-0.07291726670383178,0.013823273986300151,-0.05474685180448391,-0.0020246267827405584,0.024245216550895853,-0.011240222198940478,-0.014038010864293177,-0.004021110010780865,0.01717339602315458,0.04006344312029224,0.013826019177857701,0.05737397221882744,0.03138045194591577,0.015122804197490708,-0.03484736846380533,-0.0703692596580186,0.015587453944510993,-0.00029730591702041293,0.028351011851125596,0.0027150372688784317,-0.007252989051472812,0.0005554945498115484,0.02169377641231072,-0.05470203657832936,-0.08254358179835111,-0.0009835311755924153,-0.03995920807116694,-0.018462928564331415,0.005257365325811991,0.014009332332710992,-0.022165870468773517,-0.0013059534285877652,-0.023290276206045124,0.011529787059552998,-0.051153991264897856,-0.02192255083248464,-0.10136009241744848,0.0016222517618248652,-0.02322156900892467,0.015477004969138168,0.01295120274470072,-0.010372382411354693,-0.044105715862459954,0.03134446185474579,0.01001070602455375,-0.03790169643614152,-0.000761804736014411,-0.020560506145532384,-0.05443283396363292,-0.035674224173708295,0.004026366638953714,0.02548797331849082,0.022725383052795672,0.0028307980776902655,0.009736070040787689,-0.01707567923293576,0.004563088481647988,0.008429590444185434,-0.0008061066074131676,0.056857215365765,-0.03268113865334947,0.02675686284000672,0.007783321476879303,0.017633578652895693,-0.01904938829896625,-0.04104497364377233,0.006185944652383382,0.004475131911598866,-0.004330956393635115,-0.017275630603640253,0.023830419775041054,-0.004106988467951289,-0.009749073813379692,-0.0334638779790456,-0.03652432832709471,-0.015981990503164557,-0.008264752251456852,-0.011727216081032889,-0.013469792713329242,0.0031284820920922567,0.024032129086607575,-0.02769231864490873,-0.047279042486098224,0.009952192067797534,0.06243560798776722,-0.03684665888116431,0.004119298077669363,-0.06777584516567903,0.0038541218261073664,0.037083896948057755,0.01878607480355908,-0.030363611690753762,-0.017441559314320693,0.002993900427901208,0.0051914643793124935,-0.03945420078996436,-0.04632067806621915,-0.013809538278124742,-0.015499686209355908,0.04922075481873811,0.01572256429339392,-0.0416252587449084,-0.03312831277849789,-0.07387777549488253,-0.013360682877583466,0.04681944356849221,-0.00026103926096845607,0.025363689174527873,0.011817559335649697,-0.0015125304198439031,0.00723318691336988,-0.011923978486475197,-0.04427923710463352,0.017877630729319124,0.004223239045787546,-0.0069794315430518295,-0.012982113786008652,-0.013567720836195485,-0.005307294951333284,-0.022709125851693605,-0.013224275611264385,0.01901606134967969,0.026116780721228822,0.05102853424597843,-0.004912569833059764,0.011929660286728577,-0.012766551873506508,0.0017134331521396905,0.0059581598129069555,-0.012823023684264766,0.003421758628859315,-0.04613626251058777,0.21345224784538008,-0.32676781009860667,-0.23663974882666616,-0.06915131548182597,0.01952784838250278,-0.029726949059580586,-0.02922728846674304,0.014897606554179323,0.022800943893829674,-0.038200477452240984,-0.011272446406461384,-0.03435969757778251,0.025512503826375255,0.03366971367334636,-0.01859430035250034,-0.0041925954739017255,-0.01118231056343396,0.010026314280905252,-0.06952652894070704,0.04982638881181768,-0.004447961996954483,-0.03703849197504706,0.012226564928321453,-0.011784729357192623,0.005448475864230165,-0.1054219973507236,-0.012180851003620003,0.023277136301836747,-0.023595891074051484,-0.004277207287896911,-0.024859310042954243,0.019439551596235113,0.024392921793697248,-0.060024889418405857,0.01713593463751352,0.01627879298798341,0.01825807028028255,-0.09637481313687464,-0.04164322391879086,0.030108665732438242,-0.047008670150151394,-0.037648383542396004,0.028353861935697174,0.016725895739030886,0.015374424028252226,-0.031609096688710495,-0.07835512242696428,0.010958420375882238,-0.026740070952748683,0.023319335410965654,-0.04385954709680431,-0.01010002620214941,0.06048339577898717,0.025232796868262967,-0.021220158951625715,-0.007042770678603406,0.048003879145567245,0.03008756705849218,0.009156943954021649,-0.07454783694477207,-0.03975357049017624,-0.0025143018171151434,-0.05372387043444349,0.024064858254028335,-0.02153274307872554,0.010886569817152426,0.0043973460532883086,0.030206905779044082,-0.003107670472359239,0.014760017983149456,-0.00022743594326863346,-0.021743941528939572,-0.023999926784400993,0.03373208412581214,0.006328141481881095,0.013076953723550375,-0.06778388666016286,-0.0012684691809216905,0.004658983181528265,-0.0016953976733870058,0.02763385741768566,0.007786271930869728,0.017614374641214275,-0.04231036937403553,-0.06790999456816094,-0.026991431046986526,-0.012482775133575525,0.0017369272854568677,-0.01247328042187238,-0.046806865558190705,-0.0073932580160081885,-0.038903720573729594,0.021203572750713252,-0.020623569229965135,-0.004035659069155444,0.006212666891679377,0.03328798607429396,-0.01037741557282496,-0.013707820556171802,-0.03198707333590483,-0.012252269767877725,-0.047346558246163996,0.02173658189351406,-0.039577143263738776,-0.029898100312641843,0.03099807957344997,-0.0025302685002500094,-0.03935629578132211,0.020296439753959793,0.01870417890864305,0.008611895523349025,-0.005178863097625477,-0.014560446134181136,0.01758476472807696,0.009146906539464565,0.0653276278200178,0.020903783650224873,0.013944095783210906,0.011407573302539695,0.01065414572849455,-0.04323493301373617,-0.030778539947809238,-0.019686547155394897,-0.011895632422709239,-0.009536509309061723,0.05165732560419453,-0.013692607290517514,-0.0022190020432572384,0.024123300772161252,0.036548474402279346,-0.03984909499462348,-0.03452460617654528,-0.013481064375533286,0.02553095657194359,0.008501439154641587,-0.07925506810597649,-0.025282553266815243,0.019878730432054795,-0.017287374473139345,0.012947652251445887,-0.03792637927356677,-0.028809454817125397,-0.03553462791563793,-0.041062544546222615,0.08415131045220273,-0.01637990843699655,0.04717203153482402,-0.019501906274830998,-0.013347219941665453,0.03369037734882594,0.04139732755984978,-0.029308953880938966,-0.005391695056233023,-0.005913829599243877,-0.00009765383107375995,-0.06344391027698942,0.0822940656363368,0.014028981555690307,0.005110523297137508,-0.006058600446927401,-0.04662775822779131,0.04066654711225752,-0.031218625613111485,-0.013057992648831493,-0.014045436196383944,-0.03594769179710412,0.0136770837943616,-0.09182754192784298,0.016200654316046156,-0.165913641708209,-0.0980527642222749,-0.056047943866946406,-0.008722945053587205,0.0027767113685399723,0.027925670424848895,0.040177367200851126,-0.029919005047800463,0.026691251386651575,-0.041429722598761584,-0.050392660535290526,0.08847503387715354,-0.06101017243974581,-0.09472464552932376,-0.06913521860136065,0.006533692995681848,-0.007317677416308168,0.034115495964967824,-0.04748993417199684,0.006834183488044408,-0.013925437254247367,-0.057783475189581913,-0.16025662183079764,2.543200878640343,-0.2152153339188296,-0.13464226807313098,-0.024721033817802232,0.04006398114617275,0.05673131348435183,0.001817997399384039,0.013395746732920674,-0.013415641013266791,-0.004132911314035379,-0.06733088668715977,-0.08153212613798705,0.13252067981624815,-0.05269724334650872,0.006375453979267995,0.04526168278360099,0.012136660765256458,0.00035825609138178934,-0.05422486439720313,-0.0587149377806534,0.058519480836703656,-0.00224930627336874,-0.051378464772577286,0.05458802928037091,-0.02212442374289176,-0.00972409216923888,0.04511017283625038,-0.0017139618000248588,0.0013354074666499635,-0.023525846509971974,-0.04923049863260009,-0.028717382523028634,0.03284667897706686,-0.003591522360480317,-0.00018969138377130542,0.04425739628929712,0.011796972117693719,0.03190375752799885,0.005096613189891852,0.004085474700469475,-0.03711061194372786,-0.01155867007919994,0.02720582751642207,0.013907536987212959,0.044456676504019445,-0.04985591536694208,0.000370107324532097,0.02617276616411134,0.000016001038127708186,-0.028809960296469726,-0.00453724410220367,-0.0014880582380780453,0.09657658494710349,-0.002567274471996616,-0.02364901047919865,0.03824025957098586,0.026022564862243417,-0.06955217880842533,0.03977219046658712,-0.033710508694445314,0.059914205805803374,0.030105806827165342,0.0819032766316341,-0.004384361321115925,-0.011617722187476484,-0.02382695533591011,-0.009008256483887622,-0.007566319940310558,-0.0029432942604949914,-0.010957689108413429,0.0021992716970287707,-0.010156791005625812,-0.0131088052780647,-0.036041427883240405,0.048380597606900035,0.03304245762414074,0.03243632093260858,-0.025596809732907053,0.043397577468673273,-0.016944374406755176,-0.00743104486271167,-0.02960292248294306,0.0016688539212729617,0.06360216316431556,0.03965621889757468,0.03950598148459676,-0.06229529067613152,-0.0013792659417913092,-0.027373295572079778,-0.03199868842727335,0.01920821896556219,0.01579886931683623,0.05022116502570441,-0.02578698531921562,-0.029799530112440135,-0.02578691705241951,-0.22341577869805662,-0.3177532510003187,0.02456650554514369,-0.09442069797014246,-0.03261474168138184,0.07310256894084573,0.034298967806660675,-0.0038228444084319134,0.01211052570814457,0.002026315313699245,0.027782446525586025,-0.0006755751095047483,-0.023987293858669254,0.03554760465828803,-0.051941937893355446,-0.030079404278975593,0.029276571835033453,-0.06663117772169982,-0.009389126548972986,-0.0019469189320444685,-0.039363987571060986,0.0010623144803325391,-0.0018761183413518712,-0.043862091787829544,-0.0710315435117884,0.019170904997876926,-0.026856433366856863,0.006533176263141055,-0.016247002239361468,-0.03172198263736902,0.04069074702029213,-0.0073558556589177005,-0.032014848763154254,-0.02044649431168523,-0.002653711626081739,0.0057999221549873085,-0.03949507071452833,-0.020518345123675612,-0.014060006492494625,-0.05525754357830061,0.005851854392952508,0.029161366448475043,0.033772298529562754,0.025981444607060096,0.008251138199013732,0.006462297779038183,-0.009563061793211113,-0.027276362402214392,-0.002314712966218199,0.015029984967474812,-0.05163925138992488,-0.054061134309165614,-0.07673898157798403,0.023450809359481777,0.008255319367253964,-0.0021911174697392573,-0.017588982908294228,0.009896728229641627,-0.029043966381997587,-0.013908035293438202,-0.05746564374282359,0.06084674335564002,0.014118918324699737,-0.0024664863505644546,-0.029002757006216427,-0.024545250002804112,-0.012114472954754596,0.035575066759197624,0.030969764860321217,-0.0495833500283859,0.011042070079077693,0.008569668845445298,0.017304264487470175,-0.02205749936166514,0.023585191882465006,-0.008001870394196838,-0.002550815973217033,-0.06858257937758742,-0.022492021948860436,-0.029768613044584506,-0.02036103379116328,-0.035647178830534906,-0.022698269357774636,-0.006912705928110033,0.049768135156846034,-0.020881661358836113,-0.006977778735748844,0.014256968747355787,-0.001322009420120961,0.015748747736457604,0.011751845747548777,-0.03842846518671089,0.0015582124551158946,-0.011289119592206536,-0.04197365637094373,0.05921106224701719,0.022579699334326533,-0.03868042105207122,0.00823480990661219,-0.04064119818719367,0.011987727520276378,0.020539269765376112,0.003950943791266437,-0.027838554627732808,0.042575191597165885,0.031641869311202796,0.05358378202886722,0.0025165332499536967,-0.0214146474747068,-0.03072279310931748,-0.014800395351427145,-0.008014756869894427,0.0218072832767264,-0.008208301290094283,0.015270217839454201,-0.0025203010989771693,-0.0069673049606043674,0.02618810879248431,0.007975982784947008,0.0172101720279508,-0.00535714618140187,0.010148189782891705,-0.025260498721675406,-0.02985788768145679,0.014749134793560341,-0.022581907903846316,-0.006804856264670795,0.002974142805009142,0.00547149052639817,0.03864641348091807,-0.007510131356183363,-0.03894650265004842,-0.008376067454504608,-0.0020897475203297115,-0.008301507456995637,0.03313721486507191,-0.02733013505310139,0.04355093879416522,0.052885192464426044,0.0392498853884532,-0.0013327214305687764,-0.04634567235564377,-0.02500597394694549,-0.05041376158016666,-0.026012081753026463,-0.000898856267639544,0.003321527698897641,-0.016619595644866075,-0.02440994662448823,0.01343341613120373,-0.005862754341920731,0.041307941191980654,0.02967514659905599,0.019905626525950956,0.03952217114064267,0.017734019841534606,-0.03426247809821599,-0.012902120530279112,-0.04855574274302985,-0.009597991453857625,-0.012650541690159417,0.030402885889591304,0.0076861404725909015,-0.03532212886749809,-0.008408300560436552,0.02705662727184082,0.020478353193926813,-0.027960489282022275,0.07721335784079245,-0.005688754712032818,-0.19283206256337185,-0.01005598302791727,0.008778391358717582,-0.02993474745744054,0.04315515693621584,-0.03222130158306672,0.012759738867442867,-0.023788023426554006,-0.01091081189718776,0.03664462524265633,-0.11964517860907722,-0.07169894908871821,-0.13473501375605926,-0.068092224156339,-0.003998493753775176,-0.06735875915834384,-0.03305598299355762,-0.0005138485088908594,-0.0001501625031098215,0.0706772203498084,-0.00943391261541487,0.013413626514796193,-0.26851224819070985,0.015410486448560797,-0.07612988717470857,-0.018119378552128765,0.02827450099318123,0.004868690848353448,-0.012249096019375565,-0.02839601627543867,0.013231510355004559,0.027890638207641753,-0.001005900501627479,0.001401332847380227,-0.009425791271583472,-0.001510352388367575,-0.09282582415548922,-0.015904652531520312,-0.03476605934153156,-0.0015423135721201581,-0.0008464182071646625,0.01598760617200929,0.019167209899712104,-0.047008681898765774,-0.06887167001801461,0.021104056251389783,-0.013310558096073715,-0.03118127927891398,0.008292811734067257,-0.014916577429539436,-0.022822250846380707,0.0026566166953461722,0.017326557284275335,-0.06282608633496439,0.003234219388853681,0.05356807214726919,0.005992026832123704,-0.061892428880538766,0.010501964201659365,0.016442321998263433,-0.0159536133571897,0.00610709977413191,0.023171098936562162,0.014047099317950066,-0.014835069042934834,0.04733501884281718,0.031946698047221334,-0.02039938705741682,-0.01767443615682907,-0.03456551949541243,0.003322765520484891,-0.018964752048657208,0.018210916648910374,0.05811706493923611,-0.002404543046951921,0.04010557980012717,-0.03935270583463873,0.045573846286989295,0.04051340001748039,-0.0334062543675708,-0.001000514156239796,0.0019812975922489846,0.022741344472115295,-0.009491588871129844,0.0233103483895547,0.028394881665254352,0.04414480050969027,0.05182260275193514,-0.022462905764040964,0.004039969506998855,0.012880708011139228,0.028263340460238602,0.01842362341292525,-0.028852061789831164,-0.049707541814796835,-0.061150549804476664,-0.013696822854464321,0.023958738914882552,-0.018303578118293407,-0.01476287753570409,0.006616192261280457,-0.0222372608243766,-0.030708978430901868,0.0757406280248813,-0.001964989285234012,-0.023561707024228815,0.004128908673845641,0.013094462530683616,-0.02382772762719637,-0.01406363749531422,0.02029919215715602,0.04190697992528894,-0.012520446525114463,-0.03436234054709763,-0.05881895810396439,-0.03155036888841863,-0.018652497904699302,-0.02685706610230445,0.03851933711808137,-0.004866930090081023,0.04717603543695463,-0.030415601231520144,-0.035305562858236356,-0.02226299949337456,-0.02526696099971944,0.049673736082618804,-0.022004527515546924,-0.016042936185705337,-0.005743437445986832,-0.03410428872685429,-0.0014632275712301607,-0.09447710968309836,-0.011775441522061721,-0.021758422814278186,-0.05021666830049806,0.04323090500620249,-0.005840796214940949,-0.018092766283545034,-0.05943235434823306,0.04222614493597753,-0.015638165199341882,-0.004578301966906191,0.29988272241124336,0.04653487238840186,-0.015234683486331214,-0.04579297831310533,-0.014014933562996728,-0.03203145252466312,0.014773251407697665,-0.05598774941272644,0.09265776464005897,0.0007083906113724848,-0.006479652628510061,-0.018086417442434482,-0.0626411314456882,-0.09146218770250368,-0.06355304309821286,-0.037732540780030834,0.013485140816809843,0.01811271126104363,-0.003194633971932976,-0.005951675539258369,0.011297783637032346,0.0399821357622657,-0.019666158752012677,-0.034955396387976276,0.007473930248392228,-0.2246649615513528,-0.053012945650267804,-0.07242919804715432,-0.0423731598620909,-0.018396909850581854,-0.012070056864785317,0.0184901246939215,0.007242359872072302,0.0067473392682920455,-0.02196112846110074,0.03339163909282252,-0.028022744047919046,-0.05193996157094094,0.025515806010277465,-0.0019960545594328695,-0.005619166877848925,-0.03813607583122708,0.03640628716988282,0.004816814133906275,0.006256791059531031,0.010776378541759122,-0.0528123755559961,0.03296533785123755,0.018108817109383914,0.018415084724768688,-0.08910862577676458,-0.018791434465730218,0.042232689674263954,-0.03243146386068433,-0.005899091672033845,0.023140010986563233,0.007632319378893545,-0.011766684204619791,0.04535962631591092,-0.01723055563198681,0.00622838731795804,-0.03270899745151655,0.024640926412709003,-0.03781566142419266,-0.004964041893333861,0.012940402267001976,-0.0278851750245675,-0.022631820021836536,0.012711577897496445,-0.037723253572066635,-0.021555185317234823,-0.04624407174370298,0.01907897474621428,0.011532854401015598,-0.03348357128383664,-0.03697881337473565,-0.04061529092536332,0.001102141226814451,-0.002252399187415765,0.021848772150563914,0.02091119132005058,0.038536304338869114,-0.004532262371757826,-0.011680363051869081,0.020673912884575728,-0.00762267862617158,0.04139602014879282,0.0011559944080859433,-0.001708185881379377,0.0006673569638318208,-0.008697404036431424,-0.01846991854887106,-0.004146669228480609,0.006567389831808159,0.0017375592543199337,-0.03312099998237455,0.008154429072840612,0.019751390573388747,0.02115771742750682,-0.036257229506980064,0.0063793327925565895,0.014392401696868408,-0.0028950684197787432,-0.01809000429296694,-0.06074018940999149,-0.017621972042346425,-0.0001799665789188888,0.0008835476283541796,0.02558169587743407,0.08097791866909593,-0.03706443399204473,-0.0397054983964507,0.0022740385829094377,0.0031787291621227184,0.015141461304232561,-0.011858360746144854,-0.015692161588426366,-0.033784770412458295,0.01572386627745631,0.005114546879045973,0.01718304364565722,0.04464331143883885,0.01496819346411812,0.025881598277710364,0.009146451153955711,-0.013111145435198673,-0.016854448468655622,0.005313554448876328,0.02184790687021481,0.010739160662756814,0.0065753391730901676,0.03146572907159477,-0.057420749628968565,-0.031071121241144525,-0.07442746266665026,-0.01621579579905181,-0.034506644016441504,-0.040951500681979405,0.0053911098222647865,0.006547892006702151,0.005715546271651202,-0.006303248037693938,-0.00860984953311235,0.08243911901252034,0.03589058840181221,-0.0008139148211565987,-0.006326960140262996,0.016235689742407435,0.015611380054177726,-0.06289203487377196,-0.013708739669062445,-0.04873131184056133,0.011018841568989506,-0.03759265592317363,0.02966262838368353,-0.005655946456222157,-0.0361851602216294,0.012113454780811647,0.014431840248321495,0.07486043864044882,0.08399855516144425,0.005493257299223164,-0.0036978408177575023,-0.04043610898717985,-0.03536409168744363,0.03528567666584934,-0.018518281826607356,-0.005387533233033481,0.02945473639777069,-0.02631014111911476,-0.04122533177026378,-0.02014599934372424,0.00030960927091778996,-0.010745366839965348,0.021157345753197186,-0.0068331903688171325,0.007473128999862942,-0.023272103315103092,-0.027896462387263732,-0.02521609427525029,0.00026512311403216883,-0.11429928629798877,0.019675467770598167,-0.012548471295717522,0.018176897748287422,0.037079514811263654,-0.00405316335592812,-0.06746637304488033,0.04283335170469233,0.015842942857350974,-0.06921328796925932,-0.034698800721295976,-0.011499335888686082,-0.1721742710971996,-0.20703863523713156,-0.005438444776575066,-0.02102270039162398,0.01884772146764826,-0.0041563663885609455,-0.046274692183875636,0.04589537101604362,-0.009470463335534453,-0.05066880922941921,-0.025722667495802782,0.03209621530860355,-0.017254158217766814,-0.029407923059993228,0.004145860136161176,0.008076419948916174,0.026867412178219,0.00420921380316134,0.009074585697077222,-0.023000834885518677,0.0018178531948381206,-0.03172791877461101,0.07400033516841001,-0.03567285289385476,0.022535338020345665,-0.05594589122742537,0.023020750271117833,-0.019270165207775514,-0.04149233363457069,-0.014866702021614666,0.01719885230254988,-0.013182926955395908,0.004970850291869838,-0.0049062809674206695,-0.0274142543824382,0.05891832163394109,-0.004825144207184348,0.021257282968321696,0.009593396475584047,-0.03329674566122586,0.0019580303493706066,-0.008337750274937623,0.009634473445398263,-0.008866768446378645,0.041932760711513604,0.012770897884317838,-0.002254535903125403,-0.007381320302813218,0.025565142810288016,-0.007665323349000453,0.04911954313502178,-0.027648241938077127,-0.011728079257799043,-0.018703671368075905,0.022134721545409367,0.03003869731830241,0.007435476554218989,-0.015205920875383944,-0.030214204820846524,-0.054960694133491646,-0.001473928208237527,0.020223678190345613,-0.0028306472430075767,0.03763314676133572,-0.0010112505935068578,0.010811347988866602,-0.0739949424898066,0.028116610421189,0.03511106032386321,-0.03000369984277079,0.008360737131075966,0.023653484000199888,0.050455551819531944,0.04814646518641336,-0.03485040249936639,0.046771573645461174,0.011482039420607932,-0.005282815523973265,0.010302018851537455,0.03789955505127756,0.04008300431074364,-0.01648748633462199,0.05638080598667708,-0.027858127325370137,-0.1533404386636043,-0.09706002321804827,-0.0074331181771970295,-0.05185550751183576,-0.01489065543940324,-0.017951672409346885,0.05804202099495774,-0.03846983872021867,-0.06573429618141537,-0.07769791115536327,0.012896911832281172,0.02703011996227252,-0.09086421678329702,-0.031460208890882316,-0.008886372064124957,-0.010359612073230835,0.04407861743320067,-0.021352193837613224,-0.02018293949013079,-0.04042774110407169,-0.0006512819012279133,0.022410738709099615,0.037191073232982985,-0.0725999558139746,-0.005538872971661878,-0.0007785466942734286,0.0270033847785688,-0.036044220656648425,0.008731478930649706,-0.00041445964277139074,0.02229804846792663,-0.013241202902922047,-0.02151696110001355,0.01898203031888737,-0.016865965872400843,-0.06628028712909251,-0.06856601198510442,-0.045819610534929285,0.005753399504368422,-0.04017404697179013,0.03769439191413053,-0.04540467896146471,-0.03903387721020356,-0.010698745544600104,0.04876341239562501,-0.05134977640031118,0.0002603825729192472,0.0027565344919172055,-0.037458596369283295,0.01407056855659689,-0.0022101698611482297,0.09782388387670565,-0.036236463680301194,-0.05277872144630235,-0.011313602254706217,-0.09314869739226034,-0.01329485291288721,-0.00927262549323702,-0.02023562209893596,0.017703540116229464,0.07348320806978469,-0.10667938136847599,0.023101820260117388,-0.018293256853408324,-0.011617616596003893,-0.0014223995108090359,0.011374178549897473,-0.0469701013950961,0.027472379950603584,-0.059284388144972035,-0.04051206522198323,-0.0028822084874826665,-0.0016669497329211253,0.0026032659385290453,-0.044086637403179064,0.036963638128390645,0.07392187038858224,-0.016115197716629014,