{"cnn":{"conv_filters":16,"filter_size":5,"output_size":26,"conv_weights":{"v":1,"dim":[16,5,5],"data":[0.01963718075096412,0.03760057901610025,0.07426780915135399,-0.06372471156702232,-0.18787115708915805,-0.06092154987189813,0.05484973933114416,0.4175938618165086,-0.3705352456354427,-0.6819019456072234,0.516708162000043,0.010207502401323908,-0.11567917908010324,-0.17930378191641363,0.0048889193753175065,-0.2272019452663649,-0.2810312364833028,0.006365732350419712,-0.1991000960965618,0.19974062095292566,0.21586229008328742,-0.0027862147387254987,0.003630182492947037,-0.5805030830637412,-0.15898278734290108,-0.0554754065826822,0.15449092582512644,-0.17876593001580493,-0.03342100798631684,0.08265040714791522,-0.035014866925995966,0.15114399291480007,0.3006481857475248,0.570883932572023,0.07959830443616728,-0.34052241080388274,0.050936103404185744,-0.06084426645686665,-0.4190820234533122,-0.07523797153197603,0.3198206077390965,0.159969034058974,-0.037371027242857305,-0.5012330119670775,-0.4175387476782648,-0.11649150909915766,-0.007098524195700549,0.22901872420816718,0.4592266916636816,0.03350317596346926,0.17885125611967034,0.21175045023168015,0.11159370619444212,-0.2343537983133568,-0.04872613935706742,-0.1005940883032951,-0.26321060267309376,-0.3490562752616471,0.11523631842909965,-0.023082781295566297,0.3106824759489659,-0.37457527382078004,-0.04524975988502792,0.021247377678792014,-0.26815905285280794,-0.24338498840218267,-0.32118898281672387,0.03188128059640165,0.16209105090390002,-0.269493048695693,-0.01936927223179635,0.04871245101345761,0.4631056142562483,0.07703565387928794,-0.01342813854563447,-0.03252300819021899,0.3934221504633188,-0.3092338455738334,-0.007176705479897408,0.23592651566885015,-0.15000162288088822,-0.17797443615685457,-0.18277955792832642,0.2611072812191781,0.3063569138537994,0.045956665555985654,-0.38808671527950167,-0.10114230112179386,0.11405757906754674,0.1297769822271479,-0.10810554406832583,0.5340175846752232,0.09752569731403989,0.15111549465651172,0.26518464349059134,-0.17165109046187252,-0.3075434638377403,0.47883340799542295,0.2789405431509549,-0.1307214735055143,-0.11433365089794825,-0.29438670600372474,0.4299391851608059,0.29815050927477194,-0.04938014873419788,-0.42167582695109435,0.5882596625554486,-0.35296361000934445,-0.07201349961259955,-0.04470527615088689,0.1521001969254706,0.08843927297271273,-0.2784872113247827,0.09925640642746503,-0.05181276797130806,0.3286205390542218,0.025672159770866166,0.2211491271690197,-0.46007315347093924,0.5748430908843724,-0.3006668523087292,0.5289687838979407,0.4267675088448189,-0.32814606005934094,0.6374002133598735,0.29819927697600923,-0.08237507231781012,-0.014118963574593335,-0.3175961833012628,0.13536223010362586,0.0521877681451261,-0.22077419788748257,-0.11783995735762826,-0.022302109747605516,0.5499840599823774,-0.4129754066359444,-0.16133628487127324,-0.6129325158278234,0.011165199380043555,-0.49871075199624443,-0.21658157310135667,0.18625252812336549,-0.16910306866230862,-0.20415489498551417,-0.34338015582536763,0.16261228098585578,-0.04497316401351366,-0.10919132097789311,0.07216934612427486,0.08746271326426615,-0.0674170721967597,0.17497116578107183,-0.007345786896028755,-0.1389935302185124,-0.5010628067954415,0.08485389593509565,-0.31398812315561947,0.024019112602542893,0.197138683538875,0.6175084958050823,-0.027687632099119105,-0.05288961042335665,-0.43810314710541476,0.1975572087153201,-0.19421865349748857,-0.7239269395741453,0.2808977237648534,-0.13408028777887704,-0.32768917214524057,-0.2605494273668878,0.3601360102752098,0.3656700063961967,-0.028782297089279516,-0.08378994014123929,0.3849982268846349,0.09149387838490008,0.00007828751160030413,-0.27675944685846526,-0.002920835026633984,0.2420696279436465,0.19581797392437883,0.02710893760578552,0.28310865984597594,-0.34030002903831125,-0.4288067860020412,-0.6366157187644118,0.14976428205797757,-0.17030807850145827,0.211871183796692,-0.11070861173029055,0.1360979294828159,0.2483555128840401,0.3419519475242816,0.11246973967767533,0.2815264316425215,0.10203050745140778,-0.255103609359457,-0.4524441755782154,0.1318868841958623,0.331230247401836,-0.2970395086243565,-0.02669221448792657,-0.029101429878184152,0.21761405123913868,0.13326693528517655,-0.15018101002800846,-0.1352779827595388,-0.6190680806040053,0.054159588297040234,0.2442542309011318,0.060983409242578654,-0.1617172423121922,0.5059076980611016,0.2759870015801608,0.1679885028433251,-0.10096995476295502,-0.3966489994883746,-0.4213749848426209,0.3681666141057718,0.2649590476955813,0.08869961415592431,0.229910861724539,0.4990224639817462,-0.23816031896960407,0.03483771525222025,0.269084689738629,-0.18163669602732474,-0.08156911734283331,-0.12740648283739575,0.05968673672866398,-0.06726863564121893,-0.18300766840556204,0.018079594874791164,-0.43230419214391075,0.025984140407857348,0.0486200936246115,-0.10626293145905832,0.3783657637459401,0.028462853728021032,0.1679145881223245,-0.03257747479642023,0.16579834026042836,0.35609964049059684,-0.052603177236755456,0.055274361661449556,0.15928804868916877,0.5946679423774714,-0.3740187609428324,-0.31532312802635337,-0.29126763629909175,-0.16099961066336696,0.11314660553675061,0.2886223296228129,0.4156460954788082,-0.17523058527444071,-0.16955472123335247,-0.011114437683916189,0.08551394006832559,-0.18850590794901845,0.2882916174679038,-0.5714686696596861,0.2384656751709441,-0.03256854952189554,-0.16051206289246184,0.5322194392188142,0.386432357814217,-0.2656118525231371,0.3926888628468939,-0.3212540331724766,-0.18322153230973107,0.19540733032042437,0.32913273625662276,-0.44899882460054164,-0.22940757001430792,-0.011820509884249795,0.16478404778887257,0.13137899147592824,-0.22542889963313917,0.0306097806734972,0.27763278336615793,0.29476327308240796,0.211518702732446,0.38186707491062993,-0.14705702182075334,0.22774102270041743,-0.5731481337367624,-0.21375030646930263,-0.10374395449612507,-0.26865316315770954,0.17430157105334992,0.4331973553806326,-0.8097105701688936,0.13193634526862738,0.1888837852467736,-0.05623649490114241,0.5625881486007425,-0.21986385691811322,0.03463945693839664,0.16861478668333432,0.19550233238846654,0.034292494676040855,-0.12563470545313724,-0.03236413595336636,0.08444116603823083,0.26591654598237263,0.0030022537493626386,0.2973581661812949,-0.22442047611155347,0.6255190395725213,0.027663636451282454,-0.04098758978187647,-0.0887942667330947,0.2846101739495593,0.09953376822335429,-0.7152138920409378,0.04987277036697282,-0.178013615903197,-0.05783542710243006,-0.4036909309285841,-0.652894035910355,-0.19098354602119388,-0.08240655272722028,-0.0413055791029557,0.027958746214926767,0.0031042864635895395,0.053699795791075866,0.4792298229911962,0.1709127807890609,0.4161362059388503,0.3525285621715253,0.29665725667285864,0.3756283470334655,-0.5113450370413636,-0.249315073786748,0.4937902298388071,-0.0054721698628397,-0.4950169615608045,-0.04099898279479484,0.09022518025573555,-0.685563321992592,-0.16398196188380113,-0.11572743572067375,-0.3105118681101523,-0.07800544838098575,0.3606794855020363,-0.08626412094473274,-0.4236568398790591,0.07955271135663032,-0.04319963999622776,-0.26650453497093896,-0.30272008918760607,-0.09252520265168168,0.5586823845959792,-0.1447882239726137,0.3213214539791087,-0.2069889067389304,-0.20671642870827978,0.13147987925935745,-0.43728427331839675,0.7371032249271756,-0.2943477104394101,-0.0003934862584364049,-0.20044819990335724,-0.06229042009154357,0.6261040099157886,-0.3888453628861226,-0.34006053990117985,-0.27991133455700135,0.36257856927448323,-0.40324229153743374,0.18485462284936444,-0.06918171251802092,0.44269444467752533,0.12058409505122446,-0.10994450237825877,0.009864320815896995,-0.2708144453754107,-0.07249938986349955,-0.6299587840165168,-0.6024426576469035,0.021801755755471733,0.2759784915056252,0.3196277558107179,0.026923296289921763,0.5149913243623058,-0.1386473542736355,-0.2869954244441492,0.49072307252582575,-0.4982988996382205,0.11935690311789278,-0.04100758756164606,0.3944114408152982,-0.29612549212841804,0.06000289016665461,-0.10840754340605321,-0.08843059804159613,-0.010023902928619089,-0.5066434595172571,0.38032146044185106,0.09290440376348533]},"conv_bias":{"v":1,"dim":[16],"data":[-0.813940771238803,-1.321425174033367,-0.7142902769826017,-2.0061543232376646,-2.1031961352290094,-0.605563129473845,-0.9901510300819224,-1.2564719688904722,-1.759746298034641,-1.300330586219068,-1.4040056657922124,-1.5661967370829828,-1.0544464453619318,-1.7840662661551212,-1.8664222747997614,-0.9622871149532363]},"fc_weights":{"v":1,"dim":[26,2304],"data":[0.06033248005651479,-0.03539628466447527,0.01748091639862524,0.003319606895690507,0.006470785905182189,-0.016941231849391735,0.0537356810294344,-0.012679062567327766,0.006717643905252656,-0.0017380053541197133,0.0023044850389181792,-0.04800769113944026,-0.009261291867119877,0.053026727272316,0.03771288734125898,0.01479585015842176,0.07074820735097938,-0.07294584718779809,-0.013985178740457583,-0.02486540337825463,0.03367385870397992,0.0026075074281226274,-0.006608785816531128,-0.07583783095657319,0.03582966454882183,0.0010858570164735632,-0.01840199434711633,0.0056251364758540786,-0.021467262291656415,0.007087450373360491,0.004144034251176962,-0.014601262257618748,0.017865506238914627,0.04325539020883067,0.0070464644118259185,-0.004621523288789795,-0.023553594422856993,-0.030907872147915568,-0.006133942573957542,-0.007880350679060896,-0.025026715864531906,-0.04614800234401286,0.018403652942887722,-0.040848956856964894,-0.03138283650050282,0.016029847946750338,-0.021194083986717658,0.06857347492031272,0.021247394633432025,-0.049076739542481124,-0.013145648732182203,0.0026622797204378795,-0.006603663106989708,-0.05271819009205169,-0.027514325574516153,0.018859029820554225,-0.012884882939508542,-0.05911591502129103,-0.05444416690737977,0.0042294040960233715,-0.00700073563631819,-0.00725889949987295,0.05474285997380212,-0.04176263182847401,-0.04080110181028246,-0.05740491299706271,0.04986423536297132,-0.06332577474421082,-0.2300023622015825,-0.06423036979468653,-0.001420781133594543,-0.029049588281075844,0.020292076510893844,-0.006358952435418864,0.05541313786089032,0.06276140040345637,-0.01207127364833275,-0.10838468506815613,-0.06326966870531646,-0.18128645463725446,-0.15102251505211797,-0.025094740176933503,0.0038737769346686535,0.050078772247423034,0.025869364528505398,-0.0017495482840102596,-0.0005697022159162783,-0.010685621801311213,-0.07374733028021635,-0.09522143433404476,-0.13355127869825653,-0.15771224887497787,-0.14583492630448797,-0.08121479434749142,-0.01626027085710802,-0.0029008544552879953,-0.004370364007719752,0.04947496597953121,-0.0006514916672833847,-0.04791930626013752,-0.03298427035700127,-0.018615017940720506,-0.0065288963105860345,-0.04707152020195189,-0.003465061456888648,-0.03624808743154622,-0.05228399532506869,0.039416504419001124,0.02944939774085645,-0.0023079580543205695,-0.00911830820477593,0.04332090362316542,0.0256217569010692,-0.014985698869556491,-0.197604449041556,-0.12679071649986123,-0.11434159204834016,-0.01752631310340432,-0.04023502653382107,0.0038279139663937823,-0.027390065379211005,0.029740506588216333,-0.005624329624460484,0.2627386732895545,-0.11299354877698252,-0.16554091999360507,-0.1390630649784565,-0.33341519323207347,0.0416165301037524,0.010771878797536293,0.0014889496299213107,-0.04641194548504336,-0.013005945888220101,-0.009442846793807929,0.001390578590920741,-0.011304721180868671,-0.027699015557143537,0.00004386987375900799,-0.024666375149843496,-0.014613492685504062,0.027067717393749902,0.04453531955513485,-0.004587780309989117,0.0021722242280828225,0.0032937676337502822,0.012005379015601704,-0.03597809924449263,0.015750501623084348,-0.08830881233825044,-0.005846851448325931,0.03403995858502747,0.0019385283471761918,-0.0026253233656408693,0.0053988072995413095,0.04020112166861411,0.015464711182603081,0.0034341939696786693,0.030053086405616245,-0.007398982908806335,-0.010520862879380317,0.007391044230002774,0.03846982700841426,-0.006455250937798167,0.0034409913665916702,0.033772128015631626,0.009194126220686563,0.003036167131229146,0.05526024536681182,-0.012045432035123238,-0.02418601655483337,-0.022952324291394276,-0.001959264180653398,-0.04186970395849103,-0.009933985815432794,-0.03637938847581009,0.03032235773337328,0.05315696712291709,0.00009690774185366685,0.010728814427809576,0.003978321795949643,-0.020595178753269675,-0.013164593461701336,0.05285877019630657,0.03518801785390224,-0.03560920988366512,-0.006246705486259931,-0.06716500130418984,-0.005376340335513369,0.01428186454734829,0.019390378577279842,0.0030289552746926933,0.037001776630848686,0.03833767479961055,0.03573203963121579,0.016003505499634044,-0.024497165659582362,0.025591040339320477,-0.04691664048188039,-0.020362204069358795,-0.06080631995462213,0.03597183700602931,0.014388478576170136,0.016009232518392733,0.01999449525526508,0.05569449545547444,-0.0026613489222963864,-0.012963617157556262,-0.03352037041730635,-0.3842224185745044,-0.22152736420234648,-0.055791955401425744,-0.03880689749843402,0.013224152435592742,0.011971564224977915,-0.03750385154226561,0.02519990001995164,0.00019892484531838878,-0.008104955708592015,-0.01728900485182161,-0.016021635213693233,-0.14637104423919126,-0.12224522067478702,-0.05695048578342115,-0.07461709132031927,0.002990143590629045,-0.01957326504215346,0.01257529814317762,0.04033969941694733,-0.013684111945616582,0.003624952680786105,-0.01410809538687548,-0.05360175817099921,0.0062772171564978215,0.4327532931684001,0.06750934761950891,-0.03551273550567384,-0.022646021398261315,-0.011047701760531188,0.026203078442638996,0.03330438765837953,-0.02103674427348154,0.012417210038612068,0.033526620456722285,0.06257135192547893,-0.21048560824081222,-0.005576624435175653,0.006793913755644975,-0.007962641308099554,0.007177183274358349,-0.018119732355931874,-0.014735870698189924,-0.004200729577142787,-0.012827770286759852,0.008786671556936498,0.028974545878616222,0.06693772271977286,0.05668944278952615,0.03361945266642848,-0.028051336937920703,0.005460571475506081,0.0460842644994671,-0.014513060360567107,0.002352703128983311,-0.05009897003113417,0.019843816130915248,0.01252193494027662,-0.05538080469389708,-0.020827600116575504,-0.11346254136090418,-0.049365918870276554,-0.002491933183417486,-0.01881028863634277,-0.02616139058443866,0.015860887009689132,-0.07161292317367676,-0.06263095745964335,0.035384549749433364,0.04690708099200166,0.020475672864817118,0.008546818016396009,0.02066547203461153,-0.04782940148467506,0.07714347264108241,0.024754970747621344,-0.01439543365372211,-0.014772846493533843,0.007386777843410381,-0.043604982612899544,0.0019211714076480236,0.011712621271658433,0.018998911830145557,-0.0004473317127217696,0.046929350679887,0.02418267380353912,-0.01990575558847171,0.011504520992850712,-0.02220581502877424,0.043349735340735454,0.0033848206426023006,0.0014434926451980488,-0.028935008959080747,0.016486235853947213,-0.030555301747011064,0.03565638043823373,0.025935047188483957,0.01236938974660481,0.023743590699727264,0.01794710098478835,-0.011827926409304586,-0.0637156617380741,-0.004096023714951383,-0.012116988951371435,0.027426147833997442,-0.0005350919632148441,-0.024659504293077034,0.028778722723424903,0.027572540270533647,0.028342335233170805,-0.02246937669492942,0.01934209403760515,-0.010511162438152342,0.03976506135835047,0.03297841807118932,0.021509615985460414,0.01169350514701398,-0.012744018031777332,-0.0009458373447246198,-0.025008246629832684,-0.1693865893500345,0.08682506472692848,-0.06675146461550438,-0.1365729698193028,-0.06460040910356224,-0.023951116937436737,-0.02844651112072576,0.034003925456775275,0.018219963157296425,0.0328509888164044,-0.013418751556184804,-0.02135748914670152,-0.05425194710803048,0.07520444900940593,0.21738622087066845,-0.07549264842477407,-0.02772273719228105,-0.029055261089732082,0.0043880602700498705,-0.030614314879417265,0.029384988903209026,-0.01349707627907294,0.036778513679237644,-0.05131901646533668,-0.009640394016622356,-0.12022372905115693,-0.14118309615190894,-0.01754061243583095,0.02909861726634724,0.02936895598162567,0.01000045527916912,0.03335640631045085,-0.0469667649878813,-0.01855376884543789,0.01835426459609227,0.07880253905784682,0.03749079577511577,-0.15713818182730493,0.10027113843012456,-0.018627179879845798,-0.06964286903357085,-0.017945882033085142,-0.04684802561968466,-0.01872258821706456,-0.001590673926051774,-0.02728188202198066,0.03452635846528113,0.022800085844069506,-0.0027882797359775036,0.3579440303066778,-0.11847198317364954,-0.02678038511260352,-0.007298065425457893,-0.01674511052044298,-0.022789565212378307,-0.00423106866612876,-0.026800518230640946,-0.006044460320164833,-0.048656752371259375,0.06216403264050732,-0.03451176754819914,-0.13082044019840053,-0.41881431743470987,-0.11764380215040714,-0.03155652736326688,0.0005590230003492248,-0.007055385554999561,0.010478104165780745,-0.04729979781268493,0.004471585458797491,0.05032168383611113,-0.03251642465973807,-0.049009555937373196,0.15729820398031444,0.03259296991313148,0.013060638018649985,0.016632104217873176,-0.029700602282017385,-0.09469834585455977,0.022333975178565616,0.007218983197331893,-0.02779957353846849,-0.0026835284233339327,0.017270493401473175,0.02305978448445897,0.010975180541810665,-0.03190768235172294,0.004546701032422275,-0.0022366748956081997,-0.0616469756195086,-0.01629640052169302,0.014342980707365999,-0.0019415082592469767,-0.015807753532024134,-0.03215972150904098,-0.006859370632490219,-0.04357068197618441,0.016834267192994773,-0.025919263501346088,-0.027043893288107138,0.01610440347302329,0.019753679218932608,-0.05131722626253173,0.04307092742394291,0.02314178722569827,0.012065597152204366,-0.01164396971234068,-0.019575662372504136,0.010355888944728345,0.004280630316088588,-0.013873388732294926,0.036734015117534845,-0.004941217943480423,-0.015054901471235572,0.007343955556991663,0.008159036075958559,0.02038439228521236,-0.03982377022206904,0.02610038205811068,-0.0048011013781754305,-0.01763288278281917,-0.025550562030526105,0.019677814625722292,-0.018967288796294557,0.05993018109593266,0.014305301052354896,-0.057955555708086484,-0.080109843227025,0.0015486752714417684,-0.00007452740939272863,0.02145105013350747,0.0607197350670938,-0.004691706790613584,0.043084249512583266,-0.04009257301932601,-0.03388428904707482,-0.010934060878309103,-0.0537177552001882,-0.0006164342593914899,0.06576859250059998,0.029888732905693015,0.005319522240707841,-0.0002203873130313512,-0.0012367444235497935,0.016600098606245048,0.062048809022372045,0.041477779792733156,-0.021843044233015925,-0.015515720631857322,0.013510113431178545,0.02283460208338564,-0.036276045183717444,0.020880143869616903,-0.008381285382880735,-0.03539982354900282,-0.11260840845098452,0.053516115332531596,0.06338964933013819,-0.022085607342061126,-0.13170996371665847,-0.0026476453978466884,0.02874032598955107,0.05262618330168918,-0.032220130037750094,-0.05271558732327509,0.03126894418927828,-0.004374565556429299,-0.35171340802757234,0.5291636451459183,0.15709275674371542,-0.14036300103778618,-0.10553032585069173,-0.02488458419224691,-0.042520323139314836,0.003064135082980728,0.017925149495146956,-0.01744949165618356,0.019114193207810503,-0.011506505158766028,-0.5263677290691098,1.1795684948443657,-0.10435883222915672,-0.21030172982255457,-0.14714141324007463,-0.01671928437091359,0.0034417050084034123,0.008891698044248417,-0.01073341507415908,-0.05734036619148202,0.046825465162465545,0.020231376729810478,1.163007140641125,0.2008024931520236,0.3618586996956806,0.20599827865701686,-0.0932614026653371,-0.03478978791371591,-0.016939580975756416,0.02875729170686652,-0.027176612357123302,0.01383187235156574,-0.015744521799546326,0.11443129782943567,1.23528016201284,-0.14380138715442178,0.12284865342522713,-0.04574909723566966,-0.11800986514168689,0.042250193446540525,-0.06044237494781697,0.027531953582891042,0.02024039475240707,-0.02766811047135734,0.005374892678364086,0.3021531925137759,0.11042480216920866,-0.07432173162581478,-0.08014912808023644,-0.10981633297253374,-0.06093789270747051,-0.010449413455479714,0.01044710984564976,0.006513259389493068,-0.005916495198822163,0.0016147639100967622,-0.031425064080792695,-0.018708290085441375,0.01614976269668045,-0.0038727430355506827,0.04480257199269435,0.0727786270359682,-0.028835372073328924,-0.05034128624431929,0.04383948992217976,0.016145433436446702,-0.03734637278246944,0.016744544614788314,0.005933378051137893,-0.01722334242693699,0.001842178262111788,0.00980256417754453,-0.004228831499185935,-0.025821479189970877,-0.010863564537164276,-0.011657058001874433,0.0064622914402958365,0.01758716221271402,-0.02789245846053729,0.07286188510597992,0.015043132022293045,-0.033369229938754706,0.011279108257480856,0.035475615133107416,-0.031145339565356117,0.0019168336903279811,-0.013564294345835073,-0.017082032410197255,-0.006017349038131152,-0.01242527997546719,0.005677487981760535,-0.05335430383296948,-0.02500566201888399,-0.013829982197066156,-0.022086941155965285,-0.012764562692069555,0.0003767903515535844,-0.01911695487768303,-0.01597404834167168,0.022265223617107296,-0.012119633880493088,-0.017160431193419878,0.02017316612019282,-0.02165808648704865,0.029859892541757613,-0.0035633833875627387,0.04546309688261477,0.027243981430711578,-0.01230538315631733,0.028193404958062183,0.013236532899328123,-0.06108430296715304,0.06677595716597289,0.011523961827139021,0.03565694587648367,-0.046721546557589276,0.018370322904012092,-0.01833512421707272,0.019275287197997683,-0.0704760024182436,-0.05089134232792904,-0.020402672017845843,-0.014464656315206326,-0.03281904167193426,-0.012991480520625357,-0.002666255380357435,0.020376643334941064,-0.03140063658317899,-0.007013099087489197,-0.022446210498718023,-0.03411798374780832,0.024502526739552024,0.030611888261508815,0.018297772791279247,-0.1335437328867423,-0.05314428361149692,-0.018363172779529258,0.025849005853871485,-0.006712021953192326,-0.0173434334842524,-0.011927813470747676,-0.039948725445585295,-0.1214498862043858,-0.2230451931389907,1.1928981118496071,0.08460249715330509,-0.0003744588511307785,-0.01884921786126822,-0.03988622164675734,0.02891663250563923,0.026156425219079675,0.0024760520911108904,-0.0014656596117019124,-0.0006915482158943469,-0.23619729913505677,-0.5957240154025581,3.6625731945913222,-0.08696233056567232,-0.13172965877889395,-0.06999917347290632,0.0047325657386936455,0.021129525494100243,0.01136537009819827,0.004045525480640496,-0.01756419904144458,-0.023596038130346213,-0.0060466583639598075,0.8257589938035068,1.8687475618632796,0.048889524398023125,-0.09705553855303653,-0.0287597540294641,0.04785789622987126,-0.0025437199689783713,-0.029985662755294486,-0.0221267358965929,-0.019671628837084662,0.001136145760589023,-0.010269211791022335,0.1387544986414602,-0.13918888414101516,0.19040602880465177,-0.0763117582168754,-0.014571951755992211,-0.01220214586782182,-0.027634752992422053,0.018808297978764727,-0.0022008263895349897,-0.00856461048363853,-0.01204322004480077,-0.07278520286869403,-0.30863003803484007,-0.10234971828407742,-0.09737027561819436,-0.030742087108771927,-0.005747063779354636,0.012164755075706798,0.0024184315213251523,-0.051259622493347076,-0.04455822534442589,0.03510663449659457,-0.03538610888968685,0.01247759303716993,0.007855375148787846,0.04180146818322596,-0.02361600684919985,-0.03141935493093631,-0.027319577511081307,0.010891702930279175,-0.02637525761982336,0.046938238417686746,0.002296578324448132,0.0037995433713321537,0.02521147012508379,-0.025915066908539647,-0.018782938501394283,0.006691621340052114,0.046257965931352944,0.02996182521665795,0.01684213255069157,-0.02048533588991981,-0.013341176292135213,0.03536272015789914,-0.04643740694414027,-0.004577678182019394,-0.0424628673712434,0.0013564167052835905,0.043341314182273515,-0.04710034948546265,0.049954332194255206,0.00033332498087471833,-0.015638375085990093,-0.014648046105806936,0.006053985189347708,0.05159418558293728,0.0468606549462712,0.020239086084508615,-0.04450890070651952,0.02331785020895069,0.000772765475428698,0.027817906081177925,0.04726324127208036,-0.04187334272135795,0.07066880390708419,-0.03293029303801783,0.009185126031414375,-0.015150572852140205,-0.009977770608373607,-0.027816618410552975,-0.012699830854439834,0.04211660925397591,-0.0014606753601782685,0.07486034751063358,0.0012694580712950766,0.006897001993137819,-0.039313423655815416,0.0010261562172366205,-0.008946286576310147,-0.04772657773634331,-0.014353189351063852,-0.03584566209975382,-0.007742453651918635,-0.05762372232031723,-0.030028833548761652,0.026804462051695812,-0.05864320951842061,0.07468619300438771,-0.023606801214176295,-0.015883246021948478,0.005545060304934127,0.07083250041653427,-0.01256666175925646,0.081078308384521,0.015048336397817493,0.0022982386669718963,-0.025494334621927663,0.031015915196357154,-0.03845611349428878,-0.000814152939824437,-0.04397980388778338,-0.002912109572506612,-0.04666021997729445,-0.020823686080744436,0.006578025162726913,0.012849739802952039,-0.00541583199650223,-0.03832188446519184,0.06618396384270826,0.018858331137894997,-0.014779634676822634,0.00015608974064142147,-0.004818001080490567,-0.06343188330131866,-0.03780173901315911,0.0385572265585337,-0.024690458594487128,-0.026846332548011918,-0.084471461898692,-0.021576090958614597,0.06491207905552199,-0.009220033193539376,-0.01865764078720651,-0.04391023126538868,-0.00005152150598637456,-0.03889007636505244,-0.01973727766023671,-0.032210110817587866,-0.035701965937884036,0.02882780267645225,-0.024003805903170042,-0.04461478224548174,0.03570206118670638,-0.04817611679871902,0.03976817691898002,0.000037591184962525466,0.014040901718881005,0.003623492605789141,-0.034360400226185146,-0.014514229536212703,0.010957096820438455,0.04713463581944126,-0.0076672611921872105,0.002801960798273925,-0.021216610851574738,-0.04836812175201839,0.039304086443076744,-0.00844492134303627,0.010152070986814647,-0.026811925466013454,0.004260890943554726,-0.0060966464900087764,0.02922761235394175,0.05034077317797165,0.005174452698772964,-0.0009602410747080483,-0.024472397120798753,-0.04482303104081324,-0.012989473776982558,-0.026447244050993284,0.010700711621098397,-0.012971886766920801,-0.02939957050804322,-0.0010320399421289363,0.04439037722704502,0.4188744456591981,-0.1164042221599725,-0.06176648421334351,-0.050726249584498104,0.15776593652941126,0.07973516251237722,-0.05697700090935042,0.026391391667710692,-0.02050775005941665,0.0036105769394394645,-0.05009887639946362,-0.02181517257610873,0.03707163828832318,-0.05220887223647205,0.03889535787633052,0.02812007667857336,-0.0006475899760029967,-0.03669990354070652,-0.01679954149786167,0.024015192725162605,-0.014906135271881841,-0.03967536892512197,0.028612040866523275,-0.010403587340576032,-0.001965415659560463,-0.004570938596671184,-0.0054423820041272905,0.019883357977179432,0.04432504111503277,-0.037925244997832036,0.005796378264490668,0.012427475832911528,0.017219709437768262,-0.01636310822899344,0.029585192747540384,-0.05148923167121996,0.027813486206110495,-0.05404853722004057,-0.003593115757732297,0.004196616235601713,0.019720608170288558,0.005679917271200523,0.048327526302617184,-0.002515528253696206,0.005326615412207205,0.006050368586374554,0.00027412849722020896,0.06868391634412707,-0.02004527424343685,0.03831849573061144,-0.004693292660238452,-0.04541462232659357,0.00150972576274588,-0.03402822708943412,-0.031879567141773764,-0.034955950017916654,-0.04262646139738635,0.044701366625366966,-0.0006807514026862355,0.02991177099033192,0.023853797690409472,0.015432893382642233,0.0013698403212282593,-0.06963268759666474,-0.18739569199486922,-0.11054627673952876,-0.06864680515622762,0.0009723985088619198,0.0005237224085171414,-0.03536702190268643,0.005602956120651771,0.015324394435208017,0.004100880627328575,-0.05308166019971467,0.004148366402978395,-0.006564538829717489,-0.003693686202269344,0.05182795239411574,0.026380291653856924,0.021927218524007273,0.020555196488591797,0.07618848209761882,0.1085761119867134,0.012209423049045029,0.026119891935068647,-0.02437046100873748,0.007909574310775677,-0.14270086790333775,-0.08071854937337179,-0.11461062236642296,-0.03580512060025743,-0.06469393126909455,0.033058710168775006,-0.01691749990036571,0.034861205190079333,-0.025629172326412396,-0.006418675939710482,-0.049631051771051496,0.03596091160874306,-0.011317278818657676,-0.008864722461417432,-0.04476661301622903,-0.030322207171744636,-0.09520264408079582,0.021894689245958974,0.002374242422428052,-0.014868520053966322,0.03187813384203884,-0.04029775132779106,0.02392612168602905,-0.0024877316562332765,-0.2053595016483729,0.11152640846932163,0.06508014711632033,-0.026194489964289008,-0.02672276339165708,0.01980995823785873,-0.03371728678722615,-0.01902072949159151,0.039429202113343165,0.020073610029838037,0.011324444779040784,0.20528715600160308,0.02589140241806172,-0.1346851101963999,-0.05698971065804815,0.06212020809751584,0.0027236516474919213,0.005420677834578629,0.011564991151805704,-0.0005305333209248571,0.06246203226323799,0.03699339140284653,-0.027395321893134306,-0.028928506885078246,0.009417017637894572,0.043936611781706554,-0.02236099959195989,-0.0077176338437692825,-0.041749489761792935,-0.037452936016742024,0.03296046613324656,0.014885564967645403,-0.0050250130569508104,0.04672709503793916,0.03486707013481838,-0.0636013663475041,-0.13947089775926563,0.002238851626614157,-0.009293814953647811,-0.022940169338664995,0.020384474495418803,0.026825915438890586,0.0033303820130799735,0.017946750378112806,-0.007554231959218896,-0.004682716442207674,-0.02766030853132852,0.05157039603417999,-0.0055395405602513045,-0.013816366825238157,-0.05156101808807695,0.04439255331892258,-0.018114359242770155,0.006769791695904222,0.005681553578120023,-0.037030683499744116,-0.051846165401062336,-0.0027542911003958586,-0.006270019428606269,-0.035474809305954286,0.04944206074945912,0.006182414685161186,0.028575018440395453,-0.0009982460067795946,-0.05631839731907438,0.022259331551163525,0.001228733333682166,-0.003504008791601722,0.051446746867671485,-0.020594832204005726,0.012417814472419991,0.027954903041250676,-0.014147107249503719,-0.056336160348814675,-0.0012950308155997854,0.025702198005956422,-0.0057212025498148905,0.01696676281402996,-0.04013226834297575,0.003402692004956615,0.0277350490777243,-0.0029305539462800073,-0.037069326805062044,-0.033210902430365445,-0.02182197070724969,0.01485653476538819,-0.06910228881078426,0.03700968985774706,0.04156880011817076,-0.003197219523156589,-0.05529097072295431,0.010904459333897559,0.013296826412954005,0.018900688498241437,-0.010721420748490834,-0.03319197525451738,0.0122386715200525,-0.01804888589256104,0.005977689654463664,0.011416267494634617,-0.030390307701788962,0.025447651619776156,-0.027646137445590413,-0.015299586235281113,-0.003953528301931602,-0.03499396496623378,-0.004887913262757883,0.01657589462477082,0.26604395086408816,-0.20179766819511058,-0.19779261811595317,-0.013906507545239113,-0.05554503362991407,-0.0517651831119854,0.03799795438601758,0.03498336623265366,0.012868339352056044,0.022113952401988712,0.012138888070255916,0.0007647598867148601,-0.020910740420222146,0.1602094271425917,-0.05116856377374081,0.00317222438375601,-0.033107449103725525,-0.0018487139070537612,0.0015719762342970278,0.027426110778531857,0.025994694754049225,-0.032565186603982485,-0.008034045733580283,0.036603322503487856,-0.0844378231283232,-0.08458602061688436,-0.043998213146834206,-0.00036137531085882695,0.02949504661392978,-0.014477628951706496,0.019859079989895213,0.032677676598821634,0.003917449824011995,0.03265604261884378,-0.05153195054905471,0.01251115353148187,0.14314958047713608,-0.017482149420384167,-0.04581715566553679,-0.03308033212051738,0.022749237684171236,0.032576087776837924,0.024344555314150515,-0.03969963576303255,0.026342978404100652,0.009961905070089842,0.025817736380172335,-0.059109284331992584,0.009321942941834095,0.018410539520633342,-0.052171425913170935,0.038530660079382474,0.01882366002766001,0.026755311740435255,-0.034326294801544276,0.02136358759311108,0.023291868934481846,0.0009419470504571302,-0.018713002714994667,-0.04753531819816243,-0.16358200602434045,-0.029985810767740744,-0.04989332971696224,-0.03805314800228649,-0.023954802574624363,-0.09303443568016438,0.03283784013506653,-0.009037771431077908,-0.0006339081955483822,0.017180098650439242,-0.03567853217504328,0.0027698886431185665,0.027351920019491674,-0.02476396083914235,0.0031536152752259642,-0.0253502259791229,0.008689391570468516,0.044840178637197935,-0.04195794935897321,-0.04786164317833247,-0.019641300229380126,0.00022347159602729028,-0.03270539870692477,-0.007863435696516909,-0.013836612624660093,0.040099146640100114,-0.03102914513068545,-0.006640622167067255,0.025835451482303234,0.022926987154099115,0.013594190092117181,0.010967059737250743,0.009827499550894094,0.02399208881299701,-0.05189875151022522,0.005680886900718807,0.02837525714511014,-0.05911120526958312,0.04467079150267745,-0.00817396910427992,0.0013994039046428825,-0.016345260570972926,0.007908567079405127,-0.03240226111884799,0.07074715904448382,-0.038196741340474544,0.02279812390551603,0.02025575748178435,-0.05392891690227543,-0.027865420371921495,-0.05333550519323986,0.010544933806517963,0.014673916762025663,0.04750922216005835,-0.005727843012088111,0.008791744429043404,0.018140818931300016,-0.07007122629396105,0.04797247462495399,-0.057041023874782396,0.015263764579894574,-0.04842724172048606,0.018205790737925474,0.01860844335054697,-0.03172775831492213,-0.03670793907868015,-0.019372389348988984,-0.001265896242942621,0.01588831201092235,-0.034223572050352424,-0.01999124449449528,-0.04629354729780686,-0.04727582948111649,0.019051332309129553,0.0625805089794605,-0.002830689926761002,-0.01925616820741668,-0.012573960823195115,0.0209555474718574,0.03173735299720017,0.0254650045604462,0.016221415775909437,0.013283716235938124,-0.07481375637145016,-0.03272592016860086,0.10006835985262824,-0.03725284125116433,-0.02217192556675818,0.020815643898842738,-0.03643538063378535,-0.0011894285447514928,0.03369067682592624,0.01371347873989622,0.032693668107658884,0.0008731995416154897,-0.2884618633491864,0.2554732270263419,0.3789521335760005,-0.2081903834164169,-0.1990807894754828,0.026446454785156205,0.006731170818063743,-0.037356334528359555,-0.049684451081692275,-0.021253427501001145,-0.04118333130335518,-0.04988611571336931,-0.4570677416148887,1.1149858133798123,-0.005836014121395567,-0.34945709965087735,-0.20034248362170015,-0.020298705408162237,-0.020596542497450892,0.02239423876011967,-0.06591727366771344,-0.03072853801254461,-0.024469821037193206,-0.007133183726437048,1.165582733389326,0.3583418936515516,0.12671673303872716,-0.024395897440211756,-0.12563665691197362,-0.03960776310285097,-0.07760323478111839,0.03357772999897247,-0.006543853262891799,-0.007707596239856678,0.01386994360902,-0.019286581728298044,1.5647335667840439,-0.2588385647439194,0.008613206325689309,-0.2713440139658461,-0.2721274712364867,-0.004898658140762026,0.008776347461601509,0.006774517951728455,-0.0033053896323879807,-0.02606826821900123,-0.01338916212671124,0.13317886518539798,0.32403588020078694,-0.10650718180589398,0.005444561517133135,0.0023028444300328453,-0.009997435363352666,0.024820131488685157,-0.022834496041461434,0.05040474528902759,0.010705270568486901,0.02572562977248882,-0.019555158360479594,-0.0032183280619917055,-0.028959820535345408,0.0208506633505983,0.027063237465472647,0.012486399361822888,0.023728132417504356,0.014942248043469303,-0.025021536570488053,0.030128337867496746,0.019399374636853067,0.010280509765605001,-0.010972766289542453,-0.009164244214560038,0.019041691580392067,-0.006832445492379368,0.020259175519251105,0.0674793424680083,-0.017221574823449413,0.005493746401865926,-0.06033411781583501,0.05403007558431698,-0.0051947655532701715,-0.014052110621216045,-0.010348323386302238,-0.008235546642734251,0.04514404517106703,0.027404683886495303,-0.0015442820199227404,0.006932113680796209,0.019926020199380244,-0.005081963907060247,0.011289336361526387,-0.028904706423209234,-0.08168722955512113,-0.04567261896346281,-0.0020133741802960308,-0.02334313822499352,0.061530446412445525,0.006474686142467256,0.04889863270202126,-0.0021212394906390737,-0.011829340617624038,0.01151194810034386,0.002882340110361478,-0.0034691469863463854,0.01859079284951989,-0.013150993514640165,-0.00840663066868327,-0.001826808403274298,0.0381445021115166,0.05953860869732726,0.056902851444588065,-0.04551841619660843,-0.05432165572776706,0.016945787268608545,0.009676173715254737,0.016637615266808934,-0.02614691910946849,0.003626959840578301,-0.039838721923325465,-0.011175415036358117,0.026042883097016037,0.0014882645435371595,-0.05761890942547721,0.02054809689369927,-0.03062935989673928,0.0027515835491262477,0.026266736971968782,-0.0028767382617829094,-0.0030968460047116507,0.024193988094447245,0.027612509416504994,-0.03877299279478214,-0.006264582473207199,-0.5744338474376491,-0.9800178691266745,-0.023783847353875832,-0.33944900686582274,-0.2868280813042734,-0.03300833124856271,-0.0039008792509416354,0.006971290297449904,0.015680151162774342,-0.03841276903109005,-0.026709787317767675,-0.0320489872292536,-0.14241366840683642,-0.10774010452056523,-0.02511823930833079,-0.027502912134153328,-0.033038777626779384,0.0057744003842025915,-0.015324663875343127,0.029525838652129398,0.04751343740350877,-0.03159419645896813,-0.041080134021061344,0.0013647879398848346,0.052471116886974103,-0.05328360306969682,-0.026255762329451846,-0.024583371078355284,-0.05057542586360845,0.0021415845920927396,0.023551269775270868,-0.03240107911465677,-0.04210383021472728,0.029690149135854296,0.017856798243255412,-0.0007239367264904945,0.01323549116393046,-0.07251864138422055,0.03845122843744749,-0.0039020874587062126,-0.03706140662172485,0.01674834110134528,-0.06214355096858087,0.00039600484387897997,0.02681455610869675,0.043391704132007484,-0.007746007061949,0.02678385345487657,0.09065369882439994,0.008997671216574219,-0.06462699843882344,-0.03208946980004872,0.034002729032290284,0.01622108954823353,-0.04297394573915529,-0.057232479764377606,0.03330232066697346,0.029476370962750978,0.014139817836132693,0.03101068319075377,-0.08167018170546678,-0.06500258434518529,-0.0452042208077208,-0.06779007904781945,-0.017685251280575822,0.00026061550471806195,0.026837879837727948,0.0196714576332694,-0.0019191664346627222,0.030874007917657813,-0.02318975063857965,0.018965008546261288,-0.02599877327963635,0.019373816292305668,-0.012999852031473448,-0.042462091055155825,-0.020556401682992272,-0.006216021871237126,0.012269879277906574,-0.01533693843026474,-0.028438714555933678,0.023252985814344453,0.0010083111193817473,0.03591315384991579,-0.03439820216242981,-0.027323175642850115,0.019124763185880054,-0.020815468837259318,-0.04924143129792831,-0.017993761161989152,-0.012981947533041239,0.039996849599959264,0.0233824356998945,-0.03473783948415652,-0.016724061065214815,0.08355293141541455,-0.002882958030658252,-0.0058776375456963525,-0.020504449795318774,0.016248681427449032,0.002615094918467826,-0.007141196292381314,0.002611564217898971,-0.030705348681360965,-0.027314142704856437,-0.025346078336285802,0.0049681027949513065,0.016471595130274932,0.002978973544753963,-0.0010638359716943716,0.059762376683584445,-0.01363503221402511,-0.04803723888526162,-0.05691081862063615,-0.06938001979853377,0.03972819198873198,-0.006217985646723414,-0.041042913062927434,-0.04158235553611726,-0.008903088002188057,-0.02524525523770641,-0.0023254102998921597,-0.008561000239462735,-0.019508708138390198,0.03879157068640381,0.03916457700975508,-0.0010688980717091234,-0.02567832833295122,0.037949091345901874,0.019474126167481592,-0.025086326476066085,-0.007249708657347426,0.003333942620734993,-0.02606200290249806,0.05216111332571224,-0.008378523277250537,-0.0006189651581224416,0.012491947575635425,0.03026800780425282,0.021649422068287988,0.016665735526927468,-0.01136301288188457,0.015338610789001469,-0.016646616083341847,-0.09884346823522165,-0.04832638129860085,-0.008283518340471587,-0.039488393407914,-0.0002893036725026127,-0.00500283487253177,0.01364084409484684,-0.0016583742806339202,0.001996845477212716,0.010382135848453952,0.05788759758113139,-0.035917779320266095,0.3025999993725746,1.1802156740723335,-0.043675874513342226,-0.04751451793270867,-0.033652837327247664,-0.04584829146989878,-0.02370535727401653,-0.01819089574879365,-0.012966418541065242,0.009762434396246147,0.003884045405391204,-0.15590497288339264,1.4984304512061024,3.289129452636545,-0.4005408820808496,-0.18435680179597183,-0.010897530215948468,0.000049543470086808045,0.007456551711022961,-0.0172172081817941,0.005109415831059134,-0.02156612047809707,-0.0975093216683511,-0.03332569647884449,-0.3344568039245312,0.09789591096696204,-0.06125048822736479,-0.2721410681235148,-0.023592008155213666,-0.03429575751717041,-0.023093905739974167,0.027942101319456705,0.05304430301086311,-0.03273516727779365,-0.03455848872132537,0.2419993144534338,1.991514832913069,-0.13968529234830632,-0.07430173298915299,-0.17641691801988912,-0.02892443798165779,0.015713013130635937,0.03994903876135696,0.01852386700787067,-0.022365727967148117,0.029065852613812827,-0.004555330242409005,0.9790173299824404,2.1255706762138247,0.029387769051375065,0.05842528580402298,-0.11983705227519784,-0.004964667349642989,-0.020448822022110444,-0.0325889945958276,-0.05283558996197325,0.046064788943758955,0.0031669522947417894,0.028580091635421995,-0.1711653768574153,-0.06478039679981432,0.02027689478953884,0.10691287644323644,0.036994961949042,-0.029354228876160213,0.05239894504687861,0.012532805139184776,0.0635268368945128,-0.031934929066663204,-0.018285600052435094,-0.01274957305381185,-0.0306852147601365,-0.039687418377935046,-0.0022467781422470545,0.038456398593965116,0.01130848658574647,0.006054127290333189,-0.032479926394377634,-0.046303159090419634,0.05670130023769657,-0.00379914894976058,-0.00769429130670488,0.019174403772195654,0.04475810147377652,-0.03465052694131102,-0.034730356920252975,-0.02180480310984686,0.009273380838670964,0.0058489005237469275,0.0491986736574835,0.01853894333147543,-0.0005311761639201409,-0.022526208525670877,0.019320740434677984,0.03932384342050971,-0.0386716635627412,0.03803398789274041,0.04406362042432463,0.021646945465224388,0.02063187476496729,-0.01593511469627516,0.019649671531112106,0.030128014705779887,0.00802218604574889,-0.008084176347972018,-0.028034575631793675,-0.02153763471285141,-0.016213762625381878,-0.016691849554197,-0.01459719403054407,-0.011215004986227028,-0.05260306447987753,-0.04750116600799505,0.017372134404837595,0.020872600368680598,-0.02936387529641986,0.04825987200118731,-0.0031205316182895864,-0.042869525107491625,-0.0040985852331519345,0.006089543171962473,-0.018265502243186956,0.0030697262392236054,-0.042231864048176554,-0.012057892743693854,-0.01372598162707346,0.045370416496096876,-0.03326819462486974,0.011585975496223913,-0.01635455049157605,-0.006244874005835122,0.0055842674875013435,0.022850657452512742,0.015744734620310508,-0.036049881513523396,-0.002827541608415746,-0.02039120595905854,-0.01853698518245523,-0.015525040636909966,0.03911759749305223,0.06224695007216998,-0.028951868538643642,0.04783261895449034,0.004859798112571405,-0.02641542273056978,-0.4224918822908398,-0.2526053115113302,-0.16873949192463666,-0.04765677667132996,-0.07358307901733178,0.05266317215719977,-0.023431872734654097,0.011561491696823844,-0.004454710163392388,-0.015229438558393002,-0.016089152856100172,-0.14265291135180574,-0.25652543882751555,-0.17213238709068415,-0.07876689945236856,-0.06736141995285608,-0.036108294862426206,0.025704522157255928,0.020600602564887674,-0.0094582564003528,-0.008004741294644745,-0.004125068715853549,0.04019678704131148,-0.15457621875780858,0.9249938874513203,0.242518280117501,-0.09281517148741528,-0.07826895642972703,0.015112275088441388,0.05320355941926419,0.019395048403169222,0.007951266446581397,-0.0029202920019505245,0.0005327481737595752,0.0013765785603370795,-0.15129675051007932,0.5906568748525395,-0.37068995248255915,-0.11536941708997644,-0.04279604843317024,-0.014128424434893452,-0.04119950023103132,-0.012830974513286849,-0.016084545531286295,0.012504247223519595,0.023869981946843203,-0.07477069283214184,-0.0660900601783122,0.15430339655016168,0.49434811469131257,0.06387530415387718,-0.04519122263103554,-0.023366612768828444,-0.011907589661822465,0.020511526454262935,-0.015915877656972475,0.0001136474517459389,-0.023311642625550636,-0.021463965626628063,-0.08996720206855688,-0.05686090330723216,-0.00613665284191893,-0.02315725602840566,-0.032986687616294336,0.024030060603680098,0.017240327659814605,0.004301628665983702,-0.009400068494651833,-0.014952388123522158,-0.004200832200896844,-0.008973822678083916,-0.024613792807081605,0.00901427995442984,0.006813529523804594,-0.023476960444397097,0.0020846600453699993,-0.015038627991662005,0.007333463056872344,-0.024708451297673944,-0.0032479732019002764,0.05380356046586338,-0.04099229133455109,-0.01815021780142014,-0.004529284637568242,-0.05605371472417254,-0.025415842695722165,0.00044791198507675937,0.011963302924282491,0.005593544668838605,0.0274193774348654,0.016712385961528624,0.014419573664367347,0.01165348896651085,-0.003540332385213272,0.07530627346989108,-0.015554591963219908,-0.006584807408201571,-0.029120795616287394,-0.03516454603794177,0.025822671032468356,0.027701891110360664,0.03622293289494282,-0.004528367589539834,-0.005952754427888345,-0.032552370613706604,0.011921346385859666,0.005490478868810456,-0.03264320870988411,0.06438955413605528,0.03642391786538594,-0.04705411199300102,0.036482296290519925,0.022829691940607386,0.02636630366435869,0.008679388941171848,0.040115005692674344,0.03180907764392999,-0.03659027208163451,-0.006003480892484725,0.05750412628372049,0.017588593433135725,0.04235893924759485,0.008808024725968174,0.04489580542035748,0.0011152580907988036,0.029341553954444058,-0.01683231943279567,-0.025734764453461508,0.03353004663255186,0.011067489106854123,0.04241237403128576,0.026399585148700673,-0.0016121648960883011,0.004253417672452507,-0.0206398606718214,0.02523589694568332,0.0002657875445347303,0.04989788703982812,-0.0324446301168638,-0.0311434280106595,-0.03147978173808817,-0.050950394032689264,-0.013760161008691648,-0.04390494255961868,-0.049515361681123506,-0.05298320290837213,-0.037629592962264216,-0.014381987387090586,0.02615730780100506,-0.014627481210637377,0.029071504714189404,0.026213814092105773,-0.01721850705492612,-0.020064999089826934,-0.05598136781709668,0.10619110485651745,-0.005252976763515423,0.0437828781576884,-0.006344206706034651,-0.026952925554170386,0.04739961220027573,-0.01356039472403828,0.019684009149750624,0.0300713830989696,0.0373818243559677,-0.00425553763542426,-0.09346997099146023,0.027501952768183558,-0.07967900364107124,-0.15985371145387242,-0.025594118673482002,-0.00496552302269786,0.04370833735196198,-0.020721024983113272,-0.06099306692758588,-0.009153490473898452,0.007160775606887348,0.05740623269116231,0.04290986123505103,0.027161371518759893,0.02437686145369971,-0.14498756838959373,0.02811947615317845,-0.006703548222451757,0.009067079416796369,-0.03907956146653465,0.021360652578586728,0.026313899767651007,0.05316143096512897,0.09502841821582506,0.22985985451659074,-0.002919035848776258,-0.07763497890572632,-0.11309075779618655,-0.04106933187535596,0.011594248953067052,0.03692193974522367,0.027170913153620403,-0.012869644082823872,0.003775815974160496,0.03759015836087514,0.591772306193563,0.31329661419631133,-0.22188720008324994,-0.2559535803461299,-0.386135048620443,-0.09179391213981461,-0.023557629569993334,-0.02704133873433117,-0.04784966090925537,0.04009150292484523,0.04499938832959406,-0.005182109305187247,0.004370472786586182,-0.010562585114745693,-0.05633897281348581,0.015358290929849708,-0.026481829218096647,0.026205473590417784,0.024582659904001786,-0.01931942432119325,-0.00016817859239388297,-0.018539049057371106,-0.005075884524068467,-0.009044087901683165,0.05228984414774381,0.014265383596013322,0.014965658464242484,0.033046976170404495,0.023616394344702807,0.02587590700850209,-0.01805919487811313,-0.014578199528186446,-0.09625122984700085,-0.01922594567507921,-0.007191841292924772,0.033963838761625065,0.021407587069384098,0.013971036571906077,0.028652581642103853,0.01819692557300893,-0.03287472339455754,0.08568809752298233,0.03787304291858003,-0.008878793565432783,0.014773092600714717,-0.030517771359317804,0.06258281249356659,-0.041846295877623,-0.006867744277687135,0.007269349909769895,-0.010951034656506297,-0.010946143624060744,-0.013520710735358717,0.007846834340282726,0.033174495658532165,0.062239474511753885,0.01401730767957907,-0.0045979701799724205,0.02045060871121931,-0.036761219567756215,-0.0012735285915310833,-0.0343120088541786,0.0031817939167568406,0.03571236097044379,-0.02481124824730061,-0.052397090825420975,-0.0009546416467429709,-0.043277102226394505,0.0014001782245010818,0.013139977957167582,-0.05746640527240628,0.0311680609266915,-0.025201073082944205,0.00045096533919321535,-0.011627097629530798,0.040908339235673545,-0.017151395826849127,-0.03048441999469041,-0.041374559016710596,0.005490717298859128,0.002528034621628591,-0.06329622670295783,-0.0351351525802782,0.023789008454729064,-0.0017994596344553934,0.00914311714199474,-0.04639906939521001,-0.21149421228090426,-0.29514659219549494,-0.08335553830768404,-0.08745800394837216,-0.015366149611090731,-0.0016349218110835487,-0.040196196902689,-0.02859989793592315,0.013139915409709865,-0.04472431871882277,-0.003105847754168073,-0.029210547789756874,-0.11574709901789867,-0.18001463609442636,-0.03562358506556035,0.006478241338134975,0.014072187498285071,0.016949312336208944,-0.04993051933853946,0.025998509333333995,0.07330270606716915,-0.0007328967347683215,-0.04068716372501939,-0.022233529941429315,0.027814564054068288,-0.08820946633197607,0.037512135014490036,-0.005400539180928464,0.0039060081682325,-0.034812676371947224,0.03631318843647841,-0.07148084678885519,-0.03533702167990884,-0.006035640379568625,0.008906605825130061,-0.006934292404041787,-0.13880123535355482,-0.0659329305954072,-0.01885748104496145,-0.013031163712198496,-0.048226559323134584,0.006842253982475021,0.013777057366303561,-0.0030742468966106946,0.002961503516548934,0.058186076389767485,-0.017586213393394223,1.4033051534610992,1.1591450023569978,0.18269245594387443,-0.028919066354471574,0.029571908631712437,-0.021567584667628665,0.01866093211635092,0.0004685995354792475,-0.04029814715925419,0.0605425008674929,-0.027277752385838298,0.009192012142836744,-0.1772068688948314,-0.3437624082748318,-0.19476638702144655,-0.013279912602622894,0.013211763778329671,0.00579305144299817,0.02572427134226429,-0.046181688069866986,-0.0007934510896506859,-0.029244361774936275,-0.023179695177186325,-0.055595726144674236,-0.11801383567602995,-0.11335026516353443,-0.0029518557972952946,0.04330029273204217,0.03472400429628446,-0.03475555396270461,0.01826006885953014,0.021807143456880607,0.023282625614178338,-0.021667314966665543,0.008176256677126256,0.025399947557157854,0.043486454306810286,-0.00440991352911237,0.017031586446437798,0.0007548436941038323,0.038282580654029154,0.021800840418618447,0.021282524785567556,0.008096568264096729,-0.016635593866351307,0.031459699248747995,0.032212505580122765,-0.046891344560023515,0.01731415644070576,0.005466159362456549,-0.018464795621906567,-0.00010970179188003158,-0.07419851290910144,0.03965051553036054,-0.019471154535039344,-0.003798043621277478,-0.057019124570467976,-0.027147067716501452,0.050673330526837215,0.01584000028323443,0.03476558999847176,-0.009522997470064595,-0.01098357547065761,-0.02538365254540235,0.02286592887571496,0.028123796747779543,0.020543521215406348,-0.05672704374707162,-0.08648283065625068,0.001074844010004299,0.005513744215270478,0.006496345703175095,-0.02216357443620956,-0.03721048421094666,0.008715916240518146,0.017393040886549506,-0.03107147093007056,-0.042496754135900365,-0.01963863891830064,0.013905034045017596,0.019166628747094707,-0.03668715220981616,0.025001164479412263,-0.0602914798127617,0.009707033455588038,0.04437110176477732,-0.02192672735645535,-0.004716020556373744,-0.03161830724442262,0.02087413026451431,0.01667375663169018,0.08049635930420329,0.017002669652006967,-0.0022132040803326284,-0.00027485123556234464,0.007056073161064357,1.085126182093486,-0.005609593266106405,-0.17623898720133957,-0.04482734448768295,-0.019171107806252682,-0.0034720261750693176,0.0034942289474481675,-0.049327848823814684,0.005441000784087675,0.010718494325608504,-0.06673342004436829,0.9357464565436409,2.1700864578224293,-0.055345879386021334,-0.30502969683211595,-0.06431057268520671,-0.015664232341115043,-0.0034704687477308243,-0.03200650305690347,0.008593727158886823,-0.004747763490272073,-0.011436300867476112,-0.07302046151795143,0.3618848108786267,-0.19094997429179397,0.045376804350101455,-0.03717976037879425,-0.07220134153421068,-0.060702626769874264,-0.041067162285470436,-0.00851055396852801,0.041786722990527804,-0.018433325768745543,0.0256941521290781,0.8994207261091719,1.0894899428804927,-0.21545212606479372,-0.3911380738127181,-0.5676143767522837,-0.16008271931963977,0.0032716479838566293,-0.008708776399367376,-0.005359350895687861,-0.038947050987337015,-0.026130870058185447,-0.03706190892677056,0.20514879178148648,-0.09116476167973393,-0.08903757665144425,0.06618073851182837,-0.036728450830674865,0.016140707941464463,0.012704260825441158,0.015963632546466325,0.013970372544446464,-0.016971999241216347,-0.015118231705303265,0.047045896059819556,-0.00419981514759256,-0.11348379697195106,-0.05292652833186649,0.11522519630240281,0.10556079590663746,-0.010862477512067904,0.028408568200220568,0.05327204219028271,0.005174257529052595,0.025657038312871985,0.001198035631739269,0.03737948735169031,-0.008938834415035814,0.012496788370379373,-0.0026137790639212837,0.00952409816955896,-0.028345070246289985,-0.020648451716722263,-0.0012347398900721702,-0.016827407764147588,-0.024056418513141744,0.04839187957417827,0.043125090652932685,0.033182342557652594,0.0008310692146892501,0.00791356214981295,0.02428237171306613,0.014634753847413714,0.007400886907782513,-0.01775779348838888,-0.00646093867926466,0.009692364634177284,-0.0024153943156460544,0.003333618097966865,-0.0062211455010615585,0.03844201290702095,0.03559109758541309,-0.013805747809637012,-0.01733438655999112,-0.024753553538431863,0.028613139628262906,0.06539489361120446,0.017933792827520882,-0.005334483820042768,0.012899621656590688,-0.053172272982340375,0.044146305266772046,-0.025260329694567703,0.003338481011530198,-0.03576667136462215,0.01726595351517736,0.03848918683900383,-0.028411123537036884,-0.02139266659644726,0.023188720344709316,-0.014329702067957502,-0.00829972938910089,0.05865807800535205,0.02292370563711153,-0.01485806249529233,0.0027864104653395343,-0.005079957640608972,-0.045781632286636356,0.008621106937371439,0.004589789407549673,0.049260711662168305,0.0678314699803531,0.00959144633310426,-0.015490015236189052,-0.03274907681837664,0.02713216207182349,-0.015772772852861792,-0.02192814123098019,-0.047431846547210194,-0.025767277828397345,-0.004883016398245177,0.019869700892795127,0.025729284004166988,0.022694581375435487,-0.016432733228002476,-0.012187204946260828,0.005633779008385222,-0.005744751208862669,-0.011195272991719454,0.02507905861825543,-0.1418581929330347,-0.25034957675160535,-0.5360075395483306,-0.32942998005700463,-0.07465508706771845,-0.02137281462832015,0.02384015670693261,-0.0636616914755167,0.01972870784349435,0.021056820469303413,-0.006080087643786634,-0.0426794800274653,0.0026288583166043365,-0.027089374846547543,-0.047646784716430746,0.024648186673881883,0.05630302092407208,0.026128070539467727,0.019074967340932263,0.011618446869045791,0.03342031761453881,-0.013086870092153377,0.009651152172310442,0.059591498649039315,0.061569230952573085,-0.03177625692104979,-0.04852303838059057,-0.009495556416021265,-0.046525973208313906,-0.0028198179617767863,0.035834868578329265,-0.0313863523541009,0.015631192323502078,0.01647410336308539,0.0032445019569640773,0.024852601246785396,0.0016583924100565522,0.053302260387883355,0.06443065488033685,-0.0010302217504256004,-0.06182188832702176,-0.04549967374652063,-0.010543646826738168,0.06329644832004439,0.01184524605014767,0.04660060972976377,0.03870143074043828,0.038344330936027675,-0.0026761675099305072,-0.05073391815317495,-0.017172060101941534,0.056758512313740635,-0.059064078708034824,-0.021985078990424227,0.011463813377200009,0.020344405769238467,-0.0034653388897790136,0.006263855067889665,-0.0010211126357964212,0.0018118962177138013,-0.03386880573232446,-0.0007264037104596783,-0.048183467025919455,0.05032409511368687,-0.026674828479149006,-0.002864713834447754,-0.008999223240360722,0.00764350222572979,0.013288837845730326,-0.0009472197428857118,-0.03321936824590797,0.0280918036672012,0.004824308448292286,-0.013175074313759232,-0.01452648034172762,-0.0185886983568616,-0.014364477380283836,-0.012525463543942492,0.03678675801187471,0.08058378716621542,-0.016917198608081538,0.02107167356394867,-0.04572483566104771,0.004660920829769958,-0.007714663913837017,-0.05342315924899534,-0.014071405335360406,-0.004182034647935813,0.0008843081795397437,0.03480576815727752,-0.023371590310273034,0.027552828934500066,-0.009677183623813748,-0.020017868198750507,0.023129374874253948,0.05587290286951051,-0.02021967176759094,0.0020273829979727976,-0.02929070789119965,-0.007367380771947196,0.014339093263194633,-0.04688696785800052,-0.023338159553188964,0.036730364315275224,-0.005581832374253551,0.01722422146056416,-0.04974952526668966,0.003103166965330995,0.019177987334921313,-0.053077508129074046,0.046260082396116856,-0.032443510770721745,0.03497144881100627,0.060662788498749065,-0.05412947334586299,-0.024167814946009836,0.03441136811041402,0.002039840137382799,0.011661458748577313,-0.006438928392189033,0.016010273613469884,0.03487910681286606,0.010054552015503286,0.055022233502053264,0.0739662788718516,0.03018928652120364,-0.02781453487553315,-0.021030568395536287,0.021188079533518818,0.006103422698565952,0.000387547425958913,0.03959638438516015,-0.037057625462417546,0.007743776608683485,-0.0035017224547085114,0.006177597757380573,0.003929565122366878,-0.015166385657984428,-0.01766621658166899,0.05380414858171701,0.02932708200329337,0.013627432606801132,0.03702973955234471,0.05059197053693226,0.0007362308256989874,-0.0531178990235283,-0.042438458067026265,-0.038080989547547184,-0.14038562208664737,-0.2140110152656856,-0.026780398881748064,-0.02284822829765862,-0.005941173816162528,-0.007559151063450894,0.04104569876920103,0.014895505519944497,-0.0004152123362742632,-0.0378029442714388,-0.10794612715927449,-0.10228063439011281,0.6875180826893902,0.40834925388817367,-0.048359923948977056,-0.018668446600240734,-0.010886755263101379,0.009518512193498942,0.02769303312445123,-0.05928837946783871,0.004540753446046035,-0.08988766985294047,-0.07076073973075817,-0.08404009436421767,-0.3110838545678215,-0.004364623342351723,0.01414182516993215,0.0236919876035367,-0.0414112747903923,0.021979860816749134,0.05284894199422583,-0.10398063235101672,-0.013510939674660048,-0.059123393883805,-0.03096515266100151,-0.0006833315236586132,-0.0846127038169958,-0.1124170743952624,-0.023415289521988094,-0.026597987914096947,-0.023881573572020445,0.0069553573434073986,-0.04629302423574596,0.06545620748409722,0.03242946750453834,-0.13481006252837724,-0.05181208108917117,0.19541404877166227,0.7777274469917297,0.1978681316570993,0.004585900407860109,-0.004670546949193924,0.0073930989278090204,-0.03321978520555924,-0.0009199247696060064,0.017225461991646457,-0.008682238949018432,-0.3050853913145057,-0.16404056202098155,0.05246169927781043,1.0940029896985677,-0.10705804593940448,-0.08593667634552009,-0.01711542911853756,0.04993263165975932,0.02228964607148662,0.014788699427276812,-0.02613546019575478,-0.028199561500846137,0.003361912275339831,0.03815470731705579,-0.001855765434158628,0.007876169465938684,-0.0028528857822395807,-0.053706425355734416,-0.029544897603828883,0.005252624724475549,-0.005945469335956831,0.0033402592842333143,-0.002792116082800691,0.01599402871580976,0.0647673867840109,-0.008317844735122076,0.0017273195515569737,-0.0354461319336852,0.0074611189464829,0.005808683967826763,-0.013704112296951019,-0.004238215210639129,-0.015544661946640174,0.038134458993465715,0.0014048216864539778,0.0422462049341524,-0.024703875256047784,-0.03227634288331483,-0.021788063158346267,0.008372763030238348,-0.01623776608549603,0.0438951421316604,0.012958158171628343,0.0251679792245918,-0.02843737898393171,0.013694494461625717,0.011640071185938756,-0.0027660823202838186,-0.0031109616918918196,0.02663722019253462,-0.003433301635240893,-0.025119461808955867,0.022377979947785988,-0.015925244005330803,-0.002616071827014027,0.007081640548259939,-0.03321730444082319,-0.01811057117870978,-0.040227654400935564,-0.011609683575512186,-0.022271299823437087,0.004525898097241364,-0.00413635137636685,0.00889681635486387,-0.022208653317281172,0.02752091726784967,0.02722245745337897,0.004385006345609095,-0.004264702445396715,-0.014642515510104074,-0.02166141175837893,0.02475108034447543,0.00963530979616979,0.026839095565681006,0.056675130390721036,0.005041760841437651,-0.04429738474354014,-0.0015528197200162302,-0.028471435068467135,-0.03994784763866679,-0.007528333759543712,0.00709225764647056,0.029630739320578206,0.03730452439947094,1.44881782740196,1.1158545892066143,0.01864491006241734,-0.05793326127473408,-0.02609467001451782,0.021785698801414167,0.04886628257449476,-0.028499374240613547,0.01567134477463825,0.014116800310583487,0.04400562470979486,0.025993725430059355,0.6706764566493,0.2767133691177295,0.29424494952493774,0.13009228124262442,-0.044054099687222195,-0.01905391631814498,0.0386728018208239,0.0707851051194222,-0.0026619163174220204,-0.053383497379581576,0.05563690907052711,0.09093818291590232,1.53477059029937,0.09061289243971707,-0.066606127700866,0.11486161018488796,-0.014805117306703947,-0.013672406460354001,0.017619041175925127,-0.014635319105030738,0.0016516889208911853,0.010960038609409155,-0.034929588582522535,0.018645702589122664,-0.09948667062450314,-0.0814103375227462,0.01967897053933909,0.025133803344722955,-0.014897281863756958,-0.02511827791836715,0.01477723175834347,0.03776403909479168,-0.014710359731365768,-0.03567802041220618,0.04344841363897792,-0.004136293468725247,-0.03450812932191251,0.07124767121992256,0.038613250242610656,0.02503223224606288,0.027939299907956378,-0.05996537410147757,-0.01210187999644035,-0.03757094353610532,0.01016265582522954,-0.041628986314520035,0.006603027265449097,0.06130499337615848,-0.005420543946492625,0.027790755974470213,0.01304269401813113,-0.03889464844360455,0.006626003038392812,-0.05229548173430057,0.011172353226649882,-0.0070345549024492275,0.017914671763021108,0.016580670353836726,0.01720410899409336,-0.011208421444646144,0.018858831981289178,-0.01749526867717966,-0.01485442686833645,-0.08745288747311339,-0.021687191049692547,-0.04620066643808306,-0.002133629083604161,0.0015499695823879998,0.0021072546612196986,-0.020992970816295007,-0.040700759143077435,-0.0033398713368759016,-0.014256322297983605,0.011721403635024049,-0.007281066378983448,0.029177778988219584,-0.005558926220589992,-0.014910652380379492,0.0120909959726388,-0.012488233490347526,0.012253855689684881,0.055036382275155664,-0.02256416488872071,-0.04947035926337395,-0.009478341057086991,-0.025918854658060944,0.012012021945454195,0.0020491096498509004,0.018459427976657766,-0.07010049704170646,-0.03516633307038706,-0.03713419738416835,0.0121089759255555,0.024496158963528622,0.05259087444405722,0.023604239924334112,-0.009261018331020379,0.008587475173235406,0.019023199466286216,-0.008447325054406709,-0.023079245614092997,0.011986823303284724,0.022052780261085165,-0.035727410885645725,-0.0000939119442182942,0.03416994951872297,0.011175300310399839,-0.012722724222809834,-0.04076744940614528,0.013515730042108803,-0.06532404210052381,-0.12653906161793418,-0.06267420041837299,0.011770531814270171,0.01573304247275985,-0.03555244739067277,0.002771856471944209,0.010829773892183626,0.008325255430313924,-0.04697614228133923,-0.08210923928031215,-0.057732132598991744,-0.0452440373641579,-0.05336152783476447,-0.03825399663596163,0.006812661247296789,-0.04238012568793256,-0.01781057649525056,0.05884824910844808,0.036252735920320425,-0.06874568586771035,-0.0818653757813293,0.03328454805748943,-0.09761335011445153,1.1874891473835734,-0.125697798501549,0.0320375028160161,0.013302110990635066,0.014947523884205546,0.02782266695738076,-0.0727340758396444,0.03469711293252643,0.00445120049009898,-0.02686131441890373,-0.0030564114598056235,-0.14960369344420058,0.03667136712150511,-0.035927421249606885,-0.07872719512832459,0.0188258902432917,-0.04298808950430647,0.04057126960817681,-0.0018298392090333928,0.017341667946712776,-0.04710006075678087,0.05262470231536745,0.0005256466792237595,-0.025200875315634565,-0.183194709948295,-0.056226691220894805,-0.031921086321004426,-0.024727535079756852,0.08907738806353874,-0.018289461492110623,0.02364691197703519,0.017759422795556777,-0.002803014008498385,-0.0034345119601698593,-0.02358129589698611,0.2505544663655851,0.9338314972442899,-0.1599261428626327,-0.01600150631141122,-0.04448531303084202,-0.01931260430107644,0.03466850609955529,0.02169086735203087,0.027643640568035716,0.036142208066686866,0.012243607109858987,0.01933467404124131,0.0027564006987280598,-0.04895080436373854,0.017105799207346378,-0.0280929867361074,-0.038343169780043,-0.002985556934461335,0.03172267286006441,0.010336135903683156,-0.03612108104275208,-0.003080501383187362,-0.019949565324476396,-0.028751916380497438,0.02022225680531245,0.03094955091493859,0.006323603398028853,-0.0001488871551830674,0.009178402320339937,0.004956230958163776,0.03864035336782823,-0.005249190115926844,-0.008397300880102678,-0.0033005755672127564,-0.02160178974483752,0.007664213321832168,-0.025926006245267967,0.017861977324736576,0.0007103363788569649,0.022238458867206677,0.01831319474149923,0.04609360205265032,-0.0075937446484651274,0.016402793274175865,-0.02797204695300699,0.023763901983582317,0.017411486515139137,-0.00020315144241016291,-0.0008978374418462655,0.046898711893044086,0.011498713296257205,-0.021452475202372263,0.01849928910121465,0.052491312455105084,-0.014442828522440523,0.040222053142205026,0.040273640381223684,0.03924525306552282,0.016964181392700076,-0.010907092836601453,0.026724019167539612,0.021264517146810137,-0.012445517361277122,0.016314025663942924,-0.0037597523528444697,-0.013395568543411158,-0.008642745549059009,0.011028080322605903,-0.013851127967578892,-0.04599666227019297,-0.005127998522504204,0.031692248869275096,0.0930773184823636,0.039492821598563925,0.025663524123296876,0.009516491861833154,0.07240836744926428,-0.02816507725024937,-0.019763750714848816,0.01872722538811621,0.00567797650952314,-0.023677700026531724,0.002371586928432898,0.044805268621136526,-0.029066340746809558,-0.049700634281704785,0.023504518830371017,-0.023323828262206907,-0.011741576363848802,0.033719341480613604,-0.03874425168931723,-0.00007555693962065287,0.003502169779021065,-0.04433689152236679,-0.0693707428568826,-0.03658373407460251,-0.007422957030856205,-0.017041131406360682,-0.07600122883836471,-0.025322694708832475,-0.020831370144500167,0.013322181839391505,0.030339398440084733,0.011901665752593207,0.04359891986473311,0.03201724857668457,0.09977047952229454,-0.022174638969000696,-0.01484412133044356,-0.010431866313045551,-0.06128149029301312,-0.003078829870209667,-0.02152311401891032,-0.02754564939526719,-0.010493516907717193,0.004794637010785927,0.021171007969204604,0.004753034273508127,0.2814375363177819,-0.13110391890213627,0.03348516197238278,0.31716308217286615,-0.05962237156038124,0.014775807767480617,0.03530291006477494,0.053978826029993425,-0.0008127565122297385,0.006091367604214262,0.003545243253297814,0.05576072650337892,0.0157893669211097,-0.10399091938869207,-0.04872843628614754,-0.12288369224878236,-0.1790336258276756,0.018415016106766924,0.04169934671243003,0.02076965421432992,0.0025157215933172663,0.019249732429116283,0.03369069188714631,0.015684824455046018,0.4836572368178708,-0.11290386769784719,0.07979618487558426,0.027902136247657385,-0.02795954321853526,0.01669966563745062,0.0220148777709001,0.03997320435612802,-0.00553156683414559,-0.013769101090342588,0.014096948171571371,0.03447544520948288,-0.14759675468072586,-0.09360997224365927,0.0031693030229507056,0.7857305422512012,-0.06808979045376598,-0.01568996315678387,-0.016709550477046295,0.027916124882764334,-0.039371832763845656,-0.00432327353554045,0.01336849797114224,-0.030131949289281024,-0.005989071781272861,-0.054240547557844146,-0.0475200630288869,-0.06749076910588639,0.001838477965410606,-0.03515669138377378,0.007706141159329697,0.005760494145376351,-0.01090210276915904,0.024325491685940035,0.017211841838119517,0.009918732460168946,-0.029803387393155755,0.0601327597201695,0.004725761769634124,-0.05922701291936921,0.004113819197128073,-0.020339753058785034,0.02019920312486086,0.06762367685736057,-0.025979344238046972,-0.05156335403258737,-0.04002051360747335,0.0130205655001932,0.017198188653859896,-0.009821284700571618,-0.028023851767395486,-0.001966839515296743,-0.015816231442383248,-0.05706567069966392,0.024303312523522004,0.0078461068825646,0.023441015935925052,0.01138854233071415,-0.013109346371543644,-0.0006123256911524861,-0.024972495497236853,0.0045576652096120576,0.01287719414112181,0.05414273515192398,-0.014193923865838225,-0.0048390657293311615,-0.04829521530015164,0.0078078891007345675,-0.05072657924925411,-0.028296366308475963,-0.0204403908504382,0.05719969432917891,-0.02738412043720009,-0.0007774929030758783,0.05014167583350894,0.01220173309857719,-0.03326833895568287,0.03919360082027681,0.0011876327013931208,-0.00781461070845951,0.003338055743513741,-0.03958462090408345,0.01190328241257076,-0.007399953467431016,0.04828449390663508,0.034719854140372035,0.0064733453144466355,-0.01163973087952535,-0.0008077610126982646,0.008876940939903178,-0.021701416542288965,-0.011486449951861615,0.009419223534866763,-0.02225953913981259,0.007569920007669231,0.04994287639015818,0.007728225683293492,0.021647092817582838,0.007723806623389282,-0.02074470997451857,-0.0004232243442809986,-0.0042542441402326995,0.0012588492694194382,-0.032976268169436294,-0.0111916839830709,-0.051315018559086746,0.005081291728727731,0.02072062663825665,-0.08378743227718322,-0.2113551600076633,-0.04008573210492066,-0.016568405763606485,0.03469486021454889,-0.013625463301889545,-0.03405208236533801,0.01271664309586855,0.024362240215573757,0.02746540735455196,0.020787294108724423,0.020547983422651444,-0.15256301353828067,0.33273962104746907,0.9888247385314695,-0.12645875686280797,0.06179611956310312,-0.025012247866965643,-0.038381586161890587,-0.0607704118960982,-0.03353779059701344,-0.014972687494708495,0.06018326187498022,-0.014859024802906448,-0.04071345285112535,-0.2136305660001759,-0.20658736882491266,0.05743495284594754,-0.026663245943066606,-0.017668433056850057,0.08754533460207342,-0.06588063004539735,0.009747096882375572,0.03081549185495995,0.03516668527110558,-0.025015932893266223,0.04242805787154851,0.5411489310338042,0.020103515702518344,-0.04535490622890158,-0.06476970780375638,0.021815854752293445,0.015643245803659042,0.014469067033505284,-0.030774831922622644,-0.05809817220279091,0.017273601557002225,0.014551111519620756,0.35080808101114663,-0.11459434779244526,-0.16839288099329913,-0.06993399606791806,-0.029273768714645862,0.06551899707268308,-0.01797176287214555,-0.02765750375314825,0.05966115961307439,-0.004203050326023761,-0.008348504293216163,0.05345968601842889,-0.002420966829627105,-0.01792389254539807,-0.01581414646492458,0.005726032999320216,-0.027920120731696293,0.020732629768843845,-0.02778815433148214,-0.01608899406316689,0.0046948981364648,-0.016821826484140535,-0.0007657068907569009,0.0047282595103178724,0.044934094008899715,0.04958324064310419,-0.05244527276522654,-0.0007685039496204919,-0.020732632975393163,-0.021614177857552076,-0.03995302856714574,-0.0014982091215816104,0.029934606438893212,-0.0018890810390248627,-0.014443000201348354,-0.037828932964929014,0.05646982212247624,0.012869628837661642,-0.0016032230216189078,0.027262087852410962,0.029384681968815322,-0.014570599494022859,-0.021964685336097415,-0.015562808302514098,0.011723116576770934,0.0012021422703825508,-0.02504388570437839,-0.020910447934865274,0.026726315810270674,-0.0029686303761139354,-0.043329975395911435,-0.02405280771507532,-0.024769332374966955,0.0045498844630321965,0.015706165821578154,0.009905008611005867,-0.03866822519900734,-0.027405551239409662,0.021504751960151926,-0.03006187392436824,-0.008271811621127634,0.0006275405940965637,0.011337050731211992,-0.03360957718901524,0.018009534100851675,0.013951545004339132,-0.02157136959746536,0.04350322858411036,0.04162819020568494,-0.011514143662129703,0.013534584007018591,0.02471147391717651,-0.017052314521530658,0.05494923154941056,0.005644618531102749,-0.022682944770071566,-0.02781901751582288,-0.038867704338778904,0.010638147770225773,-0.09231236003219778,-0.02650149383933852,0.007366725931629083,0.050071282727522176,0.015113971109117212,0.02564486321561101,0.0006526622807129582,0.03459045896833209,0.01605460316730568,0.01657918133263462,0.003196113160157564,0.08473139936491067,0.00060556908040636,-0.01938666935255661,0.01405735380352406,0.005042588156382136,0.01289572102609957,-0.029070508120394283,0.021088917059525914,0.03699386014680814,-0.011546944867829206,0.03253619716663198,-0.003176552606054657,-0.027745952818632073,0.0049469506832573425,-0.09223203805933351,-0.007648791264016638,-0.0055567428962559244,0.0013571977653683348,-0.042870463911968845,0.05779341215193329,-0.07253312086436722,-0.02229876093860641,0.01459615594868099,-0.0034659227640263745,-0.03842602956888587,-0.0057675528822261875,-0.0054845605258062105,0.016153778721430593,0.06061695254238036,-0.07517923196867582,-0.05873416794650698,-0.06730476053763512,0.010946119278864557,0.05471549756032903,-0.01545393423568111,-0.061235480447758416,-0.023027037871305146,-0.011625900743222421,0.06281529623153925,-0.003067533020077507,-0.01628011328859954,-0.06369761590828699,-0.03478444355689673,-0.030687737378567292,0.01896753471818921,-0.015948124583424737,-0.03267491665242625,0.032926658420955594,0.02047262270664963,-0.024785050731712808,-0.001597416269574519,-0.02174792543470327,-0.04569502369988865,-0.033075167004746005,-0.03447638539736638,0.035606186666754046,-0.0021341949538322006,0.0591994691579977,0.002308355419684701,-0.006830389283515236,0.016915075393450104,-0.02740067041714092,-0.024090883777992907,0.0023276598137192896,-0.03786329873155919,0.3362600049370404,-0.06268525268047058,-0.1204489807868123,-0.20358573137261923,-0.18864921123480913,-0.06703866210545119,-0.01694284618033411,-0.006349694719241974,-0.03499591056194541,0.0645604020923888,0.04892375228619558,-0.023742786449835546,0.03726678731931146,-0.019102628459696305,-0.06923947261612978,-0.01888829617862334,0.016832085844713837,0.011728116216821918,-0.01598675901495448,-0.07378519313610163,0.01603665408149606,0.0348717068529493,0.022769439408161025,-0.042255093034513025,-0.0015448007428134653,0.0073119143817969995,-0.040527698523625734,-0.023896653203106858,-0.030480355075671445,0.025511176395833987,0.02241741912561114,0.00820796500143948,0.04499097784668106,-0.012827501277420019,0.025884654888646018,0.0110122349972449,-0.017090865719280514,0.010873280346735226,-0.005459367371383238,-0.020546579009904985,-0.0035523079109256225,0.027599419950609834,0.004902414296447542,-0.023706560010038166,0.001983476070383729,-0.022984643705576003,-0.03741560767134483,0.003245373546652959,-0.02012933514868213,0.02313797032285244,0.042259724711237664,0.0492991049176634,-0.0015846411725195127,-0.008187884694568666,-0.00743057393828702,0.01710475837778424,0.00003968513139154271,0.03610548140558147,0.031432501107276516,-0.03167559728630395,-0.04517825411842168,0.008780814809615565,0.09294996158179379,0.16295226047265318,-0.11685553147041436,-0.028211462095501506,0.023670041770033103,-0.03976234488814728,-0.04140058280739325,-0.03929041584275017,-0.012801653334801683,0.019209761691612454,0.041758833180971726,0.014782568765728317,-0.0352798264474392,-0.05241309937984033,0.036182238423465275,-0.05563497599227327,-0.023039471581178396,-0.018135681130347383,-0.041245738529095695,-0.0016941704367294025,-0.019383712413173586,-0.0007704397933527012,0.027390548437611704,-0.039113443469280994,-0.09415984690293445,0.06707939965631786,-0.12060544284166323,0.006134739719251302,0.02230537019576056,-0.013819272186662835,-0.01434437214949988,-0.004327471295987563,0.016867034737947872,0.039764812549495626,0.012258131114857728,-0.0069912831210878,0.007767721118351127,-0.001985472079601065,0.000042686391444314765,-0.11384444149948796,-0.0045010148409153706,-0.0011039445548501681,0.02804465056591889,0.00240867598367173,-0.007559350336679509,0.0002476514121730202,0.021168953413651177,-0.08788927765208256,0.9941378084042874,-0.02527537481875537,-0.03145190565769813,-0.0030247391684238836,0.0038283096287385983,0.013702971047504288,-0.022472231753980224,-0.00161231471379447,-0.02359663749125183,0.011550399699960336,-0.04318121046449363,-0.03962982560972349,-0.09687692889438568,0.01532277942753051,-0.04433286556965444,-0.027195215383443546,0.007069335113559847,-0.010678743696561396,-0.0444120771476666,0.0310381005695391,0.009704344739347047,-0.03782234477616737,0.004647532361638545,-0.04687147102190163,-0.049618179408174,-0.038570809051240364,-0.003749953990647868,0.025280340613687415,0.022324664549936018,0.0021813108905291883,0.009429708755580985,-0.017382040518142468,0.00425672719644129,0.007825776924667982,0.0016007326207052922,0.05572657740732482,-0.08069938345304398,0.021932614740538488,0.009663779462863143,0.014692540412037408,-0.019793438132102884,-0.04135133492897898,0.005879583367176685,0.004168770626392169,-0.004637317678841813,-0.01758199188884696,0.023740788573041363,-0.006508901916458343,-0.011624937087808039,-0.037353885835889014,-0.03965256634180605,-0.016857995456271254,-0.00871982745066593,-0.012033577366239593,-0.013776153998535946,0.002822120806885555,0.024033325110661728,-0.027691122620854578,-0.0472778464620441,0.009953388091851702,0.06243680401182134,-0.03684546285711019,0.004120494101723532,-0.06777464914162483,0.0038553178501615345,0.03708509297211188,0.018787270827613233,-0.03036241566669961,-0.01744036329026654,0.002995096451955376,0.005192660403366663,-0.03945300476591024,-0.04631948204216503,-0.013808342254070573,-0.01549849018530174,0.04922195084279223,0.015723760317448075,-0.041624062720854275,-0.03312711675444377,-0.07387657947082833,-0.013359486853529298,0.04682063959254633,-0.00025984323691428707,0.025364885198582026,0.011818755359703866,-0.0015113343957897348,0.007234382937424049,-0.011922782462421028,-0.0442780410805794,0.017878826753373277,0.004224435069841715,-0.00697823551899766,-0.012980917761954484,-0.013566524812141316,0.00004266536879811251,-0.013001862542308224,-0.008464207536714681,0.00964414466234654,0.008699758272715657,0.045835984035815215,-0.006940208391223441,0.01126200879359093,-0.013182756165231999,0.0017146291761938588,0.005959355836961125,-0.012651510438945971,0.030510851499632473,-0.02816899599107288,-0.0652897025692026,0.8211414269107364,-0.0690572438303049,-0.07176099638868533,0.015257095531343074,-0.03172730240002924,-0.029623155927246212,0.014898802578233492,0.022802139917883827,-0.03819928142818686,-0.007680755302311746,-0.05779169178382362,-0.04079152370852301,0.03636781560639721,0.015468337040640238,-0.01809963768726769,-0.014110140457552803,0.009828826573151867,-0.06962290705002304,0.049827584835871803,-0.004446765972900313,-0.0370326916565633,0.020228554025803994,-0.015238659348033454,0.11381804667632299,0.17336144050952007,-0.010685937667530988,0.04195731419605586,-0.022528848936218877,-0.004667364855527968,-0.02495107202568134,0.019440747620289266,0.0243941178177514,-0.060037463137885154,0.02021825182097816,0.004850798835154173,-0.013709315724176335,0.12236506934034053,-0.05134260055733348,0.03234809775459708,-0.04699038135934947,-0.03764718751834188,0.028320955813999613,0.01672709176308504,0.015375620052306395,-0.031771889921010286,-0.07818768127921574,-0.022909257029158882,-0.008866952909077692,0.012012311546232612,-0.0590204237388477,0.013516656079796102,0.05811670829195429,0.025096068797812336,-0.021218962927571562,-0.007041574654549237,0.04800507516962137,0.030216053720684,0.013571927219069368,-0.044231488479664245,-0.07737068481205531,0.00039411258874376805,-0.06453161207666055,0.01644187172992535,-0.023488051481776708,0.010837219792509225,0.004398542077342478,0.030208101803098235,-0.0031064744483050707,0.01470176139404141,-0.001731804159281171,-0.021670618168898845,-0.015981130900379725,0.025544777736392126,0.006711422030889357,0.015043405430080705,-0.068186441115489,-0.001366482020044696,0.004660179205582434,-0.0016942016493328375,0.027635053441739815,0.007942866983457173,0.02054897969387017,-0.04990605543137231,-0.06882394397651147,-0.032273281660617985,-0.014913692340516172,0.0005408329053836785,-0.01256108070870195,-0.04680847790597622,-0.007392061991954019,-0.03890252454967547,0.021155414141343008,-0.02067172783933538,-0.004083817678525745,0.006164508282309076,0.033239827464923634,-0.010425574182195245,-0.013755979165542087,-0.032035231945275154,-0.01230042837724801,-0.04739471685553432,0.021688423284143814,-0.0396253018731091,-0.029946258922012088,0.030949920964079725,-0.002578427109620296,-0.039404454390692435,0.02024828114458955,0.018656020299272807,0.00856373691397874,-0.005227021706995778,-0.01460860474355142,0.017536606118706714,0.00909874793009428,0.06527946921064746,0.020855625040854628,0.013895937173840621,0.01135941469316941,0.010605987119124265,-0.04328309162310649,-0.030826698557179483,-0.019734705764765142,-0.011943791032079524,-0.009584667918432007,0.05160916699482421,-0.013740765899887798,-0.0022671606526275248,0.024075142162791007,0.03650031579290902,-0.03989684344393766,-0.03498270621455654,-0.01674182283990863,0.014350493122414354,0.015532418392188354,-0.08082296410852549,-0.02851959858755136,0.019250807058821356,-0.017391744003293262,0.012899493642075602,-0.037974537882937094,-0.028857011372794887,-0.014490909208532217,-0.019132464358658025,0.005906678828409455,-0.05331332033181377,0.040177724202782844,-0.05544942848022577,-0.01945588683160094,0.03257685159490154,0.039272793839232406,-0.02935711249030921,-0.005439853665603324,-0.005954791349345898,0.03284846176089,0.18323822105699317,-0.03574384295770066,-0.026554279173468667,-0.0575722678273348,-0.13285595957903817,-0.05109700496917969,0.03183567786386868,-0.03874416286882115,-0.013106151258201778,-0.014093594805754228,-0.035981197204731384,0.04128754238540809,0.6082399613250596,-0.09361688830041176,0.024131309608813926,-0.09437236915782508,-0.22333513096762028,-0.012976340912949143,-0.02310811741419327,0.025664540252865378,0.0401292085914808,-0.029967163657170708,0.02665472208907233,-0.027582720170228742,0.26975072506551473,-0.21627499575630374,-0.004660852922121687,-0.21641224544944032,-0.29699298028223486,0.0012328562699614022,-0.015450935421875674,0.0340673373555975,-0.04753809278136716,0.0067860248786741064,-0.013903313648308713,-0.04801905269929074,0.46130103950696033,-0.3026591713459967,0.10523847817690235,0.042502698407275316,-0.30678982003878713,0.0391387491221545,0.0566831548749815,0.0017698387900137486,0.01334758812355039,-0.013463799622637076,-0.003875349773421263,0.07852643065879877,0.09009039636675924,-0.03184028685656607,-0.019019217506238566,0.13049497431407808,0.029632232177843332,0.010799565398713204,0.0003100974820114999,-0.054273023006573454,-0.05876309639002372,0.05847132222733333,-0.002042280252112701,-0.006986988970859213,0.06790657743737236,-0.044010041619826495,-0.02689439605348844,0.036566650364246375,-0.004464181903955655,0.001300456253561942,-0.02357400511934222,-0.04927865724197041,-0.02876554113239888,0.03279852036769654,-0.003550079343071292,0.0020499967355701587,0.041253100670085245,0.0028642964720630255,0.029153745658518707,0.004424402397718389,0.0037797224957291965,-0.037158770553098186,-0.011606828688570225,0.027157668907051825,0.013859378377842674,0.0444580963713412,-0.04985449549962032,0.00037152719185386404,0.02617418603143308,0.000017420905449475433,-0.028808540429147985,-0.004535824234881914,-0.00148663837075628,0.09657800481442522,-0.0025658546046748486,-0.02364759061187691,0.03824167943830762,0.02602398472956516,-0.0695507589411036,0.03977361033390888,-0.033709088827123555,0.05991562567312513,0.030107226694487083,0.08190469649895583,-0.004382941453794169,-0.011616302320154719,-0.023825535468588368,-0.009006836616565856,-0.007564900072988802,-0.002941874393173224,-0.010956269241091663,0.002200691564350538,-0.010155371138304047,-0.013107385410742934,-0.03604000801591865,0.04838201747422179,0.0330438774914625,0.03243774079993034,-0.02559538986558531,0.04339899733599503,-0.016942954539433435,-0.007429624995389914,-0.02960150261562132,0.001670273788594727,0.0626144859724419,0.03270939763745118,0.015365210282348246,-0.07514624144727404,0.01009349449352187,-0.04555980736619526,-0.0395531949307556,0.017512397365862607,0.014647103004846989,0.05022258489302617,-0.02578556545189388,-0.029802355533685217,-0.009805059908788862,0.8257065449286234,0.5746463060614773,-0.15960555333084092,-0.31632592072071114,-0.25895378390822105,0.035348219139009124,0.029123149809905133,-0.016429522053496255,0.012111945575466335,0.002027735181021012,0.027880134712361112,-0.026843636753137046,-0.15231337818650173,-0.012672578314580199,-0.0775610319675038,0.40426552022661477,0.05343012078438244,-0.07646236805147913,-0.01173691013644424,-0.0030929481233704205,-0.03936256770373923,0.0010637343476543044,-0.0014609067461265888,-0.040939894382542794,0.04596226608324236,0.010694484570938191,0.01159179840495328,0.01761660344337862,-0.027890567238458126,-0.042779434816144817,0.039679257548732264,-0.0073544357915959445,-0.032013428895832495,-0.020445074444363488,-0.0020332332465880913,0.011656067198866688,0.12495781120951237,0.247935740216695,0.005914706029660442,-0.01030775603636844,0.04693690861980436,0.020158987516319643,0.033744203069740034,0.025982864474381837,0.008252558066335498,0.0064638761774891565,-0.009777808930606521,-0.026447703611510272,-0.001887588653402731,-0.02074133565779027,0.026124872551046365,0.018032758343188193,0.10695057153502062,0.018766258561328495,0.007970224961247462,-0.00218969760241749,-0.017587563040972486,0.009909872540782296,-0.0185873990267787,-0.014922788431074861,0.021573568895573606,0.21634466055284116,-0.012905261315883295,-0.01434481228539563,-0.04143498028957746,-0.027356454735336242,-0.01211305308743283,0.03557648662651938,0.03097118472764296,-0.04949071545387511,0.010536430294014828,0.0018279229937474704,0.0102909605068607,-0.03162307047748037,0.025634303343825795,-0.0037564255901353554,-0.003530082195967866,-0.06889315126298866,-0.022490602081538694,-0.029767193177262764,-0.02035961392384154,-0.03561775558386338,-0.022358658336242225,-0.00810868725420325,0.04675507879985299,-0.025974792135014593,-0.005558451407985615,0.010762454272913197,-0.002971367035500326,0.015701848885824744,0.011753265614870542,-0.03842704531938913,0.0015582124551158946,-0.011289119592206536,-0.04197365637094373,0.05921106224701719,0.022579699334326533,-0.03868042105207122,0.00823480990661219,-0.04064119818719367,0.011987727520276378,0.020539269765376112,0.003950943791266437,-0.027838554627732808,0.042575191597165885,0.031641869311202796,0.05358378202886722,0.0025165332499536967,-0.0214146474747068,-0.03072279310931748,-0.014800395351427145,-0.008014756869894427,0.0218072832767264,-0.008208301290094283,0.015270217839454201,-0.0025203010989771693,-0.0069673049606043674,0.02618810879248431,0.007975982784947008,0.0172101720279508,-0.00535714618140187,0.010148189782891705,-0.025260498721675406,-0.02985788768145679,0.014749134793560341,-0.022581907903846316,-0.006804856264670795,0.002974142805009142,0.00547149052639817,0.03864641348091807,-0.007510131356183363,-0.03894650265004842,-0.009638682008628443,-0.009656659682955438,-0.016025802195416283,0.04132772307395789,-0.03439752427428225,0.04169969123169941,0.05254852795568738,0.03907901651134182,-0.0013327214305687764,-0.04634567235564377,-0.025077248308572383,-0.04376232721561803,-0.01195502283235644,-0.021979828725674055,-0.026106818798652516,0.021081658179828256,-0.032620063660151105,0.011278056325228316,-0.005999579866800793,0.04095895236483058,0.02967514659905599,0.01976267115223413,0.05453184197711683,0.0017072901087314722,-0.043754789173793135,-0.021220260670469684,-0.1893236114666347,-0.03790577877956431,-0.02834396702733226,0.029272538121998294,0.0002224350210246858,-0.036224837703728995,-0.008408300560436552,0.027058020886917396,0.040348904945415244,-0.15555771788215986,-0.14170247817932471,-0.1520667368135588,-0.36781206514311093,0.35030675359374885,0.0022442257769935067,-0.03230714361701711,0.033233347558968514,-0.03327243976904684,0.012759738867442867,-0.023786381558771157,-0.0025067490211690643,0.04510569477932943,0.5630909255400692,-0.085703394479384,-0.17437949420208054,-0.2689076739926755,-0.03806139348232912,-0.07568573503321678,-0.040372583432013776,-0.0005138485088908594,-0.0001501625031098215,0.07077464799502609,-0.016518038575071222,0.016113923123400226,-0.4869458865809652,-0.033899546340485275,-0.02632574684047209,-0.13007143776856375,-0.04624320223353958,-0.0003703682008157061,-0.01494145028008813,-0.02839601627543867,0.013231510355004559,0.02779807337474483,-0.014172845949333516,-0.060386118929913184,-0.13303670451682864,-0.038479023035211606,0.2941497760784061,0.41504841220754735,-0.04591688385041057,-0.002303071281791812,-0.0008464182071646625,0.01598760617200929,0.019167209899712104,-0.04642742157185511,-0.05936844863604737,0.4009861617890996,-0.09568280541561705,-0.034304244432846034,-0.02370087328229756,-0.03857397663078745,-0.029911131021921774,0.0026566166953461722,0.017326557284275335,-0.06282608633496439,0.003234219388853681,0.05356807214726919,0.005905995618345714,-0.051569051472813335,0.0020581822943663065,0.007234804915450382,-0.024783051331931236,0.0025639187935659344,0.022495874705908338,0.014047099317950066,-0.014835069042934834,0.04733501884281718,0.031946698047221334,-0.02039938705741682,-0.01767443615682907,-0.03456551949541243,0.003322765520484891,-0.018964752048657208,0.018210916648910374,0.05811706493923611,-0.002404543046951921,0.04010557980012717,-0.03935270583463873,0.045573846286989295,0.04051340001748039,-0.0334062543675708,-0.001000514156239796,0.0019812975922489846,0.022741344472115295,-0.009491588871129844,0.0233103483895547,0.028394881665254352,0.04414480050969027,0.05182260275193514,-0.022462905764040964,0.004039969506998855,0.012880708011139228,0.028263340460238602,0.01842362341292525,-0.028852061789831164,-0.049707541814796835,-0.061150549804476664,-0.013696822854464321,0.023958738914882552,-0.018303578118293407,-0.01476287753570409,0.006616192261280457,-0.0222372608243766,-0.030708978430901868,0.0757406280248813,-0.001964989285234012,-0.02127386707913494,0.0015618323476263606,0.009006160492721066,-0.03621741756281116,-0.020581466495091974,0.008444280754399727,0.041138735314703585,-0.01295836619033475,-0.03436234054709763,-0.05881895810396439,-0.03155036888841863,-0.01378029686992543,-0.04142767700594069,0.03679127306980509,-0.015751575956015264,0.006615213125798342,-0.0009301312691342567,-0.03220849310459062,-0.0195548996461231,-0.02567558687985307,0.049673736082618804,-0.022004527515546924,-0.016042936185705337,0.011955697282519292,-0.007599212333466935,0.23423089796414653,1.366884154179086,2.2367673826459282,0.2591362529973478,-0.06642547557741307,-0.0017346990167450057,-0.006139851109922928,-0.018092766283545034,-0.05943235434823306,0.04222614493597753,0.0049092054247733006,0.013240238620502238,-0.13608673372540406,1.698844719304468,2.027583676694232,-0.10701872357731686,-0.04005540771589002,-0.09384539290383834,0.013940085289429586,-0.05598774941272644,0.09265776464005897,0.0007083906113724848,0.01576696660186117,-0.017096325499052156,0.6960250169220075,1.0713306675654095,0.13557032823842993,-0.0015351891691688445,-0.006945099920118844,0.03748043279907269,-0.0035063442377824988,-0.005951675539258369,0.011297783637032346,0.04006058383568653,0.013518433533217857,-0.024036169893514345,-0.08443212170071636,0.5189228394227949,0.20107022601160188,-0.19319366035744576,-0.05237092503489117,-0.019518218614970006,-0.012075014702899277,0.0184901246939215,0.007242359872072302,0.006861577678287339,-0.0024643145044278545,0.017649096863763564,-0.07161721937208376,-0.016055242487646598,0.014649236910056517,-0.007305649305375442,-0.009639691219183968,-0.04011314404351848,0.03640628716988282,0.004816814133906275,0.006256791059531031,0.010980880416410082,-0.050023065884470086,0.02470559064931219,0.11852305312068372,0.029132503345478254,-0.06957143506301465,-0.023199698964359725,0.03973324532804724,-0.03264913772223397,-0.005899091672033845,0.023140010986563233,0.007632319378893545,-0.011603816346514573,0.048970173391518025,-0.024214893063589576,0.0059497010189374,-0.039252112345972846,0.02547606714321366,-0.04120903646588632,-0.005166333921699085,0.012940402267001976,-0.0278851750245675,-0.022631820021836536,0.01244592694645468,-0.03798890452310834,-0.021820836268276567,-0.04650972269474468,0.018813323795172535,0.011267203449973832,-0.03374922223487834,-0.037244464325777354,-0.04088094187640502,0.000836490275772671,-0.002518050138457544,0.02158312119952217,0.020645540369008834,0.03827065338782741,-0.004797913322799594,-0.011946014002910847,0.020408261933533983,-0.007888329577213353,0.041130369197751114,0.0008903434570441632,-0.0019738368324211564,0.00040170601279004056,-0.00896305498747319,-0.018735569499912806,-0.004412320179522377,0.006301738880766391,0.0014719083032781522,-0.03338665093341625,0.007888778121798846,0.019485739622347002,0.020892066476465077,-0.03652288045802177,0.0061136818415148215,0.014126750745826642,-0.003160719370820522,-0.018355655244008683,-0.061005840361033195,-0.01788762299338817,-0.0004456175299606689,0.0007053492556305803,0.025365097118556456,0.08048886020719129,-0.037077367961672866,-0.039882259558082486,0.0020130971769079563,0.0029130782110809396,0.014875810353190796,-0.01212401169718662,-0.01595781253946811,-0.034050367716263415,0.01545502556191869,0.004780698295006499,0.016547079293216194,0.045061833563837805,0.008025438081547298,0.023662699267548715,0.008678608654238336,-0.013376796386240439,-0.017120099419697367,0.00504790349783456,0.021582255919173066,0.010473509711715049,0.014314294475485658,0.049136504481810395,-0.013352229737839645,-0.07260846152656192,-0.11710640785406973,-0.07070593068289846,-0.03823778431187919,-0.04329899691942808,0.0051254588712230185,0.006282241055660383,0.005449895320609434,-0.006568898988735706,-0.012682244464794497,-0.12183959270790251,0.02463327854762777,-0.0448680844570594,0.07364682640440147,0.00964532619416616,0.011582976791000232,-0.06386651176235943,-0.014223594996129312,-0.04899696279160303,0.01075319061794774,-0.03785448855134967,0.028747047987250137,0.038485488297229226,-0.01354663175882268,0.01877374871497873,-0.10008810105630607,0.04972545839123665,0.08221327578075967,0.004542899098536013,-0.003963491768799275,-0.04070175993822155,-0.03562974263848533,0.035021182029944475,-0.015860639241947545,0.04759501982048167,0.004793902950805518,-0.05538799290212359,-0.13283977151463708,-0.02339768444894422,-0.0024193015151469724,-0.011139405368415118,0.02089169480215544,-0.0070988413198589005,0.007207478048821174,-0.023537754266144836,-0.01761399647134992,-0.049617317783431675,-0.06663542185223138,0.16837165890071504,0.1640513299933178,0.06339699729386414,0.015120795527970377,0.036086473078183405,-0.004318814306969888,-0.06773202399592204,0.04256770075365063,0.01548648988760576,-0.013829788926084753,-0.06627356200270354,0.030514256683644634,0.1980180699873659,1.6301995705315886,-0.06164484075792111,-0.050111578576966326,0.01640157163840991,-0.0044220173396027134,-0.04654034313491734,0.04562972006500192,-0.009608556869851294,-0.008174471297462526,-0.013031815925981738,0.02586662928735866,-0.023309184271091053,-0.031221856535543543,0.002264704436303425,0.007815817783362138,0.026601761227177254,0.003943562852119572,0.008808934746035457,-0.023030787022191742,0.0017879010581650487,-0.03175787091128409,0.07397038303173689,-0.03570280503052784,0.0225053858836726,-0.05597584336409845,0.022990798134444768,-0.01930011734444858,-0.04152228577124377,-0.01489665415828775,0.017168900165876817,-0.013212879092068992,0.0049408981551967626,-0.004936233104093745,-0.027444206519111267,0.05888836949726801,-0.004855096343857423,0.02122733083164863,0.009563444338910963,-0.033326697797898944,0.0019280782126975375,-0.008367702411610707,0.009604521308725179,-0.008896720583051729,0.04190280857484052,0.012740945747644753,-0.0022844880397984695,-0.007411272439486294,0.02553519067361495,-0.007695275485673528,0.0490895909983487,-0.027678194074750192,-0.011758031394472127,-0.01873362350474897,0.0221047694087363,0.030008745181629343,0.007405524417545914,-0.015235873012057028,-0.030158962409074837,-0.054972331591538366,-0.0015996251814244303,0.020247376123438226,-0.0027700430627730665,0.03761745153933083,-0.0010412027301799293,0.010781395852193518,-0.07402489462647972,0.028086658284515936,0.035081108187190124,-0.03006472750302119,0.009270272345176451,0.025551350227480143,0.050455551819531944,0.04778800414471022,-0.03530828156750906,0.04629436107693085,0.011452087283934848,-0.00531276766064634,0.01027206671486437,0.03786960291460448,0.03982638312587762,-0.007069744158004051,0.04731603316264913,0.0124210751111295,-0.09088759692669203,-0.3099830214103835,-0.045764528525306734,-0.06846106088139434,-0.018197755969099574,-0.01801421959203383,0.05736709977031666,-0.03849979085689175,-0.0657582719657144,-0.06917199220498557,-0.01931894897272243,-0.035787859638788645,-0.23630619232798328,-0.26566068216351935,-0.014622705164738419,-0.030531313365468018,0.042673431700758734,-0.021270813227531653,-0.020848448941020774,-0.040457693240744774,-0.0006714664927520644,0.024633566061772073,0.05107071984916872,-0.03577870993070757,0.024698884421175432,-0.005521278798047736,0.019427281676360212,-0.05249420932424713,0.007479157904798757,-0.0010581274399274298,0.0220627578682363,-0.01327115503959513,-0.021543090978212536,0.016259141364565653,-0.009072510281250857,0.08600660070558963,0.13420914954114604,-0.1318120854866511,-0.019511782297201373,-0.05143372475141721,0.03604003746224121,-0.04604296348449285,-0.03906382934687664,-0.010728697681273188,0.04878047036429507,-0.05675634749777607,-0.005174612731094933,-0.03659711361135509,-0.1311841750479831,0.0444939513847681,0.05723100728667953,0.12358161849631018,-0.04081036218691096,-0.05313762167094444,-0.011343554391379301,-0.09317864952893345,-0.013612564630134875,0.016820036892292885,0.08733475964966295,0.9393763446905053,0.8824795275915837,0.23560722875638834,0.08892888694681114,0.006515982449142533,-0.018436621719855308,-0.0019007932702808108,0.01134422641322439,-0.047000053531769184,0.027687049810827175,-0.04811510390963469,0.05680986612185332,0.03892207390059178,-0.010356897209300593,-0.025473112722129064,-0.07299110061013948,0.031416318141910676,0.0733127931635978,-0.01614514985330208,-0.012373505640370559,0.02896077740770561,-0.003600565100602281,-0.0021802126581073424,0.06458400421670807,0.004232261771700442,-0.02051049910944063,-0.0014286385411390239,0.046787132720097616,-0.013079083371632608,0.0247440491878028,-0.011574352997358997,-0.005250150439580218,